{
  "weights": [
    0.0054456226421837695,
    0.0018604730875123085,
    0.0060529083651546306,
    -0.014303380814314395,
    -0.013974509074151842,
    0.012052188832172272,
    0.015285951643433696,
    -0.0035878426609504245,
    0.09378678303630117,
    0.0002836526568684773,
    0.008674806113550954,
    0.018440724854555824,
    0.008939859159551068,
    0.000914006218750623,
    -0.00021171126928722648,
    -0.0019511427383121964,
    0.00012127570447828511,
    0.01794340949498745,
    0.025615856864246278,
    0.0031077634640198602,
    0.001230418260307252,
    -0.0036582451258111138,
    -0.00533558171072252,
    0.006189307296541659,
    -0.0023271524408358785,
    0.0005112614091464423,
    0.001650117204988239,
    -0.10211616119951664,
    -0.03674917677147018,
    0.12231084966365541,
    -0.026487617156016975,
    0.08170792618406235,
    -0.03992566663324182,
    0.013544484301167269,
    0.03131761874462949,
    -0.007025370810038366,
    0.004081029585195461,
    0.010316657625166228,
    -0.010318438466115517,
    0.16988571367889813,
    -0.04613882794899819,
    -0.03191956551338313,
    0.0012933106147827347,
    0.013098084368270124,
    -0.012045730860978321,
    -0.016522559812406225,
    0.10486666850343516,
    0.002641027055724802,
    -0.004836205842278405,
    0.026594308667858196,
    0.002523178995393445,
    -5.154786695883869e-05,
    -0.0070779640104718005,
    -0.007896477143046435,
    -0.007490821950199377,
    -0.0008060070158241808,
    -0.008459448780469413,
    0.003930472921783241,
    0.012851797187571859,
    0.004350584747513943,
    0.0018532317266573741,
    -0.0013838959544135061,
    0.000938559877983877,
    -0.006243365408480535,
    -0.02125285572304951,
    0.06629781719041028,
    0.0200412283991572,
    0.10934826737521484,
    -0.021428369817425266,
    -0.005431448979776189,
    -0.0017067574535027609,
    0.0030404603282023048,
    0.009798722555750865,
    0.1803193920879762,
    -0.026620934200433734,
    0.02494580572993721,
    0.005577846093421363,
    0.004392813422938283,
    -0.014172321026870906,
    -0.005994000824493739,
    0.03576891798016746,
    -0.014489270357076846,
    0.03603360189891619
  ],
  "bias": -0.03971987389095434,
  "learning_rate": 0.0018,
  "n_iterations": 3000,
  "optimizer": "adam",
  "batch_size": 256,
  "regularization": 0.0006,
  "l1_ratio": 0.5,
  "momentum": 0.0,
  "lr_schedule": "constant",
  "use_focal_loss": false,
  "focal_gamma": 2.0,
  "loss_history": [
    0.678707278592458,
    0.6762654293135072,
    0.6760713237689964,
    0.6765851427332297,
    0.6760699078031056,
    0.6756965894473231,
    0.6758516048525257,
    0.6760815739086063,
    0.6762844052359331,
    0.6765246031847387,
    0.6753255034712525,
    0.6754417450036875,
    0.6752183883962547,
    0.6758123445032483,
    0.6761835335591277,
    0.6751505669636961,
    0.6759016512062281,
    0.675325972604986,
    0.6752911251973547,
    0.6750333428846748,
    0.675365555515742,
    0.6759101978008507,
    0.6751210565872333,
    0.6754257198418112,
    0.6753120224682783,
    0.6759815750600658,
    0.6754755969541044,
    0.675348014434501,
    0.6749988402201663,
    0.6757042696815362,
    0.6750512433349365,
    0.6750791953394427,
    0.6757987455863401,
    0.6754244106751734,
    0.6752268521847637,
    0.6754852053657504,
    0.6754262222996974,
    0.6753011317040915,
    0.675346560185103,
    0.6754768242342747,
    0.6756831838912501,
    0.6751595973167842,
    0.6755417983280401,
    0.6753417964673148,
    0.6750060780798779,
    0.674847635395574,
    0.6751185191215471,
    0.6749418314355189,
    0.6749072916847463,
    0.6758626569908163,
    0.6750505994513588,
    0.6747807370006088,
    0.674920654563101,
    0.675496723362976,
    0.6750866715264101,
    0.6747588057790505,
    0.6754607578412569,
    0.675329477224059,
    0.6756786003075201,
    0.6749703375453022,
    0.6753262002626186,
    0.6750963881115634,
    0.6756333944003268,
    0.6747882853464642,
    0.6749169028185179,
    0.6751419086597952,
    0.676624872658814,
    0.6754736478259452,
    0.6756125697315066,
    0.674948030246962,
    0.6751325791644075,
    0.6756222163574681,
    0.6748744594149028,
    0.6758522462871444,
    0.6751579393460863,
    0.6750265875143393,
    0.6751805802034909,
    0.6753132940361452,
    0.6752446590422088,
    0.6755523339536001,
    0.6748343240154367,
    0.6752816117845359,
    0.6757313417896689,
    0.6748778906533542,
    0.6749847821231361,
    0.6753027316015101,
    0.6751370492821922,
    0.6751842829755763,
    0.6750835576007431,
    0.6751598663067512,
    0.675191993415835,
    0.6753570598691923,
    0.6753494855780068,
    0.6754718536503221,
    0.6751970567343749,
    0.6748096991369401,
    0.6753177196384245,
    0.6757282235376276,
    0.6749411194961703,
    0.6756094534911008,
    0.6751081548684945,
    0.6752487350486935,
    0.6748683833564578,
    0.6747579149409311,
    0.6753210218568624,
    0.6756912258910917,
    0.6752744875885974,
    0.675330010977722,
    0.6748982471816419,
    0.6754459626183994,
    0.6753323599712168,
    0.6750998263589543,
    0.6750821048527439,
    0.67587149286439,
    0.675470614990199,
    0.6750595652281014,
    0.6754084780816276,
    0.6753887584694263,
    0.6752174817770624,
    0.6754140949503813,
    0.6757043055799796,
    0.6754227725483464,
    0.6752762897566915,
    0.6756300739958018,
    0.675245611192711,
    0.6746079861802309,
    0.6749657337176148,
    0.6751609090259135,
    0.675110813106219,
    0.6751915921351415,
    0.6754766806397999,
    0.6749560077741245,
    0.6753143308175292,
    0.675096413940159,
    0.6752426960195524,
    0.6753366873856357,
    0.6752977975111565,
    0.675178509532166,
    0.6751580090003363,
    0.6752282543630882,
    0.6751273475285657,
    0.6750834598098601,
    0.6747651564204501,
    0.6748095065116925,
    0.6749938295256678,
    0.6751429203093583,
    0.6759956583881499,
    0.6751615727032076,
    0.6754684788592018,
    0.6757831046257696,
    0.6750743380521033,
    0.6751463322677438,
    0.6750673289532442,
    0.6749511401427024,
    0.674912912010995,
    0.6752307487187534,
    0.6754471751228975,
    0.6756168403844952,
    0.675269622633275,
    0.6752665115636644,
    0.6751855696333927,
    0.6752257302017365,
    0.6749684829094815,
    0.6748482476428794,
    0.6751774464050335,
    0.6753197010226814,
    0.6752790595117707,
    0.6750949672099787,
    0.6752124660649135,
    0.6749605280736817,
    0.6746576380103296,
    0.6751043299017685,
    0.6753511438641305,
    0.6758904447589518,
    0.6748896062031642,
    0.6753337661924068,
    0.67533878041774,
    0.6750655270963462,
    0.6750756601684252,
    0.675181021416752,
    0.6752164543198982,
    0.6752584205110035,
    0.6750741296183451,
    0.6750047462827032,
    0.6753935975369608,
    0.6748000120669362,
    0.6757636819529745,
    0.6749422746181342,
    0.6747948425077576,
    0.6752866877434234,
    0.6756211330839424,
    0.6748456513474447,
    0.6754531990133495,
    0.6753719499525979,
    0.6754286377290584,
    0.6750411417681348,
    0.6750878184606023,
    0.6752644641698395,
    0.6750912547536917,
    0.6752143947926996,
    0.6748194445282276,
    0.6753197752482087,
    0.6755500091182532,
    0.6756697879178322,
    0.6753399792746122,
    0.6751468937697255,
    0.6752601254190854,
    0.6749966530475171,
    0.6753384993073385,
    0.674816520170588,
    0.6753025567863029,
    0.6753587271588767,
    0.675609288006715,
    0.6751671821745,
    0.6755592466123058,
    0.6752697307109874,
    0.6755914590573813,
    0.6747561107545074,
    0.6747412397581619,
    0.6751930296736417,
    0.6755884271414695,
    0.6752587018879997,
    0.6749154881623988,
    0.6755289524425795,
    0.6754297542236523,
    0.6757605355939875,
    0.6753448906252186,
    0.6758042910245053,
    0.675308013185715,
    0.6751907144781973,
    0.6751954276395175,
    0.6753170120495352,
    0.6753779041581027,
    0.6753483581433677,
    0.6751375326850786,
    0.6750059710820234,
    0.6750696499803298,
    0.675134134122394,
    0.6752419744481403,
    0.6755723208357127,
    0.6753211359961586,
    0.6750206017667542,
    0.675128641790146,
    0.6752595216490996,
    0.6760111465092692,
    0.6752656998868218,
    0.6751767149056735,
    0.6750367552104943,
    0.6749703265623278,
    0.6746859323829872,
    0.6750075877676526,
    0.6748694049903241,
    0.675188554078312,
    0.6753129802107363,
    0.6749738665436568,
    0.6752882487280966,
    0.6754845651708806,
    0.6755413899293063,
    0.6752645538823809,
    0.6751294665358684,
    0.6753133276691489,
    0.67500832089833,
    0.6749422157748871,
    0.6749379269179804,
    0.6752473672156911,
    0.675184689599334,
    0.6751422985108165,
    0.6753481187899465,
    0.6755726264448507,
    0.6751953016583716,
    0.6749773450148233,
    0.6752495606056449,
    0.6749288923104497,
    0.6755365098398726,
    0.6755431506021898,
    0.6753085731187812,
    0.6750711674090152,
    0.6754959312971689,
    0.6753335099656508,
    0.6757101601552942,
    0.675022924405456,
    0.6752415762610272,
    0.6755177158372585,
    0.6748505648025954,
    0.6751007974130577,
    0.674975970213745,
    0.6751732811333859,
    0.6769543057737518,
    0.674951672471064,
    0.6759526914947904,
    0.6749748682792942,
    0.6752972934002363,
    0.6754325278792452,
    0.6754270643958588,
    0.6753968998987243,
    0.675069094302476,
    0.6751102087910118,
    0.6751235573820541,
    0.6750461972558199,
    0.6753456151635393,
    0.6757758757960587,
    0.6754652330426668,
    0.6759002579232005,
    0.6759538199556744,
    0.675137705030788,
    0.6750504528074097,
    0.6749770996270902,
    0.6749856260085573,
    0.6750298153621986,
    0.6751791337244597,
    0.6751910532304616,
    0.6750198011010098,
    0.6749690704152034,
    0.6750075947359118,
    0.6752786902846505,
    0.6750377724292861,
    0.6753380521731344,
    0.6752158334182843,
    0.6751976500938593,
    0.6750294212921344,
    0.674920906948946,
    0.6750744190316742,
    0.6752095589760969,
    0.6751944477547833,
    0.6749619173156035,
    0.6747295093540877,
    0.6756324827474325,
    0.6750138545773827,
    0.6751853482955235,
    0.6752655286168164,
    0.6753641729974836,
    0.6753409619010918,
    0.6749241043134647,
    0.6751012256367445,
    0.6750255903268905,
    0.6750732454516489,
    0.6749208332840235,
    0.6751265173377481,
    0.6752881715682933,
    0.6756309684340968,
    0.6752924787898269,
    0.6749425982356767,
    0.6752243656193508,
    0.6753007823360321,
    0.6754459639127784,
    0.6758811240374953,
    0.6750152590462204,
    0.6749308753042104,
    0.6748755660482203,
    0.6756368829724871,
    0.6754079166823912,
    0.6755010225847795,
    0.6751340351933109,
    0.6751539770815361,
    0.6751647159079437,
    0.6765397683440976,
    0.6753852856995297,
    0.6752497577838649,
    0.6753277748802029,
    0.6755211323712712,
    0.6755104419790879,
    0.6751829778441937,
    0.6747922022545026,
    0.6748798831635544,
    0.6758052624643227,
    0.6749455568969356,
    0.6751067704217739,
    0.67550705350099,
    0.6750646210442227,
    0.6752625189953559,
    0.6755130875108019,
    0.6750670017844789,
    0.6749157200191107,
    0.6748249094415696,
    0.6754992414765464,
    0.675114588733531,
    0.6752787319403367,
    0.675124186270751,
    0.674986531881164,
    0.6754017826841543,
    0.6757485788297064,
    0.6751693641564348,
    0.6752730834608462,
    0.6751195858223011,
    0.6753539534923414,
    0.6752214611496546,
    0.6757138984162904,
    0.6750658164755996,
    0.6751156016720631,
    0.6755598917379928,
    0.6749796497967316,
    0.6750501094468777,
    0.674902839426002,
    0.6751712990823788,
    0.6756125949826988,
    0.6751229434619026,
    0.6752905455635969,
    0.675055283747033,
    0.6754447774455553,
    0.6749213695615047,
    0.6754653375179822,
    0.6753144601100453,
    0.6751496024209299,
    0.6751033489556686,
    0.6754178007175747,
    0.6752313529535552,
    0.675578350074596,
    0.6752266227415518,
    0.6756068635054058,
    0.6752397584213927,
    0.675223986758894,
    0.6755436053056731,
    0.6751129451006711,
    0.6751997163219057,
    0.6756275831625748,
    0.6754060509517592,
    0.6756045028474126,
    0.6756581655117319,
    0.6748163098149619,
    0.6750570482246194,
    0.6751663245486264,
    0.6757197817388795,
    0.6753614726759692,
    0.6756173640557236,
    0.6753070950717861,
    0.6749610653922937,
    0.6754272525045727,
    0.6746695841373974,
    0.6755656460931536,
    0.6758425702802372,
    0.6751807935733279,
    0.675249049813683,
    0.6749807897457688,
    0.6753924543670942,
    0.6750892141663623,
    0.6748977577511738,
    0.6750477921952996,
    0.6751200404980825,
    0.6750437577072023,
    0.675207736177766,
    0.6752050119572353,
    0.6752055111756782,
    0.6754273896469589,
    0.6754104911970162,
    0.6755508218243422,
    0.6752850870318223,
    0.6749093741764265,
    0.6752674349190122,
    0.6751221825195883,
    0.6754944678383358,
    0.6750854018572606,
    0.675528824147851,
    0.6749318398553072,
    0.6750624162530519,
    0.6751162773668161,
    0.675644745765986,
    0.6754413369267079,
    0.6749088287464263,
    0.6756434053177945,
    0.6753740573258394,
    0.6753626804930783,
    0.6755645609149948,
    0.6751358014380354,
    0.675632626453496,
    0.6751729430215287,
    0.6762882470487755,
    0.6751755681025491,
    0.6750751425077519,
    0.6751481824542859,
    0.6750048856499816,
    0.675213497964377,
    0.6751219643106784,
    0.6755482402787082,
    0.6751189392363071,
    0.674906884002715,
    0.6752100720405957
  ],
  "weight_history": [
    [
      0.07710499019708883,
      -0.021462782008086743,
      0.10054075986816374,
      0.23642008474350593,
      -0.036347652977485836,
      -0.036345104444677506,
      0.24514137139164802,
      0.11912897369546548,
      -0.07287655828981418,
      0.08422165261129948,
      -0.0719363771796017,
      -0.07229527861412716,
      0.03755982885541517,
      -0.29699869354293823,
      -0.26775917650104375,
      -0.0872839522836992,
      -0.15722188129985945,
      0.048780646479126936,
      -0.14095267271395895,
      -0.21923205204967727,
      0.22751281249986077,
      -0.03504727886293113,
      0.01048241031370739,
      -0.22116381074574376,
      -0.08450458756513327,
      0.01721852526320409,
      -0.17866885404018662,
      0.058319642889164164,
      -0.09323720698800872,
      -0.04527965144946067,
      -0.09340298068056462,
      0.2875293373321968,
      -0.002095175615184787,
      -0.16418857871089118,
      0.1276837331891919,
      -0.18951168814604943,
      0.0324219178127711,
      -0.3041997993720565,
      -0.20617446001766682,
      0.030558790342203726,
      0.11463224485599911,
      0.026601516306997256,
      -0.017952095034533468,
      -0.04674035832474923,
      -0.2295111240184105,
      -0.11174149215444244,
      -0.07150500484823163,
      0.16409719432313208,
      0.05333990321817445,
      -0.2736769086852322,
      0.05030758864375305,
      -0.05977636287706352,
      -0.10507867327993047,
      0.09495057462918767,
      0.16004216427764212,
      0.14456271080637878,
      -0.13027182436624352,
      -0.047999069614364884,
      0.05142205728623198,
      0.1514339726532541,
      -0.07438226732171065,
      -0.028819862467944293,
      -0.1717364943364162,
      -0.18568728002672208,
      0.12612846884024545,
      0.21052928223184325,
      -0.011178138744150613,
      0.15577851725249886,
      0.05613679819101396,
      -0.10014200733606154,
      0.0560994778406628,
      0.23874957792362506,
      -0.005561279817832906,
      0.2428797992006239,
      -0.4066633079511694,
      0.12758401217003632,
      0.013512325554850326,
      -0.04641494245082815,
      0.01424403498945029,
      -0.3085305315890097,
      -0.034099690245597496,
      0.05543462202303648,
      0.2294136479528773
    ],
    [
      0.0054557298462474665,
      0.006475589077025663,
      0.016932763564731158,
      0.06574212052881095,
      -0.031329596415768955,
      0.016724578624460838,
      0.057233396003717095,
      0.059244260417234774,
      -0.001773140720890243,
      4.20836921986486e-05,
      -0.07452519090466529,
      -0.07506887601883981,
      -0.016280556221112068,
      -0.06934957303563803,
      -0.16547516656902164,
      -0.16132764308107067,
      -1.7541362403305106e-05,
      -0.055109048232315744,
      -0.11471821067066185,
      -0.18169125226607089,
      0.25987012264409676,
      -0.02788778233834041,
      -0.08622109414356073,
      -0.03845055413403993,
      -0.01610262528517174,
      -0.09217745747366872,
      -0.07495277867497004,
      -0.09194072365236207,
      -0.13907581399940716,
      0.0002074819425686151,
      -0.09569611192214196,
      0.12942716957937503,
      -0.08205072789003763,
      -0.0178776732174332,
      0.10845117570382522,
      -0.09390922842251082,
      0.007289265247191341,
      -0.25706562228358176,
      -0.24120452026697436,
      0.13291917655538849,
      0.011571794605735236,
      0.02614966762359832,
      0.005735995980486358,
      0.02630140645467872,
      -0.1315468542186639,
      -0.02551389832429792,
      0.05539009921175987,
      0.027675257294102366,
      0.008087703344019101,
      -0.008711646363070258,
      -0.04557040163429928,
      0.02927297268766339,
      -0.03622869361210653,
      -0.017028359359433958,
      0.02405335879073704,
      -0.03118373749958484,
      -0.03050717266790367,
      -0.021154547468492255,
      0.024013754667356894,
      0.10212732654809101,
      -0.09918743974502961,
      0.050472553415428126,
      -0.03590039479351841,
      -0.1624673939986533,
      0.1279033721381591,
      0.2822934899942455,
      0.01216856263686943,
      0.12912342743061606,
      -0.0093940388923566,
      -0.053844976809606565,
      0.07082613784354265,
      0.02446316405572702,
      -0.018689786746155373,
      0.19766979115196018,
      -0.13617749617117553,
      0.037258032357240733,
      -0.11357197007212341,
      -0.06917351105747341,
      -0.07257538603579397,
      -0.10056735177749579,
      -0.04501590354434293,
      -0.0016273850690717818,
      0.06006277082231757
    ],
    [
      -0.0073115127260064555,
      -0.005354197128886167,
      0.01851387029261242,
      -0.009331840509767025,
      -0.008300858434949857,
      0.013899531635893705,
      0.015564623338685947,
      -0.006931868353066228,
      0.0011877217068646058,
      -0.00011820589636329497,
      -0.05051225486463341,
      0.007404849050406593,
      -0.0044076958755394965,
      0.01951644351036666,
      -0.11664395771622307,
      -0.06997447555447275,
      0.0002441684384393815,
      0.015812045350466843,
      -0.0026664256401011696,
      -0.07431862511361988,
      0.23159722384163195,
      -0.003841396403965933,
      -0.037251289139948955,
      -0.020463169345452274,
      -0.0038555763373273187,
      -0.014574950646447142,
      -0.026249608044019886,
      -0.09082372485818103,
      -0.1311336243141043,
      0.017402869230621145,
      -0.08154615870049813,
      0.08146685804407132,
      -0.03721960001934811,
      0.009342754117265486,
      0.03520644815830517,
      -0.011384354466137827,
      -0.010616876222934831,
      -0.18295534174662204,
      -0.19876568558212482,
      0.1685679484334151,
      -0.05070562838690735,
      -0.021907457846195837,
      0.0035359592231100374,
      -0.0002843793194152257,
      -0.034758832504470545,
      -0.008674088244035491,
      0.10348487371079262,
      0.006121833413070592,
      -0.0007431520894169582,
      0.013548231242624099,
      -0.010974334910541776,
      0.0007156989243512088,
      -0.008822645481636119,
      0.006424302231708607,
      -0.005449683940926851,
      -0.006302035882885798,
      -0.010061070196380657,
      0.011241939314774454,
      0.012911358773305523,
      0.06268935870745004,
      -0.040348563886704956,
      0.005652718628627529,
      -0.0056513774932642116,
      -0.048647018401978166,
      0.05074312904635836,
      0.20616188484333792,
      0.022259736682791034,
      0.11959553990374398,
      -0.016324636295384904,
      -0.00687185989816276,
      0.00029020975595034647,
      -0.007903819083340103,
      0.017424777606738218,
      0.1806738224422153,
      -0.025191109100920372,
      0.01960074283332335,
      -0.04366229845975543,
      -0.028506202866190364,
      -0.04532767115174228,
      -0.05105563403230943,
      0.03744806260583797,
      -0.009312984069319297,
      0.03117605526554785
    ],
    [
      -0.010003303201249371,
      -0.013376727843523534,
      0.007385102265340695,
      -0.010790939004800009,
      -0.0040564097247444714,
      0.019900858465836432,
      0.013444450323906568,
      0.0002667732505609302,
      0.010899877456615654,
      0.00025392537371035065,
      -0.032294920739566274,
      0.0196767110184773,
      0.012141243696194421,
      -0.003838295085016953,
      -0.06436944611084251,
      -0.05681991428803644,
      -0.0001212681398749897,
      0.015980860203776075,
      0.04533514613553669,
      -0.0419928917313581,
      0.1459535735249313,
      -0.008521424507033224,
      0.011909608882318084,
      -0.01269689721248483,
      -0.007413475033854767,
      -0.0017133685382276645,
      -0.004800671786724388,
      -0.09713231680886134,
      -0.1293880052834102,
      0.03532025311944158,
      -0.07103715954789887,
      0.07751197276816175,
      -0.0437577184557663,
      0.006105594785623735,
      0.030480383108010465,
      -0.0027854016827776173,
      0.0024548769557200785,
      -0.14809793624620662,
      -0.12476070952271205,
      0.1794444818587214,
      -0.04682414516222364,
      -0.0219786565800338,
      0.008199219685931547,
      0.011636885404507349,
      -0.008408641490663143,
      -0.012701151181612351,
      0.10345558751305396,
      -0.01583635804222652,
      -0.005770893170885368,
      0.015731935548051627,
      -0.009266962144388609,
      -0.0012738129975927576,
      -0.020114765929147148,
      0.013153482004913704,
      -0.006772417561060385,
      0.006083005988708898,
      -0.006882563418526008,
      0.009883722323899223,
      0.00047414065382395836,
      0.018732789415867035,
      -0.006909937939959862,
      -0.0006594777868691416,
      0.00481824270308345,
      -0.014779968067159133,
      -0.020971023102720112,
      0.1757352501007897,
      0.0028268902355419617,
      0.11338023638632715,
      -0.032930623953433505,
      -0.005011829179212916,
      -0.004135511592327168,
      0.012645251882587855,
      0.002189325365378904,
      0.187712193103885,
      -0.013966822699874868,
      0.015408858033095937,
      -0.004245674203452726,
      -0.006681365505190323,
      -0.01966004818016597,
      -6.214576408370678e-06,
      0.036167932841929214,
      -0.008799116129304419,
      0.039270619515463956
    ],
    [
      -0.00489392647173762,
      -0.008270869853716313,
      0.018912554413094317,
      -0.004071448278089478,
      -0.016764473132370672,
      0.010408929726518624,
      -0.005648209988518133,
      -0.0049670416573466885,
      0.017201908379661693,
      4.1377431444731606e-05,
      0.0008270442937571964,
      0.0199208418865,
      0.02582402417967833,
      -0.006682147294396258,
      -0.03952582850205852,
      -0.010236263911233605,
      -0.00016084285882439202,
      0.03932851857159983,
      0.030266095046297802,
      -0.0057257676693845865,
      0.07325123828173831,
      -0.00807811666120906,
      0.00028269735383963396,
      0.0035219609065426562,
      0.00010442014823983033,
      -0.004752560236070483,
      0.0003619114400866093,
      -0.08843726610432166,
      -0.130315896073818,
      0.05187558865846818,
      -0.05471573975271972,
      0.07994664157187262,
      -0.028396870206729707,
      0.008243873210323828,
      0.030507861948296182,
      -0.00560496606941619,
      0.0031601750023455594,
      -0.08084557878184649,
      -0.08562117517356575,
      0.16710708482577183,
      -0.05847112044283695,
      -0.025830146709902618,
      0.002439797166795873,
      0.004576005713428614,
      -0.01490047071411443,
      -0.013028141023588267,
      0.10502863972911311,
      0.004956764210588234,
      -0.004547157502377405,
      0.014164947415927531,
      0.005769185676524305,
      -0.0021647283937334537,
      -0.0123315423563446,
      -0.0017800046400990328,
      -0.007956691312537102,
      -0.010227333777473264,
      0.007015619917740187,
      0.01032608537861069,
      0.009256469145655179,
      0.008462717526516438,
      0.0022667808392305084,
      0.008978121960526764,
      -0.00932547768933439,
      -0.0017682485118614784,
      -0.015413022455670118,
      0.14748598584019854,
      0.024360579387187185,
      0.09593319232224881,
      -0.02913815320965219,
      -0.003973710546634248,
      0.002061676516215155,
      0.002257650605648169,
      0.0029321081615483412,
      0.1730996250959413,
      -0.022706589831232395,
      0.01756516092558531,
      0.02024645298649903,
      0.01434014522803692,
      -0.022760262257421695,
      -0.02457154854399264,
      0.028355027284814482,
      -0.028934834542032203,
      0.04003450025283045
    ],
    [
      0.003778225110935977,
      -0.0019669550349851067,
      0.009056264187263394,
      -0.023463222007004993,
      -0.018534078638882408,
      0.010481162192734447,
      -0.004499745573912204,
      -0.012060567997702134,
      0.03577741050968192,
      0.0001644437922151333,
      0.001841844194402381,
      0.025904384460215278,
      0.02260745195421858,
      0.001223199642804136,
      -0.002141546345642077,
      -0.0045838058542114314,
      0.00023475764615261914,
      0.004284512087414763,
      0.04109492480787408,
      0.003961074275809965,
      0.02074893165134891,
      -0.010179837076822337,
      -0.001215874090596654,
      0.0009789556040670463,
      -0.004307405125763762,
      0.004408386067537108,
      -0.0005044192341731666,
      -0.09982570615888987,
      -0.11347039370298731,
      0.05923950195062171,
      -0.057973005564590056,
      0.07366627554289505,
      -0.046196496695117245,
      0.007484616058910591,
      0.029680040761030674,
      0.0006769453754507125,
      0.0028949334911012453,
      -0.031499579221982016,
      -0.03489016888217944,
      0.1657285100665445,
      -0.05647944472316378,
      -0.04481052027488848,
      -0.019383793186679266,
      0.010824702457987005,
      -0.007247265372128683,
      -0.010878738766552978,
      0.11089676708627291,
      0.008118364646363601,
      -0.006316066139484041,
      0.021226469798419384,
      0.003865159370918911,
      0.007180518082654633,
      -0.02010748134524398,
      0.0035842861134096726,
      -0.024626381311271317,
      0.0029853572521202462,
      -0.014852730017332732,
      0.003877945538695809,
      0.009937569980780575,
      0.004543551463105961,
      0.0006602138095516452,
      0.01039972725203923,
      -0.004926051878909622,
      -0.010770742554774808,
      -0.021303703274960343,
      0.13896128248040293,
      0.018369162042562594,
      0.09892595609693497,
      -0.03432163337086527,
      0.003102152750565994,
      0.0073448200011603714,
      -0.0017755534964903775,
      0.00017812317046101689,
      0.17082331096521042,
      -0.032099143866668615,
      0.03144833718281671,
      0.0015093676338160116,
      0.016650293697513762,
      -0.0010764563706236645,
      -0.018329960733435905,
      0.03333689283536648,
      -0.00728511335811504,
      0.03203554665785922
    ],
    [
      -0.0038397606126004398,
      -0.0009643765618254452,
      0.010108108542211,
      -0.013312400421380799,
      -0.015431669507923615,
      0.013526923800059851,
      0.0018217410019306154,
      -0.0005318317749628235,
      0.05169963181295398,
      -0.00043874066678641207,
      -0.00745477041165963,
      0.011229247848842465,
      -0.008920132709199865,
      -0.004169764987600988,
      -0.0006434311101265523,
      0.015454268094185203,
      -0.00012127570447639419,
      0.03507800691270992,
      0.015143834730542604,
      0.011323709148026242,
      0.008073027318692324,
      -0.0011343315384375568,
      0.0036951762814279466,
      0.00266639378942256,
      0.00815594700952917,
      -0.009222884911009107,
      -0.0014108614376087273,
      -0.07534736914560286,
      -0.10432712117166065,
      0.07504076474806111,
      -0.06680422440041317,
      0.08599036274392709,
      -0.0375899384625146,
      0.004193431420883038,
      0.025071459781244247,
      -0.010345973899967494,
      -0.0014884283920248327,
      -0.0015381476937460783,
      0.0006306030153318435,
      0.16737942748953935,
      -0.055609791892132845,
      -0.020916409042120228,
      -0.003176333720277321,
      0.009298878146875349,
      -0.008289488296211164,
      -0.02161729830824338,
      0.10185760825379239,
      0.004243467850213178,
      -0.0064479083606407755,
      0.01450523804000921,
      -0.0058976231776542085,
      0.009965197254631611,
      -0.012051336053384536,
      -0.010256565537226406,
      0.0033714601720998562,
      0.008795672761176876,
      -0.009141663683691093,
      0.00402044218627382,
      0.01887310598570769,
      0.00877104955874903,
      0.009100961366233642,
      0.006977233168152252,
      -0.009297685638088516,
      -0.0083581630373986,
      -0.02350067767140858,
      0.12400931169517912,
      0.005729695885184706,
      0.0966523378784553,
      -0.03766690286316911,
      0.0019977488860383657,
      0.00489030056517061,
      -0.0016456677288485344,
      -0.009844664496623943,
      0.17515199764085482,
      -0.022133132705450153,
      0.012874812100729535,
      0.000657203587583061,
      0.012762929542525545,
      -0.015854432250127257,
      -0.004539566217023838,
      0.048643041768363884,
      -0.002733702156285042,
      0.025529541599253223
    ],
    [
      0.0053665290425170984,
      0.0021017296102722465,
      0.023814549413533004,
      -0.002722606459292369,
      -0.007549984667765189,
      0.017414518399495413,
      0.008293176573436593,
      0.0027937771626278898,
      0.059402261979715966,
      0.00046534429560112953,
      0.0019999519683839865,
      0.03250384692311261,
      0.0008869458120128223,
      -0.015845543869421632,
      0.0037423144572195414,
      -0.0016266152541388823,
      -0.00016084287075405834,
      0.026105588320379618,
      0.013297375646949838,
      0.0029833416455679117,
      0.0025882164624430634,
      -0.009586917783397653,
      -0.003940439425498092,
      0.009307238366579425,
      0.008257161995541107,
      0.011495770532263314,
      -0.014912393051384937,
      -0.0868512511556029,
      -0.08918792031804147,
      0.07038002303303527,
      -0.04385827887166115,
      0.0856583516821918,
      -0.0357559572944572,
      0.01693725421743604,
      0.03712411275474646,
      0.004307275230098793,
      0.006662391742957343,
      0.002046434257081512,
      -0.002074497649041229,
      0.16573398550131654,
      -0.04865487279578184,
      0.0013253503639487686,
      0.01436804921500376,
      0.010662093072035079,
      -0.009199925587208243,
      -0.018750116472494808,
      0.1063323568394086,
      0.00495774341288281,
      -0.007522944123900042,
      0.0104834081190672,
      0.005571687146113906,
      -0.0008453127362757936,
      0.0030368028997757876,
      -0.013441754815000422,
      0.00013855868739092976,
      -0.0065866755518396375,
      -0.005206135849757192,
      0.004464331269148167,
      0.010051053501869153,
      0.005141833314926655,
      0.004408959102009923,
      0.0030252646989856026,
      0.0003645991952460156,
      0.0027891603298615462,
      -0.010672365113758575,
      0.11167981138077678,
      0.0289887408483987,
      0.11299035196720347,
      -0.017187929735431044,
      -0.012299027242348404,
      -0.010882327356475388,
      7.14769364613952e-05,
      0.020581614233117523,
      0.1782569270921042,
      -0.027380058093150392,
      0.03096353313879349,
      0.029735417951696614,
      0.0016004131334232756,
      -0.0015788750491652957,
      -0.042024884154460714,
      0.050293527302022425,
      -0.018638149910558784,
      0.0363868412720662
    ],
    [
      -0.001099489170989423,
      -0.005969659789202757,
      0.0099226479943402,
      -0.008003249294043308,
      -0.016005664647916536,
      0.010235314178531239,
      0.0026091723049753122,
      0.015479891435071091,
      0.07569997856033243,
      -0.00024138517484068042,
      0.008176184887874364,
      0.01890280831429406,
      0.0013289270069078436,
      -0.009621765022409409,
      0.0054796793202098884,
      0.006063649632014153,
      0.00023475764633038075,
      0.019961125527391894,
      0.015696335201414505,
      0.014451937637723691,
      0.012999086864124258,
      -0.008074695036293926,
      0.0013624400611426859,
      -0.0036445690105924473,
      0.0022452231450179523,
      0.004222671448337825,
      -0.004904139135728347,
      -0.08322547177131318,
      -0.07292429451973365,
      0.06802259938489977,
      -0.02931011531439728,
      0.08625823029011384,
      -0.027928201732953076,
      0.003824342621646541,
      0.02955803107033132,
      -0.0020126636930179963,
      0.0006594389784125932,
      0.003851903852578033,
      -0.0038544518889835904,
      0.17563533725810856,
      -0.058080470668840777,
      -0.02695304943595239,
      0.004200507556085747,
      0.018205768483077017,
      -0.0008961824804900125,
      -0.002871421259338896,
      0.0928190358297653,
      -0.005941651071579706,
      -0.015656771846101234,
      0.005984795238974797,
      -0.0052927567433128705,
      0.014872340399675702,
      -0.0058091349997477434,
      0.004154665093333359,
      -0.006312231638046622,
      0.002432599400532393,
      -0.0030260913078922077,
      -0.002765526142752311,
      0.013993055161641371,
      -0.0001471909621352462,
      0.002188690692581501,
      -0.002090976738881919,
      -0.0037919010841694833,
      1.5683621469573942e-05,
      -0.013078406514504119,
      0.10939833943524724,
      0.0062642510101384415,
      0.11172051758348585,
      -0.03636173117071818,
      -0.000486817521632954,
      0.0007988993297190212,
      0.0029739297428920124,
      0.0023621316233513974,
      0.1716383410918784,
      -0.019732871619695027,
      0.030086371256629194,
      0.013295823832194296,
      0.003906979100132576,
      0.006320549790891437,
      -0.03283895521128419,
      0.022839418659704788,
      -0.022910492410202935,
      0.03598988476780714
    ],
    [
      0.0012090330318436369,
      -0.0020505768193137,
      0.006520426875281465,
      0.0032432758222397475,
      -0.009770879253570435,
      0.01980869720312007,
      -0.006903671849059094,
      0.0032804688101651285,
      0.08166754041673577,
      -8.949218659377242e-05,
      0.02387049566310117,
      0.008031205174667346,
      0.004741832891606633,
      0.008068973238093188,
      -0.013139052517671803,
      0.008863814856862695,
      -0.00012127570447828519,
      0.03889979969169098,
      0.006410850180957883,
      0.010334164942462237,
      0.008317886827037413,
      -0.004354694184644218,
      -0.0016523851003610113,
      -0.00027910398573795757,
      0.005169686303405136,
      0.010055221465784817,
      -0.007204998612012503,
      -0.10084463759299091,
      -0.07013600392078291,
      0.08904484998687057,
      -0.04215161365039432,
      0.07655443645467111,
      -0.046450577427106086,
      0.007377213050884466,
      0.028934018302786763,
      -0.006055747375784254,
      -0.002877683433794374,
      0.0013835923672790703,
      -0.001386029622352209,
      0.17514425718156476,
      -0.04619129676261062,
      -0.021802403921865672,
      0.004969757397982237,
      0.013543868558034336,
      -0.004391552980217049,
      -0.009780282295920442,
      0.09966155335365826,
      0.005856790075477828,
      -0.005543415648150832,
      0.0022651058587902046,
      5.4226555039483455e-05,
      0.0003993467891355179,
      -0.013213935005777581,
      -0.003676184980744152,
      0.0030136384499564062,
      0.00036523873966263934,
      0.002519477704717558,
      0.0021439876229900675,
      0.017947652085273946,
      0.006565346580031191,
      0.006667460156884111,
      0.008060826489587314,
      -0.0007896420203702113,
      0.012941207316257924,
      -0.0010485611190653953,
      0.09755543556874968,
      0.008328364580879332,
      0.11454691285564923,
      -0.02685915224025552,
      -0.01100026884175931,
      -0.004597203876176413,
      -0.0032331521946595814,
      0.0073803732890382655,
      0.1829030763398689,
      -0.0163309226448866,
      0.020193322443631843,
      0.009217942317748256,
      0.003445052869010363,
      -0.015450611415252216,
      -0.011709969880717744,
      0.04198483065863843,
      -0.01027308548231192,
      0.030661454078337938
    ],
    [
      -0.003000982606604135,
      -0.0027036977724619,
      -0.004055331479686312,
      -0.0016330687270482134,
      -0.009294551850124068,
      0.019629224165740516,
      -0.0046144678653844565,
      0.0040624427448850324,
      0.07399962211728384,
      1.0140271932861734e-05,
      -0.010464044853434683,
      0.006696158692482737,
      0.02166384380605327,
      -0.0008579073948019777,
      -0.0007971874166621978,
      0.001793152218897299,
      -0.00016084287075410886,
      0.024499303351580914,
      0.028972575025081326,
      0.00022649830614975916,
      -0.004120994732753657,
      0.006656299436036053,
      -0.016544860269104383,
      -0.002243436778782393,
      0.007391906219163996,
      0.01749007832247547,
      0.0033884670642834063,
      -0.11183537922981744,
      -0.05615935797185532,
      0.08907848996769194,
      -0.03127364155684059,
      0.07572759553171805,
      -0.03380320829358951,
      0.018137441796383987,
      0.022948665577047247,
      -0.015959266721245906,
      -0.006032905589298854,
      -0.0037651090069829108,
      0.0037627427353019035,
      0.17438110143390947,
      -0.051167216683978535,
      -0.027565736611441124,
      -0.0016716744479051537,
      0.000957054980131984,
      -0.01947359590972666,
      -0.015470252657112283,
      0.09668727416240074,
      0.003039256406476718,
      -0.0009830303611243344,
      0.019714886142927695,
      -0.002306778800934138,
      -0.0023818618747178085,
      -0.016208706580624614,
      -0.0057185295109442435,
      0.008199041774661311,
      0.005561758049271745,
      -0.0024769063777925968,
      0.0017479581014846464,
      0.009908378846452267,
      0.003939959941595542,
      0.004048540285462495,
      0.001357281880997048,
      -0.0034677348199173338,
      -0.013289224501202861,
      -0.02515829420702349,
      0.07663204426405112,
      0.02071116233890488,
      0.10762760174811704,
      -0.02264401512927393,
      -0.0003195170441395497,
      0.0015773798666738647,
      -0.012249986854860416,
      0.010821694231937164,
      0.18230754908424732,
      -0.010573238996494231,
      0.02015319970769566,
      0.016927665273419358,
      0.00811168833615034,
      -0.01873053226642058,
      -0.019447681793383804,
      0.0320038870174138,
      -0.015666931767516133,
      0.02116622261822258
    ],
    [
      -0.004893047077644102,
      -0.0008447002064774395,
      0.013698651081804838,
      -0.011835559554192032,
      -0.014149613340453884,
      0.014586993237924175,
      0.013383760185281816,
      0.0030969064679976974,
      0.09775762829196022,
      -0.0001182345356124351,
      0.00563556132480605,
      0.021032968613051317,
      -0.008189801816205855,
      0.0001429727659984705,
      -0.013863327040871969,
      0.0094810846909258,
      0.0002347576463303886,
      0.016399327546706206,
      0.025482632405525417,
      0.0016890097975539161,
      -0.0025689110831253322,
      -0.00017909093278006713,
      -0.012823168261319956,
      -0.006653048612662046,
      0.008191688478643076,
      -0.006689965011967489,
      0.02621684649241307,
      -0.10391329482475418,
      -0.04531086970698982,
      0.09764307621091473,
      -0.0374562435328944,
      0.07318775495468459,
      -0.04665700047395017,
      0.008974239522693635,
      0.028179842770013785,
      -0.00033422912985110064,
      0.0016474461695344606,
      -0.010947913382370014,
      0.010945726932045319,
      0.16201452734623503,
      -0.04839938533373751,
      -0.012135775179470575,
      0.013887843556466682,
      0.026086699313409054,
      0.002912118098772753,
      -0.014562929777358413,
      0.10639126468005047,
      -0.0022195071002038733,
      -0.0030951522256956756,
      0.010971773778783599,
      -0.003457468926362522,
      -0.0002756173280995441,
      -0.0018041495438679094,
      0.008223660776617946,
      0.0029079936384545932,
      -0.009033533978175969,
      0.016834671587325916,
      -0.002820767118978071,
      0.003383721119928877,
      -0.00483581161162733,
      -0.0020905505283317564,
      0.007355073085938467,
      0.004158082556139348,
      0.002083145228641482,
      -0.012730055853813284,
      0.09455443709041801,
      0.011093901293116227,
      0.10782914809426958,
      -0.033127530734156224,
      -0.007040842093234507,
      -0.0018275616422811394,
      0.0023800852026320566,
      0.005038243875473239,
      0.17521055388804144,
      -0.021970396638466894,
      0.027302221675041562,
      0.001469051697021459,
      0.008830668152584877,
      -0.002251519083109772,
      -0.01438321152925977,
      0.037525467884671725,
      -0.010785513661429005,
      0.02409398245903487
    ],
    [
      -0.005082836688464207,
      -0.005759017851383245,
      -0.005802892668252015,
      -0.00793505227493973,
      -0.008635808615572406,
      0.02347686437588177,
      0.004215859980343196,
      0.009882800761659895,
      0.0953590698934571,
      0.0002539255045624155,
      0.009758831913174119,
      0.018125968962890197,
      -0.01113512490742922,
      -0.0063612123777602924,
      -0.0019420094282850302,
      -0.004821554707299506,
      -0.00012127570447828027,
      0.025700609078846696,
      0.02994981017058351,
      0.004030432504835849,
      0.0014562885638176068,
      -0.008137148755151296,
      0.008523619269986103,
      0.0065981632428830156,
      0.002575137757463552,
      -0.004464359322891397,
      -0.011179373081722035,
      -0.09130174739917911,
      -0.045849155517976234,
      0.11115520788625492,
      -0.03158838005474853,
      0.08410894922128449,
      -0.030345246264954252,
      0.0066691464313500945,
      0.029883676043941692,
      -0.0033953734004863313,
      0.003089909988653752,
      -0.01689853823412632,
      0.01689678040083875,
      0.16719999119748355,
      -0.042873316366318776,
      -0.016444653834728477,
      0.016547421824534028,
      0.018822886484575165,
      -0.004382136189724438,
      -0.023786542897102227,
      0.09547946306774503,
      0.003126323564651785,
      -0.00321808938505257,
      0.006209990296369841,
      0.0015750674531923674,
      -0.0029143320596489455,
      -0.013811804963504348,
      -0.001046674032205834,
      -0.02196404549802568,
      0.0042671415978407755,
      -0.0014507564958306525,
      0.013807249916986031,
      0.009984730423977507,
      0.0011086631901705748,
      -0.004088873029885197,
      0.0005575397609437682,
      0.00012165909258046378,
      0.0044981244560492245,
      -0.010797276421590172,
      0.08052586583376178,
      0.022815570898360504,
      0.1285490473254286,
      -0.0027259429536994504,
      0.009309956658419037,
      0.012523801066728353,
      0.0010184643794348056,
      0.02525946904425008,
      0.18586023515098776,
      -0.005507983522488587,
      0.021479383241786786,
      0.019237850235499704,
      0.010426648837417594,
      -0.013443649658860366,
      -0.02423612582325414,
      0.03225633540202266,
      -0.021784620999299176,
      0.032880697728395886
    ],
    [
      -0.01565650548196538,
      -0.015027496037286014,
      0.003582762341466646,
      -0.003831908594752654,
      -0.012769170119733648,
      0.013451170640486745,
      0.004302698110076103,
      -0.008488570657791033,
      0.0964456898622905,
      4.1377431895557316e-05,
      0.008604306554345532,
      0.022612466040291653,
      0.009309941452823468,
      -0.00465378494181906,
      -0.015104895381460759,
      0.001996742793778982,
      -0.00016084287075410322,
      0.04521142569313865,
      0.00714876277121688,
      -0.005142823590973205,
      -0.00625090188372689,
      -0.009598325914451027,
      0.0022268183180030833,
      0.0012384913296415046,
      0.0017582603073651286,
      -0.0072429896262740595,
      0.0038702788160915012,
      -0.08844998959797826,
      -0.045845164643011624,
      0.12062052657061265,
      -0.019253209890511387,
      0.07276019810771434,
      -0.04401158694738251,
      0.005131040148702452,
      0.02594803127384847,
      -0.0036850583584452303,
      -0.002763172032674437,
      -0.0048168025895566,
      0.0048149799305219464,
      0.15690279635254176,
      -0.05160039233501458,
      -0.009074060270692083,
      0.024635244032445904,
      0.02512864453222087,
      0.002452891454351941,
      -0.03437707832579913,
      0.09616465753596407,
      -0.0005113080950247968,
      -0.019740212524080224,
      0.018185666258307774,
      0.005473846806822052,
      -0.008868654898786708,
      -0.0056479683819144755,
      0.010096718694508872,
      0.0011643581841478319,
      0.01591975636633225,
      -0.02167385080318264,
      -0.022476395485567558,
      0.0007683417726760896,
      -0.012664624127808536,
      -0.013037279923030791,
      0.007296746843215571,
      -0.013484785796626483,
      -0.015711973800364796,
      -0.027778192915935158,
      0.08067735227287305,
      0.02491574833781144,
      0.09042532731293758,
      -0.02730022490984091,
      -0.006723560157892389,
      -0.002397932145467806,
      0.01707473833453309,
      -0.00030181787734818587,
      0.17488000497314155,
      -0.02484393023474373,
      0.023807914366870717,
      0.0050362944984673405,
      0.0015727223318635895,
      -0.0017726948527978785,
      -0.012849088527772723,
      0.026369558880601458,
      -0.02624210634256505,
      0.03926986322017198
    ],
    [
      -0.00257161545052352,
      -0.0004069771159114984,
      0.01641003151375614,
      -0.00957203224250774,
      -0.0092000545495603,
      0.02508158810112268,
      0.010348015245065255,
      -0.0009559092965091494,
      0.10790882190715338,
      0.0001644437922536847,
      0.014672211216495036,
      0.00735070259469862,
      0.004633963438270321,
      -0.0006713271878656447,
      0.0028722769296075893,
      -0.0028161496243814125,
      0.0002347576463303937,
      0.021435665619993785,
      0.02944073645486349,
      0.009919845311008146,
      0.008052822076955504,
      -0.010266203054601804,
      9.795277442314313e-05,
      0.011628684669455821,
      -0.011175884140460635,
      -0.0014212477315506563,
      -0.004101732779717638,
      -0.1097324098653162,
      -0.03414562450112413,
      0.12356792404661954,
      -0.018727869349551923,
      0.0732583953192565,
      -0.041489086001166464,
      0.020046890710101344,
      0.02316382113786453,
      -0.008004646500285362,
      -0.0074843590160941515,
      -0.016302388606441485,
      0.016300650044910808,
      0.16361981329083278,
      -0.04293162221234521,
      -0.02886152157365445,
      -0.00034405103805294144,
      0.02867351466426561,
      0.00410149003452811,
      -0.010625281595740521,
      0.09503532584971748,
      -0.014307499397237494,
      -0.019857647553027324,
      0.025964644895764333,
      -0.005366024256223748,
      -0.004017395097166798,
      0.0003291479800369157,
      -0.008953991504533488,
      0.005819854385668848,
      0.0052581366018788185,
      -0.01916318124491113,
      0.004408699129744454,
      0.011737526096746168,
      0.0007752967680466308,
      0.0003246990489630179,
      0.006865736140018989,
      -0.014108330167170193,
      -0.004043928923790141,
      -0.017849099947581028,
      0.0795813332200211,
      -0.0010267956843012472,
      0.10889678792512307,
      -0.038803664659059024,
      0.007875418877445216,
      0.01225676548810313,
      0.010063895886922284,
      -0.00464797896988157,
      0.18386976114233428,
      -0.00752235503112746,
      0.020075763009410535,
      0.02315560298248181,
      -0.005632867316756883,
      -0.019622497932376488,
      -0.016250742208292895,
      0.036647908563787565,
      -0.011024567395948306,
      0.026744447864028634
    ],
    [
      0.0061372213595908675,
      0.0007436776766000374,
      0.011554945030940136,
      0.0034508834483639454,
      -0.006716555363217067,
      0.018262237382808934,
      0.012200108071918113,
      -0.014865563220835713,
      0.09951099448736157,
      -0.00043874066678852095,
      0.007146594165547319,
      0.014994379422013152,
      0.008457125994235792,
      -0.009734197397938155,
      -0.016126369904034727,
      0.002806901828296544,
      -0.00012127570447827893,
      0.022762725085974194,
      0.03167421418718222,
      -0.0007623176980150322,
      -0.00404072393424952,
      -0.004269861326438793,
      -0.0012086552090553595,
      -0.0024410503035308434,
      -0.012655495728739002,
      0.0025922836278001776,
      0.004569275650304135,
      -0.10594323038191698,
      -0.024738572665814338,
      0.1216278187273667,
      -0.007756340552593694,
      0.07364779660826536,
      -0.041419025109706166,
      0.017988299670882467,
      0.029497658462178628,
      -0.010259010468127182,
      -0.0001967557043575789,
      0.002837840209612541,
      -0.0028394964171516096,
      0.15012081904914704,
      -0.0433860966400125,
      -0.014940909800451945,
      0.015073117397969116,
      0.017748604685559076,
      -0.009724172336421952,
      -0.0233546150000141,
      0.10008850270400921,
      0.0022644994923805054,
      -0.008462246516145563,
      0.004811331917826886,
      -0.015098141844541712,
      0.006954080667662253,
      -0.005501516896462977,
      0.015370388177231815,
      0.00701586601262469,
      -0.00015007324841981307,
      -0.02088096647014317,
      0.016318697285805997,
      0.011625296590777818,
      0.004283755701008558,
      0.007519343279684295,
      0.008597457986735032,
      -0.003995795536535014,
      0.0011416088353091733,
      -0.010517998694737768,
      0.06401246622506651,
      0.013800899030730663,
      0.11364879762720512,
      -0.017771937396247186,
      -0.00610916400942463,
      0.00031568898205117904,
      0.013704638233064843,
      0.011391491878285252,
      0.18712779394754067,
      -0.016323383821903296,
      0.023757621459064748,
      0.015661320739236685,
      -0.006541854915815136,
      -0.01921995278428324,
      -0.004085114044254771,
      0.04366958752759324,
      -0.008956184082743717,
      0.02992142296655088
    ],
    [
      0.012613720997955378,
      0.016922446452149503,
      0.00790626155812226,
      -0.0026217413049846277,
      -0.005927712264155273,
      0.021810489901836507,
      0.0005868704049655323,
      -0.005042565990579921,
      0.09886467717966978,
      0.0004653442956011828,
      0.015579579569140835,
      0.018871755515218063,
      0.0231843063417494,
      -0.012028038691217331,
      0.009587603151624456,
      -0.005626375356062537,
      -0.00016084287075410564,
      0.030038531792564865,
      0.01119028081087346,
      0.008255152227012614,
      0.009262894865838013,
      0.0011734361298091187,
      -0.0017085229330994892,
      -0.015335238776038268,
      -0.00469506735472527,
      0.0032328002686488376,
      0.009231675852678032,
      -0.09415429249366944,
      -0.03964256478310506,
      0.1482095248500829,
      -0.009841412629510153,
      0.08154139135624001,
      -0.038614751536147504,
      0.01083238307204418,
      0.026782989164909052,
      -0.013074683798875606,
      -0.0029483600803490826,
      -0.006276043158102468,
      0.006274464657678197,
      0.16055798824656886,
      -0.047380974642866114,
      -0.023121645317866632,
      -0.002326377328707269,
      0.018618249252107637,
      -0.01189433883018246,
      -0.014158510893912407,
      0.10168435888738903,
      0.014543849719483701,
      -0.00042785950393881353,
      0.008191781689446143,
      -0.002674782907977115,
      -0.0066434770681008185,
      -0.005910869081520645,
      -0.0005613641921486337,
      -0.004839974709648906,
      0.009075552706203305,
      -0.007217259932616567,
      0.0053811687061833344,
      0.008122314328646147,
      -0.0017186501691624381,
      -0.003790805786381614,
      -0.008902635453604585,
      -0.005477566403452182,
      0.004013868527876575,
      -0.00888506007947864,
      0.06044123607732341,
      0.013663755665294163,
      0.09636128936430206,
      -0.033864842583231074,
      -0.00433102763196047,
      -7.78192535007902e-05,
      -0.009105100761690375,
      -0.003900010322472146,
      0.17746324282404827,
      -0.03411341467454842,
      0.019354725527539366,
      0.011800934829719311,
      -0.0010287060688353312,
      -0.005011391865810734,
      -0.007638374915196166,
      0.04381994903292498,
      -0.01029003612409915,
      0.014995518339113246
    ],
    [
      -0.017117897998373283,
      -0.014909181261652558,
      0.0034861470363556704,
      -0.011500514379274532,
      -0.019325068266079888,
      0.0052496228148717315,
      0.005692867467765873,
      -0.0021283696148485846,
      0.10642598314442316,
      -0.00024138517484068793,
      -0.005809474795844644,
      0.008468070319352254,
      0.024049229878392885,
      -0.0005116015725664313,
      0.0024080343396725456,
      0.004762275107046978,
      0.00023475764633038807,
      0.032608204259659254,
      0.0110593045044171,
      0.004573610227442737,
      0.001710710735816935,
      -0.009968546549506976,
      -0.007823495042373714,
      -0.0015111686327663135,
      -0.012332778499379362,
      0.0011903957462448564,
      0.011625076997493227,
      -0.09829185834480042,
      -0.024048860110834,
      0.14422721801230542,
      -0.00785264308587371,
      0.0751510595461817,
      -0.04270314093895157,
      0.005658528492545451,
      0.0328924981463999,
      -0.00221485391471642,
      0.0021580005696146994,
      -0.0014212688383312456,
      0.001419764184614366,
      0.1661120192654588,
      -0.052262148016370434,
      -0.007004776200421355,
      0.013041883038424119,
      0.023401076881696854,
      -0.0050810966255539726,
      -0.00942827782070909,
      0.10223612576537695,
      0.010878738655074816,
      -0.01320199253379375,
      0.015874645150186845,
      0.007862203388103414,
      -0.007915320981316224,
      0.0026620502001174985,
      -0.01807963595515374,
      0.003798496495978064,
      -0.004477699823048573,
      0.004427419559847164,
      0.005369895031489987,
      0.016659467603072537,
      0.004933250216705013,
      0.0029502886782429498,
      -0.00014755929325939313,
      0.004733339318579973,
      0.003255300373173211,
      -0.010855948029060258,
      0.06105583054169322,
      -0.0040823805391273765,
      0.10927015972464595,
      -0.03772813020073554,
      -0.0063205209957887774,
      -0.005142210601438715,
      -0.005394293582257175,
      -0.004269696333470529,
      0.17323141313244653,
      -0.03143772189185977,
      0.016453005011118293,
      0.022422931840626933,
      0.009989248887341555,
      -0.01044031162885831,
      -0.03441059295639949,
      0.046677886898584244,
      -0.007368038892648077,
      0.04144984208024075
    ],
    [
      0.003950333952056957,
      0.004440864169565863,
      0.012353694977692826,
      0.007339962854683272,
      -0.018423780266615036,
      0.012397799937859276,
      -0.0068847430403953126,
      -0.0010210580922891664,
      0.10701507664467223,
      -8.949218659377823e-05,
      0.010844310575141859,
      0.004549300410176375,
      0.004610767636803446,
      0.005172440678261719,
      -4.900716910367758e-06,
      0.003619971280804223,
      -0.00012127570447828457,
      0.030212300737302664,
      0.01882686867838199,
      0.0125135683892259,
      0.009501636388969562,
      0.0004519340455896687,
      -0.003419199096419877,
      0.0018006535031573133,
      0.013938121420878132,
      -0.0016984885217901974,
      -0.00015321712881007538,
      -0.09702864085023478,
      -0.021865814546068486,
      0.14622478295672103,
      0.0005049443167331293,
      0.0776164177368542,
      -0.04337115386145463,
      0.003110133219312269,
      0.02663289098247198,
      -0.011601783688580492,
      -0.002783495350172325,
      -0.002870221134171327,
      0.002868787181225558,
      0.1623161033928966,
      -0.047170291217342855,
      -0.01594040462379745,
      0.010241205097286325,
      0.02238270746916163,
      -0.006561537545860437,
      -0.010015401130593913,
      0.09982554193772782,
      0.00041119016769765597,
      -0.003493872985386215,
      0.01543542826911629,
      0.0013680655192400875,
      -0.0024184709931409833,
      -0.012585614143764393,
      -0.003310208857860169,
      -0.015051321349169684,
      0.001492325849905959,
      -0.005339882396810063,
      0.018006727729928736,
      0.01506549665105964,
      0.005472982793049708,
      0.0008456999454770581,
      -0.003274391034260771,
      -0.0002820372050777414,
      0.010115776916769379,
      -0.0023351261672742785,
      0.0560785075446775,
      0.015131369760960588,
      0.11349817154497056,
      -0.021711882068227432,
      -0.0010066141013488563,
      0.00453731810062014,
      -0.0003568091571444828,
      0.01040183617186319,
      0.17772246563557523,
      -0.02353495457332399,
      0.009709791327679554,
      0.007741912486577115,
      0.005636591330918744,
      -0.007342843095457293,
      -0.013828961198698217,
      0.035399298780860046,
      -0.012421849445786438,
      0.028837302391674733
    ],
    [
      -0.003398952145593105,
      -0.010220462030505346,
      0.006172270944062009,
      0.0035471851200509765,
      -0.010425603415587433,
      0.01811252610976033,
      -0.006427898285032888,
      -0.011115194090458075,
      0.10847509948165178,
      1.0140271932856584e-05,
      0.016745531536147957,
      0.0033798875364339093,
      0.00479220211358848,
      0.009015321014184771,
      0.0029477131897652767,
      -0.0006904462984600307,
      -0.00016084287075410973,
      0.018619500094747166,
      0.02543083611176803,
      0.014520446741146928,
      0.012205042110823546,
      0.008442874522095786,
      0.011043134827115133,
      -0.009269499308820475,
      -0.00034761001228610186,
      0.0038415520171095913,
      -0.011082155959476378,
      -0.08295697280270728,
      -0.0032439680171043542,
      0.14264790684529347,
      -0.0212824544151377,
      0.08497007014036531,
      -0.03216228224114291,
      0.017322143148820936,
      0.033514214177396535,
      -2.934090021171248e-05,
      0.006485396181953323,
      0.0073143005432241975,
      -0.007315666754291278,
      0.1716715575354382,
      -0.04308372169657364,
      -0.01792762437496326,
      0.005579051368571043,
      0.02508396610589054,
      -0.008066696817770426,
      -0.000995047392353743,
      0.09417191946501832,
      0.0034067785143381156,
      0.0033488450944734126,
      0.01959853533950834,
      -0.009715079964576335,
      0.001083775706313253,
      -0.001930977964438499,
      -0.01570721779279897,
      -0.004421168237696684,
      -0.000665820383717829,
      -0.0027365015254497685,
      0.014334986461115282,
      0.014883358971921046,
      0.0022655943083990343,
      0.002505867722833391,
      0.00018086061365195024,
      -0.0189755596093018,
      -0.01456600293266916,
      -0.02731813310214539,
      0.054900303229521365,
      0.012200402405102657,
      0.11915100177958253,
      -0.025174434730794015,
      -0.0071164810434242816,
      -0.0022194057023755386,
      0.002316175599904859,
      0.011994680187002015,
      0.17952161033480574,
      -0.030662014938236976,
      0.022368636952394078,
      0.009236526648733506,
      -0.0006772457275426805,
      -0.008395880834865142,
      -0.010342573674760576,
      0.04407013756265815,
      -0.00638253720227224,
      0.042635037700825475
    ],
    [
      0.005267248765837539,
      -0.005468644455824796,
      0.0056072245551708495,
      0.008182214304642494,
      -0.0045266605263456165,
      0.024897203093470585,
      -0.0035505260326652694,
      -0.001879294734203084,
      0.11746760448653011,
      -0.00011823453561243065,
      0.014327887461311771,
      0.021029132853246778,
      -0.007826279920936784,
      -0.0017265629586138893,
      -0.011584378964939405,
      0.01643095334471235,
      0.00023475764633038774,
      0.02358664888037712,
      0.013386421653015918,
      0.01374528773213419,
      0.010747299281151035,
      -0.009741505758005385,
      -0.004740124497420736,
      -0.00653107544032274,
      0.009383443759177608,
      -0.0014272607482432216,
      0.0062760414119699785,
      -0.09197837050454655,
      -0.0172008328496954,
      0.1562276108697678,
      -0.019215187719635214,
      0.08567766557198032,
      -0.03687247656468918,
      0.01477763479115166,
      0.029464830460050453,
      -0.001729215015197511,
      -0.0014061014684540807,
      0.0026803879322444915,
      -0.0026820206843769243,
      0.16645511414446187,
      -0.036194849178009664,
      -0.04193760708001303,
      -0.010221892418238785,
      0.03925751406201844,
      0.005818616401801099,
      -0.0168260147718538,
      0.10244362287105387,
      0.0013888986835614379,
      -0.01760613906072691,
      0.0178770719041171,
      0.01963263677230292,
      -0.02208068275303422,
      0.007083361845476636,
      -0.008335821135637477,
      0.0010974629630853415,
      -0.011839650041029196,
      -0.005098530435494296,
      -0.0028818158005452037,
      0.01179735807161619,
      -0.0016571053469985899,
      -0.006462008605724704,
      0.0017929475832696763,
      -0.004631111730411479,
      0.001358156430568544,
      -0.011809654304437473,
      0.06562858750611969,
      0.01577130014107324,
      0.10832233874534504,
      -0.023254532058799675,
      -0.002908779574423453,
      -0.0014446215995355632,
      0.0016318295058936427,
      0.009315278465714082,
      0.18674040255774016,
      -0.011841620213527835,
      0.028615549516174305,
      0.017270953734034422,
      0.008440646405398482,
      -0.02555377202818482,
      -0.016563495245284967,
      0.030463287178706333,
      -0.010257934817572803,
      0.04293091552214898
    ],
    [
      -0.0028188088476254784,
      0.001465540741283823,
      0.0020093280174243522,
      -0.00888415244684722,
      -0.008129136222310556,
      0.021470125648914856,
      0.007018457174961439,
      -0.003139647747730157,
      0.10529029382030723,
      0.000253925504562419,
      0.014565500149999591,
      0.010873522173436543,
      0.006737976533175285,
      0.003475728607104377,
      0.0036592007518242804,
      0.002340647847710704,
      -0.00012127570447828114,
      0.01822019312696682,
      0.01866152393258131,
      0.013330911419158417,
      0.012487735369181543,
      -0.0009248929775585397,
      -0.0003735823507057764,
      -0.009402974698447796,
      -0.016669428182691997,
      0.01865151285739693,
      -0.005744486396608093,
      -0.09357084004586584,
      -0.0154897073619293,
      0.14881279050820043,
      -0.00653941721950229,
      0.07139831247841262,
      -0.05050550354410149,
      0.0049566515127735635,
      0.030864647802094167,
      -0.0025949827710376495,
      0.001941380360585502,
      -0.00800112557558618,
      0.007999566656845387,
      0.16071699484712018,
      -0.0467592614573699,
      -0.023725412617744225,
      -0.004227567649283202,
      0.026914577577350662,
      -0.010129506359137692,
      -0.027572007653008396,
      0.09596006524179448,
      -0.0070873870548501024,
      -0.008890676780345675,
      0.008479403328930914,
      -0.0053226971798611055,
      -0.012250883781073132,
      -0.006687279611904425,
      -0.00861095468407123,
      4.0085343918129184e-05,
      0.011209586112288403,
      0.001157223594380185,
      0.009593978175784465,
      0.01017244025296443,
      -0.003660366403639701,
      -0.005368204692035633,
      -0.0065462665831020886,
      -0.01479502908735506,
      -0.003343197196323572,
      -0.01759930436040997,
      0.04991958783669857,
      0.01669776132524157,
      0.10345243090889922,
      -0.028315860248552975,
      0.0028996716810719037,
      0.005641389377112839,
      -0.005030826691187468,
      0.0016872177163711928,
      0.18163097809871806,
      -0.02292537537376999,
      0.011290635280718612,
      0.0025387105442871063,
      0.010030366002797499,
      -0.01421658554175774,
      -0.00643761301466884,
      0.046573638244224745,
      0.0012695773962819565,
      0.027827107478031746
    ],
    [
      -0.011764777700736162,
      -0.011456514765525214,
      0.005208376199993457,
      -0.00754694527199542,
      -0.015409419521239164,
      0.009148525364506804,
      0.015273785196393785,
      -0.005331800145390167,
      0.10534875264615473,
      4.1377431895555066e-05,
      0.006636742664920684,
      0.017481923560870555,
      0.004473152478305746,
      -0.004724541861501887,
      0.00609172192291783,
      -0.008402348838799945,
      -0.0001608428707541041,
      0.013400375629652109,
      0.03279843443853617,
      0.00554815510963127,
      0.0041650146370285,
      0.0001895253395101229,
      -0.008644587640365351,
      -0.0133875270172824,
      -0.007117725012386679,
      0.01272834720154619,
      0.00783922555146016,
      -0.09509437637351513,
      -0.0032253305513785468,
      0.14129912404343253,
      -0.010047946822979863,
      0.08657643884871555,
      -0.02763763994371181,
      0.010383518157130518,
      0.0370227927316505,
      -0.0032973226703957707,
      0.01068920817290841,
      -0.015069559053928367,
      0.01506819350018194,
      0.15782992522409833,
      -0.05158789722797927,
      -0.007689894815764536,
      0.0325056696813098,
      0.03009282689542216,
      -0.0076762622014750585,
      -0.023935365580751176,
      0.086876794619502,
      0.0019387119741041407,
      -0.0026384890082038707,
      0.011913956548224363,
      -0.0043055120244324865,
      0.0030982000990160386,
      0.0014559560757748946,
      0.008548308760391381,
      -0.014802015728109005,
      -0.01300224428770306,
      0.0028977421684659847,
      0.008523810063600226,
      0.003769729331434042,
      -0.004472934042865423,
      -0.0027900653784274205,
      -0.014510638259308433,
      -0.009520964907367492,
      0.0033251364468153636,
      -0.01321106678486209,
      0.049820756797324915,
      0.027760370654929922,
      0.10828623866820597,
      -0.018500586962636265,
      -0.0025861609145732605,
      -0.0014889114938435803,
      -6.303299487668436e-05,
      0.013370907039826564,
      0.1723833702141545,
      -0.02330729054704771,
      0.006963701278954749,
      0.01667585025233612,
      0.015550038166787595,
      -0.030649531859322048,
      -0.019885320961851097,
      0.03192931721396104,
      -0.020735124769937018,
      0.03831724451905265
    ],
    [
      -0.0016738144480747724,
      -0.007375467450398599,
      0.015136823130886469,
      -0.006787015251922558,
      0.002673433683275723,
      0.025513722696298723,
      0.0003895926672814465,
      -0.005069135407806172,
      0.1157277273025587,
      0.0001644437922536822,
      0.017687145964014068,
      0.02261381422419443,
      0.000822520026121179,
      -0.0014136874012806605,
      0.0047295267546019586,
      0.007295032964803514,
      0.00023475764633039338,
      0.02667976944412917,
      0.0035812582830388557,
      0.015304142228511671,
      0.014872968045916871,
      0.005182851466418426,
      -0.007246434530907097,
      -0.014521963983613351,
      -0.008716951747941857,
      0.024342264890942312,
      -0.005917459428571043,
      -0.09875579347294486,
      0.002821521322602498,
      0.14019500784792358,
      -0.016991117106957495,
      0.07299924179109651,
      -0.04907447379963677,
      0.002896036826056626,
      0.026578782081144278,
      -0.010256975827393544,
      -0.0020976056032034067,
      0.004120963185851417,
      -0.004122325671500784,
      0.16594573220035194,
      -0.04955283984197661,
      -0.011540710213215798,
      0.011381315801994262,
      0.03756947629457751,
      0.0008507267665893044,
      -0.005906452703695289,
      0.09816896407437677,
      -0.00681536599191993,
      0.002673437008398041,
      0.01638174009777221,
      -0.0013746522188946893,
      0.012204524397916265,
      -0.01290783426156041,
      -0.001029619108570887,
      -0.011272528216335941,
      -0.005882288113563854,
      0.013504385040167193,
      -0.0028703966808744583,
      0.022653318249178687,
      0.0041240760108709916,
      0.005485804011340937,
      0.009009518405867402,
      -0.007347553228550006,
      0.001641618849111094,
      -0.009648323717662086,
      0.05420986600970776,
      0.0061105056448065775,
      0.1241990568765104,
      -0.026302496624822574,
      -0.019503432792153278,
      -0.01667283072646575,
      0.001890309773410338,
      0.013705613361597629,
      0.1776168469559358,
      -0.026452838487487324,
      0.012329567334793332,
      0.005451980513355936,
      0.0030922473324901194,
      -0.022234684403443557,
      0.0030560486052158783,
      0.04111644481567366,
      -0.011795511079170672,
      0.040872596069513815
    ],
    [
      -0.015284051563700694,
      -0.012602278480864421,
      0.021205661203088946,
      0.00167259582222872,
      -0.014527313054210117,
      0.011177461928973915,
      0.009094610480788568,
      0.0014471296927440988,
      0.10133861820584197,
      -0.00043874066678852356,
      -0.004554921442550891,
      0.013778592563382746,
      0.013017590153016487,
      -0.0018066907286171797,
      -0.00147612573762327,
      -0.0011860967009254422,
      -0.00012127570447827806,
      0.0368119252058717,
      0.016466137594163432,
      -0.0019958396769222115,
      -0.0034887629041382246,
      -0.01753177852480469,
      0.010085052084054538,
      -0.00937621592343683,
      0.01690041599771737,
      -0.009929258288767931,
      -0.0013082311805088526,
      -0.10019453289050691,
      -0.027787466787046564,
      0.16511299158641726,
      -0.008899646063683885,
      0.07736076373353512,
      -0.04061445572152235,
      -0.0012051232644318852,
      0.025956895519756582,
      -0.0048791987611874425,
      -0.001873050328488057,
      0.017235566714773824,
      -0.017236865820543824,
      0.17601578781251376,
      -0.052861917097215876,
      -0.014240093320474623,
      0.01019144394759677,
      0.02528649675956515,
      -0.014721634571757828,
      -0.013793727468899255,
      0.1006615584449453,
      0.00823894724948812,
      -0.009675816898024821,
      0.011683884183555667,
      -0.008011057942341289,
      -0.0017032264261893095,
      -0.01604625208080268,
      0.0012172134529060852,
      0.006740687159938356,
      0.011505744387997657,
      -0.0004741995261879497,
      0.00505801201243728,
      0.011036392751945437,
      0.000352292706144014,
      6.295075166402631e-06,
      0.00851430484404721,
      -0.006501697079541513,
      -0.002549416601309717,
      -0.016395481238296237,
      0.039001168737602586,
      0.007343910609388503,
      0.098054722462562,
      -0.034899920053673816,
      -0.016032826513925284,
      -0.009723751784271642,
      -0.007202377431313143,
      -0.006005093237972495,
      0.17276252179432033,
      -0.02653879319095948,
      0.019461618152539585,
      0.013612772052763053,
      0.004727424400345812,
      -0.014604243513259956,
      -0.013752827433856356,
      0.045182383905530824,
      -0.008762221848455043,
      0.03549191037617644
    ],
    [
      0.010129110964927046,
      0.0056023052825694575,
      0.025120245826717593,
      -0.0073587760393593665,
      -0.015121938743557179,
      0.017962549274500087,
      -0.004085778249085253,
      0.0006940465055353087,
      0.11115807849359424,
      0.00046534429560117973,
      -0.0001992792749917708,
      0.020427510804280007,
      0.010521185707059576,
      0.000688981358599423,
      -0.011140935743980639,
      0.0027258492305833664,
      -0.00016084287075410477,
      0.02945884502510008,
      0.02257652295952166,
      -0.0035571624657074244,
      -0.006877169768447824,
      -0.0010650924686742753,
      -0.00187396867985789,
      0.00672149699717958,
      0.0021463119489677097,
      0.012167829693142784,
      -0.016504660554361894,
      -0.09119136357186013,
      -0.02364468636128199,
      0.15889052974857337,
      -0.0041526254858546925,
      0.0790993470601473,
      -0.03339417863284989,
      0.007161328823289498,
      0.0397848721335518,
      0.010221404027979743,
      0.013329605531317859,
      -0.005282318463758522,
      0.0052810802766802365,
      0.16406872987086998,
      -0.0540463205015855,
      -0.013464841775889408,
      0.011170438570628612,
      0.03688386295436895,
      -0.0019024069945778592,
      -0.0215737695311805,
      0.0936090271032425,
      -0.008326563219567837,
      -0.008972856217645734,
      0.020458911142527306,
      0.0035519075937045707,
      0.0018221359147058084,
      -0.008686931321508098,
      0.00244020955114738,
      -0.0037296163150618714,
      -0.003414769298714096,
      -0.009463497704162067,
      0.005223189165502811,
      0.01106611066209484,
      0.00557181956954817,
      0.004119773756388712,
      -0.011110924438042865,
      -0.009983840923441735,
      0.001563667838856469,
      -0.007525731843885941,
      0.04769759320292547,
      0.01692759978955695,
      0.11961060427643717,
      -0.01224339599678303,
      0.0014219813657263096,
      0.007643308335696514,
      0.006605249909680819,
      0.017356384242741933,
      0.1710960481922777,
      -0.01983885274517173,
      0.01605234879087883,
      0.01440434953632313,
      0.0280848277590316,
      -0.04240201156471978,
      -0.02119002750722786,
      0.037602840332004867,
      -0.016893328667756898,
      0.03658236159355415
    ],
    [
      -0.0007087053862765455,
      -0.004955355388604335,
      0.011301653732930341,
      -0.0008393142492445,
      -0.021868440365358555,
      0.014343787135894858,
      -0.01057076831778506,
      -0.005621493597466441,
      0.10942707311072418,
      -0.0002413851748406877,
      0.007134338267981325,
      0.024051267120806907,
      0.0028493162190969517,
      0.012336295251254226,
      -0.011029930872379964,
      0.010252766202847364,
      0.00023475764633038894,
      0.025224438003227198,
      0.010314695970117513,
      0.004700451538833498,
      0.0030068667175987738,
      0.004344477356815159,
      0.0163178485678036,
      -0.009835381507023672,
      -0.003672398738438318,
      -0.006922196117820605,
      -0.004778004825772,
      -0.09776894412190887,
      -0.023644399965553554,
      0.15636464199691555,
      -0.0030312641097367094,
      0.08563397129045865,
      -0.03483429283831152,
      -0.007467559282873872,
      0.023768119658731043,
      -0.004620069836000412,
      -0.008325509100612832,
      0.01501842688662414,
      -0.015019606828079403,
      0.16862045146745597,
      -0.05872213268372387,
      -0.015165267463869505,
      0.013183216490835266,
      0.03572538099749335,
      -0.009157607921039722,
      -0.021124297794599897,
      0.10472839470407164,
      -0.007054310163790205,
      6.725618242584393e-05,
      0.022504421223253843,
      -0.0013078104022146524,
      -0.005001744692301127,
      -0.01163741407103088,
      -0.00585327874935827,
      0.0030976480734771147,
      0.0014043805373635026,
      0.0021126359668434294,
      0.0053204872653599,
      0.011807041801060156,
      0.0009300477183662813,
      0.0003123738961047001,
      0.009497452846803544,
      -0.0022563826981381783,
      0.0078448062183762,
      -0.005027696330090437,
      0.04390994885007977,
      0.006645450136307269,
      0.1118582040190804,
      -0.025663281209047626,
      -6.033170550324746e-06,
      0.007391700363145216,
      -0.00034417963755771285,
      0.004186547646994645,
      0.16651266575767198,
      -0.031055650426851173,
      0.03193131039863558,
      0.006478044882769947,
      0.007711057516014116,
      -0.014162426706847076,
      -0.006549461562288774,
      0.038162518042327745,
      -0.013566527351443319,
      0.038102069393647686
    ],
    [
      0.0037177504854929524,
      -0.004695827157219983,
      0.015279184970866751,
      -0.0017902057113300843,
      -0.005418958692523059,
      0.022494456435663508,
      0.0049420947078518875,
      -0.0026635194530481685,
      0.10938267105283457,
      -8.949218659377465e-05,
      -0.010862159107852966,
      0.021035672747822184,
      0.00927336347403191,
      0.008179545990497781,
      -0.018686989640562396,
      0.006572013907313087,
      -0.0001212757044782837,
      0.029041720137439667,
      0.02419879951525063,
      -0.009695515277976135,
      -0.013183814025057196,
      0.0006508143711206925,
      0.00012627194615591876,
      -0.006518183573799365,
      -0.009631443798377418,
      -0.006601754188761172,
      0.01002616517414992,
      -0.0934139418623347,
      -0.028749963123349306,
      0.16369501222425897,
      -0.004307899268777978,
      0.08061515513382073,
      -0.04386391228960126,
      0.018504250905799192,
      0.03633389595271198,
      -5.307240721978934e-05,
      0.00695163207531926,
      -0.0018503986281385556,
      0.0018491666365779281,
      0.16129475217789066,
      -0.04219851210856344,
      -0.017190668868533533,
      0.01363685844963513,
      0.03973338076862862,
      -0.004698594447352606,
      -0.02574123090064867,
      0.09476922580427141,
      0.0012331613205223838,
      0.0003604753197972671,
      0.01894026592720878,
      0.0012486227867224587,
      0.0030403530487116462,
      -0.007654381398247101,
      0.005389052923608848,
      -0.008669858976758829,
      -0.007449108744360497,
      0.0018490314092127055,
      -0.0009852873625256302,
      0.004893225857445712,
      -0.0017582314259622952,
      -0.0017680512340598467,
      0.007197547203580358,
      -0.016551095298184687,
      -0.006765661255727699,
      -0.01951909407192381,
      0.045367233586332274,
      0.00859303843776536,
      0.12171001635652297,
      -0.018768205052794362,
      -0.0007092055732227841,
      9.814402670785008e-05,
      0.0066864399408621345,
      0.014837872958470317,
      0.18300321536346228,
      -0.019532320493547653,
      0.035122936530238465,
      0.022457493836043365,
      -0.009820724146932325,
      -0.004479638770610186,
      -0.01950398052543429,
      0.040580365301615004,
      -0.006254569497878308,
      0.04041718496174516
    ],
    [
      0.005932511793687157,
      0.004319926329332071,
      0.0026958505631375735,
      -0.007343362128163975,
      -0.008615435799400772,
      0.019033507063934352,
      -0.0004685513928248539,
      -0.0036081196753904466,
      0.10636834438291047,
      1.014027193286103e-05,
      0.004489892403658135,
      0.013303328330274363,
      0.009978536354598892,
      -0.005562310212338521,
      0.011118733249267224,
      -0.007827594412057022,
      -0.0001608428707541103,
      0.012832739296654867,
      0.029604512436758133,
      0.01074861795510183,
      0.008882233039659229,
      -0.008103478924117427,
      -0.003545492078603907,
      0.009969883653017984,
      -0.005189562781752869,
      -0.00774464622293154,
      0.010289669745802277,
      -0.10504729600241013,
      -0.003093088951371601,
      0.1429001624463179,
      -0.007974465872973019,
      0.07139256993160087,
      -0.046216993642963854,
      0.0070225742114126185,
      0.024872060873682184,
      -0.00401764109364199,
      -0.0026571466154637247,
      0.0025694969219359105,
      -0.0025706713986531514,
      0.16430387612733416,
      -0.05373061153013002,
      -0.01980829362139234,
      0.0034651243669291502,
      0.038126991301178054,
      -0.007236764198081983,
      -0.017924591995227036,
      0.10992214084203776,
      -0.002774995050418863,
      -0.02011784793763938,
      0.004151666518297743,
      -0.006487719652448128,
      -0.010419697595571388,
      -0.011923281066911715,
      0.013460657125572996,
      0.013705240915736706,
      0.00585988679093631,
      0.00699268878771696,
      -0.0016960592576795346,
      0.0033058196632366377,
      -0.006933327110900374,
      -0.005519508156496637,
      0.009983755931650464,
      0.01367454703165441,
      -0.0009709898904673847,
      -0.013054912569691868,
      0.041421934413917026,
      0.020821488682389436,
      0.10129349776861944,
      -0.02619492957611704,
      -0.006570346725677342,
      -0.0033787061016313,
      -0.0033412497008342844,
      0.0068486514364781235,
      0.17616925353968138,
      -0.015248552317194583,
      0.028902304223666065,
      0.02204206544067889,
      0.0020563035476958255,
      -0.012786496499846367,
      -0.0252882149007281,
      0.029431478412046495,
      -0.020508218568361446,
      0.02483742054916255
    ],
    [
      0.00270554796084512,
      -0.0014047025506220955,
      0.011682223813113008,
      -0.0037216908392118104,
      -0.017032748238014414,
      0.013846099001650044,
      0.010915589550160204,
      0.007473381397065277,
      0.11047953861470815,
      -0.00011823453561242891,
      0.024875057751330257,
      0.024433594284361444,
      0.008135067494437117,
      -0.002486920996075638,
      0.0010673612880705025,
      0.005779259059674564,
      0.00023475764633038688,
      0.01240345270872008,
      0.010822894080819077,
      0.014046215048554618,
      0.01351725666783977,
      -0.013037334877333598,
      0.000784011645490598,
      0.002659026355257384,
      -0.002046811572096948,
      0.0023639218197078157,
      -0.00411389130638775,
      -0.09963754037485661,
      -0.006035555641275965,
      0.14579067835859108,
      -0.005002607889506574,
      0.08292733666410322,
      -0.0357827381733941,
      -0.00691298462657638,
      0.021937298155181254,
      -0.009270075047118421,
      -0.004591276654944939,
      -0.0008343370207837046,
      0.0008332171690652127,
      0.18262101303627465,
      -0.04366327106169934,
      -0.0055980504883421135,
      0.02216247616153555,
      0.04039069914985326,
      -0.005898567422635346,
      -0.009200734029053453,
      0.09378390627509704,
      0.003104811803238975,
      -0.01910919447754046,
      0.03187624659194643,
      0.008591092962152899,
      -0.010310142460331208,
      -0.023675003779935897,
      -0.00989938543062393,
      -0.014262430439337268,
      0.011377146829127166,
      -0.0024689595755119664,
      0.00044685452991579815,
      0.0154850255890308,
      -0.00023876750503331204,
      -0.007264958942102726,
      0.0005744362903265912,
      -0.005639988535061821,
      -0.008420237219482086,
      -0.02086173672966804,
      0.04131061931054746,
      0.011527247950670278,
      0.11706952132248825,
      -0.023146732143862026,
      0.003983345619420377,
      0.009045180091149043,
      -0.004752111805860465,
      0.013640819730698457,
      0.1769684848380992,
      -0.018973482367213093,
      0.029555402670829473,
      0.01620789704537032,
      0.010849851533787092,
      -0.01213082501893843,
      -0.02690906569730232,
      0.037652594726485036,
      -0.020726489077499247,
      0.03332001959449912
    ],
    [
      -0.004003756269332082,
      -0.010388774437161206,
      0.014784987825904568,
      -0.003829853747682314,
      -0.013387300342016323,
      0.01815366582296273,
      -0.0020243723629782984,
      0.01160649711916812,
      0.10279516742387422,
      0.00025392550456241627,
      0.012556106208967473,
      -0.0016489441044762968,
      0.029575125874748438,
      0.0018139158930358997,
      -0.006423725913046088,
      0.005103817985173658,
      -0.000121275704478282,
      0.017502387675112734,
      0.028117724649311397,
      0.011701859415808587,
      0.007146863029189924,
      -0.0011069984460108566,
      -0.01361515732448018,
      -0.015113923668694424,
      0.0005203152771539103,
      0.015742639674397443,
      0.009497124677996308,
      -0.10017168653284815,
      -0.0203644397242871,
      0.15748048035997916,
      -0.0013436809899860047,
      0.08550195458851165,
      -0.035268677162622435,
      0.0019119906393911647,
      0.026417595820492884,
      -0.0064104327547943665,
      -0.0017165190690799853,
      -0.01391333555690196,
      0.013912267892225725,
      0.17292630706570092,
      -0.05316625480961752,
      -0.019524787512940487,
      0.012004778474937167,
      0.03184718193626252,
      -0.015392798996492194,
      -0.007966858189676468,
      0.09994835683053113,
      -0.0010275234003755897,
      -0.006453285992094935,
      0.0001439214337401081,
      0.003228941881751269,
      -0.0037901428985259934,
      -0.010734539839337892,
      0.005123241373178752,
      -0.011370246002825136,
      -0.0012815430818248785,
      0.0015710109665583595,
      0.009026845579606755,
      0.016449189498407478,
      0.0004879754332163443,
      -0.0018971543334910267,
      0.006045139947391079,
      -0.0059999649051272795,
      -0.01111629202983881,
      -0.02263931560524638,
      0.030525898153471107,
      0.010291319852260842,
      0.10790393227405198,
      -0.031763203676054876,
      -0.004626922137629375,
      0.0011332133635241792,
      -0.00014319175946118698,
      0.0031430628535613495,
      0.17857449695816052,
      -0.017949123190028844,
      0.014575717041243287,
      0.010744021086183657,
      0.019303780168001522,
      -0.022529679980115038,
      -0.01623918557963754,
      0.03423007255758339,
      -0.0206685721610843,
      0.0425710221940745
    ],
    [
      0.010854947562485227,
      0.006584011731830996,
      0.011268751675294066,
      -0.011065280572379979,
      -0.021954437590170735,
      0.009072678137227027,
      -0.0061905378881890885,
      0.012034814291401985,
      0.1080017684442839,
      4.1377431895552356e-05,
      0.01526621724982571,
      0.002616733647331928,
      0.024500086311668487,
      0.012007212468296028,
      -0.013663269623944888,
      0.03124634910374874,
      -0.00016084287075410496,
      0.017939673360267114,
      0.004183972846223733,
      0.023423705751964514,
      0.020178771792551346,
      -0.012444498763629014,
      0.007625833054574702,
      -0.0060660897458367224,
      0.012424107536980837,
      -0.007300427839596115,
      -0.0025085153242808897,
      -0.08944011820295586,
      -0.010663559037082795,
      0.15607297517601923,
      -0.021583486722436478,
      0.0802735125201976,
      -0.03635398914320146,
      0.012448828487850899,
      0.02908438069907744,
      0.0007038206667921709,
      0.003379898835570411,
      0.0036463710092482448,
      -0.0036473886432961634,
      0.18697351166646023,
      -0.05427350597340424,
      -0.018576048226180936,
      0.002136920210529092,
      0.040356944588612845,
      -0.005652168234569767,
      -0.017616342289790754,
      0.09910713716530502,
      0.013415072762980937,
      -0.01963167755008801,
      0.01326012418877218,
      -0.01779811015144366,
      0.007581855380163577,
      -0.0065790031622672855,
      -0.022675982549485146,
      -0.008821696932560066,
      0.022954447311540185,
      0.013189099868206534,
      0.004148422431334497,
      0.01641539763250838,
      -0.0022697160317595075,
      -0.0023714263810212487,
      0.0039212500845397565,
      -0.006141455484866453,
      0.005904408856611015,
      -0.008561472224411996,
      0.036906474770811916,
      0.01570337772823556,
      0.10499670778757038,
      -0.02687073479948466,
      -0.004452344549962021,
      -0.000576708044508506,
      -0.01707985391173692,
      0.00301937331820362,
      0.17469332407304708,
      -0.020520650601650654,
      0.02652180869090727,
      0.02229988377960092,
      0.008377703550658307,
      -0.02071891165658792,
      -0.025327082990718206,
      0.03831703051054216,
      -0.007524454080759542,
      0.02702778283330892
    ],
    [
      0.005466723777780546,
      0.0040805412550370766,
      0.007349270195153707,
      -0.010858988045550964,
      -0.010589821300106297,
      0.018333607493926967,
      0.00732481918623516,
      -4.308894579449203e-05,
      0.11706269915309989,
      0.00016444379225367934,
      -0.009985610217143516,
      0.01568712061119464,
      0.015458532408356618,
      -0.008977784711686622,
      -0.0046408544546592675,
      0.005147140347237167,
      0.00023475764633039252,
      0.021970150398500525,
      0.02727269672618721,
      9.20874322769102e-05,
      -0.004213321212054458,
      -0.009573705406367754,
      0.0021906823313478066,
      -0.001752073501573172,
      0.0034716232065294186,
      0.004813478628162989,
      -0.00804696254082741,
      -0.08644541273783467,
      -0.020850112167040517,
      0.16282395475101352,
      -0.018192635140711916,
      0.09489074857313182,
      -0.025835708584213735,
      0.002169199577930893,
      0.026539518703403858,
      -0.007753753819074391,
      -0.0009047502903088098,
      0.0029041564462481792,
      -0.002905126707125911,
      0.16993038371034622,
      -0.045867919232853785,
      -0.019573730076485503,
      0.005027027758573141,
      0.05168512033607436,
      0.00294205071050915,
      -0.031356978452768344,
      0.0999032746959393,
      -0.0012157090290084635,
      -0.015615573216201054,
      0.022280041309008437,
      -0.008037675043315392,
      0.011143179474727974,
      -0.0025749648936461244,
      0.010983383096617776,
      -0.0060964421441562985,
      -0.0038739533559431867,
      -0.01236189645076822,
      -0.0033276779356391298,
      0.006364947059694442,
      -0.0025377651644088225,
      0.0005530631665750163,
      0.0012902854182501547,
      -0.0083302446903554,
      -0.006024485910894715,
      -0.021725306946920417,
      0.04619577167346412,
      0.022475344985623796,
      0.09670519092873006,
      -0.027788569611192325,
      0.0028521083744642664,
      0.006645668661487162,
      0.012611625543980966,
      0.003520960545568736,
      0.18097110144765505,
      -0.011821828829633951,
      0.013894724656212271,
      0.032032526719760986,
      0.0025057261577413796,
      -0.017985777772277788,
      -0.03501719557869595,
      0.0320264500192612,
      -0.021711122756758558,
      0.021773290904230063
    ],
    [
      0.00118099224028507,
      0.00015091471177255044,
      -0.001853932711378879,
      -0.01706737524636139,
      -0.0031411181586039126,
      0.021197859572996112,
      0.015644434147310652,
      -0.004408518229618789,
      0.10275917958788985,
      -0.00043874066678852735,
      0.0015072855913941044,
      0.026634716552191982,
      -0.0021659541245117823,
      -0.00683584907460683,
      -0.013237462822529637,
      0.009581790037483178,
      -0.0001212757044782772,
      0.02637906252134992,
      0.01779524937166598,
      0.0008344870170104548,
      -0.001558894458015792,
      0.006151646149680763,
      0.00136201909710496,
      -0.01016837953214129,
      0.007222811433755723,
      0.001883598254167474,
      0.0009518748531133889,
      -0.09678622031470435,
      -0.01250204897318837,
      0.156146819391805,
      -0.021058028695958696,
      0.0749103083090462,
      -0.04609208332758824,
      -0.00011433312107224998,
      0.024267879382271918,
      -0.0028120990720466345,
      -0.010174581450902321,
      0.0019106668932215526,
      -0.0019115920284748726,
      0.16703475981098007,
      -0.05036126425539927,
      -0.029534250596131448,
      -0.007022301605071087,
      0.039691530617436396,
      -0.01124791511116718,
      -0.009738190320361597,
      0.09218552311977489,
      -0.0022385290650491587,
      -0.0005330757574137323,
      0.01786082199348797,
      -0.006629610328109515,
      -0.006694836623635202,
      0.008331875348276778,
      -0.003938595084129998,
      -0.0022763313924388695,
      0.00022939417633546588,
      -0.004611509023132026,
      0.002088002222700831,
      0.00435067961942613,
      -0.005768918642440817,
      -0.0056930460897573225,
      -0.00034043199673294334,
      -0.0115413541395812,
      0.006930420520427013,
      -0.008638517190736017,
      0.032341107049052444,
      0.0170815013129385,
      0.11973513639346353,
      -0.019242802135157056,
      -0.014153356472308217,
      -0.008651595211434361,
      0.008499602960164172,
      0.017475126326672998,
      0.1798085982262722,
      -0.01589504156681011,
      0.015994945229583734,
      0.01408594056232536,
      0.015321885863662277,
      -0.010900909511802403,
      -0.022555834355497885,
      0.04175145352821962,
      -0.0033612431806744145,
      0.03190130385221414
    ],
    [
      -0.005751018065249176,
      -0.014265752070952278,
      0.02083174498148889,
      -0.011910764489508006,
      -0.0019364182753207053,
      0.01915030194620439,
      0.007466131222792951,
      0.009326041117574542,
      0.11000380185595976,
      0.0004653442956011811,
      0.017788866145696892,
      0.006716646963342665,
      0.009715679924576585,
      0.0015486704354006633,
      -0.006555534968709343,
      0.009043221350624603,
      -0.0001608428707541039,
      0.02437309309202665,
      0.018505006575967136,
      0.013524000842976306,
      0.010402745128257623,
      0.008632941880087773,
      -0.013631333608187548,
      -0.005561121588992593,
      0.002556870266689263,
      0.002137072809109665,
      0.017713906856178626,
      -0.0911693751067626,
      -0.008464259225215955,
      0.15212336546306626,
      -0.013811255370203415,
      0.0792354704271977,
      -0.04815302063984092,
      0.0014712304877794605,
      0.03539379154833888,
      -0.004581865253906571,
      0.00851260279017427,
      0.006295903313819624,
      -0.006296785758365055,
      0.16855786098623896,
      -0.04739318549850986,
      0.0012624561720850436,
      0.011147075853873888,
      0.04282912767833859,
      -0.007203094155275638,
      -0.010744522161398424,
      0.11128479811749574,
      0.0036502033077838378,
      0.007119315811983627,
      0.011474424911253781,
      -0.010164300020885772,
      -0.005791105486018481,
      -0.010212850569301832,
      -0.014928922833771797,
      -0.00870884078268025,
      0.014881665843647366,
      0.0031289400178430237,
      0.015015961144712372,
      0.01760473058770708,
      0.0007399555715274172,
      -0.0036843755573196593,
      0.00948024251880672,
      0.004127738712981535,
      -0.02147126446053028,
      -0.03503750987660777,
      0.03355228205480659,
      0.01761783148707659,
      0.10001880615935893,
      -0.0362767527603739,
      -0.011391001552223008,
      -0.011626496394999701,
      0.007023897550464595,
      0.0005460664948880808,
      0.17684776370650243,
      -0.023024177614707573,
      0.008969577026775566,
      0.007866316245070271,
      0.0072795406278254125,
      -0.006618283867913858,
      -0.014495538413645401,
      0.05386125760621085,
      -0.011700364911134312,
      0.04821447880850421
    ],
    [
      -0.0033484999378610757,
      -0.004679154022280521,
      0.02566925863482921,
      -0.0011098950018547582,
      -0.0187344343183365,
      0.010156641443005354,
      -0.0016617113846737839,
      0.01409277928799954,
      0.10682155717195461,
      -0.00024138517484068392,
      0.009684221679760189,
      0.0015428658687101518,
      0.008027032283696708,
      0.009645383472049693,
      -0.012606752760447842,
      0.008162940644928679,
      0.0002347576463303898,
      0.02044750241990092,
      0.0306261268776,
      0.0065770791016664,
      0.0021204522601280694,
      -0.0039181422771136275,
      0.001010942389331572,
      -0.01112709719437987,
      0.0003482644665652934,
      -0.006007414602146222,
      0.011387135359336283,
      -0.09566444825228101,
      -0.01814061446849148,
      0.15218874373878802,
      0.0007395193951382617,
      0.08120055386147768,
      -0.03181246843054921,
      0.002668584698003981,
      0.02612976751128012,
      -0.0048463970532401325,
      -0.0017861108711872558,
      0.0009401040293429645,
      -0.0009409455132472347,
      0.18565739774463633,
      -0.047825009206554144,
      -0.010876152818103644,
      0.014446906267551362,
      0.0413970739792831,
      -0.009512794131309243,
      -0.013893153393946546,
      0.08467379406681555,
      0.005274566611282452,
      -0.011370291923278611,
      0.008815952698615482,
      -0.000813769540104341,
      0.011991916975958755,
      0.0022287382676392216,
      -0.004850705834780109,
      -0.0056081581191067134,
      0.00030624191300390594,
      -0.0052694396707960965,
      -0.0043084710361614795,
      0.015040149740330522,
      0.004143104490922367,
      0.0062088319985823415,
      -0.018820531789179546,
      -0.021847574218652105,
      0.003456634289810228,
      -0.010009970437387716,
      0.030372565148063274,
      0.02355728916887901,
      0.09331755497790957,
      -0.03480896244416181,
      -0.011921903438676655,
      -0.00265078176154796,
      0.0033226521360238724,
      -0.000648150553054073,
      0.17851847673093604,
      -0.027234195894795553,
      0.013446067428191225,
      0.020515476541969814,
      -0.010436287511802957,
      -0.007085328462206309,
      -0.019183372096839155,
      0.0491502892426428,
      -0.0015864815977712906,
      0.03298932654103856
    ],
    [
      0.0008105483977274254,
      -0.007326156585607658,
      -0.011644586749715425,
      -0.0002719401608414526,
      -0.015516215502070715,
      0.014833526893281133,
      0.0015786524694099166,
      -0.008346253398341028,
      0.10165395795604025,
      -8.949218659376999e-05,
      0.0050091153408709675,
      0.025599482633454913,
      -0.00519943772668865,
      -0.008912597751816404,
      -0.006799816135769332,
      -0.0062870380333171945,
      -0.00012127570447828283,
      0.044987583570470745,
      0.016382157337674366,
      -0.0063086103062824144,
      -0.007077235193736573,
      -0.014705505115445595,
      -0.0006523010269398281,
      0.010177488009178455,
      0.010624373896981431,
      -0.012384902079111134,
      0.005259698548758095,
      -0.09264905879428788,
      0.0002738832394942038,
      0.1412808235445186,
      -0.013428063962255168,
      0.08797045395741436,
      -0.03408575973206325,
      0.0016548431320294313,
      0.018610604098345356,
      -0.010081898320681843,
