{
  "weights": [
    -0.020185787379897385,
    0.0011629648913196032,
    0.023422562345586866,
    -0.029533175425597944,
    -0.05377092458554394,
    0.07936951539787826,
    -0.007360453030925133,
    0.019691961253361527,
    0.056837298737133994,
    0.03852906696295979,
    -0.03989722878275087,
    0.051818204601271886,
    0.029400934329367814,
    0.0266075593535596,
    -0.08929417465526475,
    -0.0471897009986295,
    -0.07192464413637135,
    0.08566976508756002,
    0.06700141542737251,
    -0.03214514515682711,
    0.14819204624766408,
    0.003017247878069249,
    -0.050874024203753344,
    -0.03691581173350547,
    0.014023816503241261,
    -0.027944503562319117,
    -0.03394263424369374,
    -0.08848528329624211,
    -0.1108907089209333,
    0.044948969562999715,
    -0.04684998037761187,
    0.07241952450159565,
    -0.06105023631479182,
    0.0001246966209765537,
    0.07553979850532178,
    0.0002976285862935455,
    -0.019549745292109812,
    -0.10964686453082301,
    -0.12383518440203717,
    0.18107671692239793,
    -0.06519282968894748,
    -0.04350188276984296,
    0.019653642612206396,
    0.03829317829436415,
    -0.03713165945567528,
    -0.006618059708560522,
    0.10687850252817868,
    0.03510617839001027,
    0.004695100706362018,
    0.012185631098937852,
    -0.0006684403103993618,
    0.008914477110065927,
    -0.022611802281921167,
    0.009787235045253952,
    0.005996362408837161,
    -0.00034410131039699747,
    -0.029215931311402633,
    -0.009324524125715217,
    -0.006992768821711745,
    0.053860799334941784,
    -0.04711494557435998,
    -0.003062939439287778,
    -0.003162387941429674,
    0.03142921218212847,
    -0.02356882077936166,
    0.14765684799494833,
    0.05215142610058445,
    0.13963044573127031,
    -0.055305703354130514,
    0.005587752855140671,
    -0.029198531211492185,
    -0.0077481144086155905,
    -0.020745248991817598,
    0.2098639466520795,
    -0.03140311774992632,
    0.02145854205842605,
    -0.036991953094453495,
    -0.013492851906287424,
    -0.04359156887597071,
    -0.05113442216545211,
    0.06437849466210095,
    -0.014287360170792806,
    0.0035969378910617193
  ],
  "bias": -0.06299074080095299,
  "learning_rate": 0.1,
  "n_iterations": 500,
  "optimizer": "mini-batch",
  "batch_size": 256,
  "regularization": 0.001,
  "l1_ratio": 0.0,
  "momentum": 0.0,
  "lr_schedule": "constant",
  "use_focal_loss": false,
  "focal_gamma": 2.0,
  "loss_history": [
    0.6782770265533882,
    0.6769155968154126,
    0.6778296279247767,
    0.6789030998369684,
    0.6773728618127373,
    0.6765846507800988,
    0.6770087182423303,
    0.6770032175089125,
    0.6776644192144953,
    0.6773476377554457,
    0.6763798975366248,
    0.6763630093371195,
    0.6772627396453316,
    0.6784991056915795,
    0.6786810053247471,
    0.6777304927399271,
    0.6774539602493519,
    0.6773217832791287,
    0.678386587700173,
    0.6755397621427068,
    0.6779318093706921,
    0.6768779213421504,
    0.677928387006111,
    0.6769013354791175,
    0.6772465479771786,
    0.6770351292160656,
    0.676663396712175,
    0.6780851220695264,
    0.6763416842776849,
    0.6772960460095189,
    0.6782968075949289,
    0.676297179937039,
    0.6784992231226633,
    0.6767611855298554,
    0.6799797571249748,
    0.6783100859729655,
    0.6771526814561661,
    0.6766481915491137,
    0.6783227092486717,
    0.6766896913658325,
    0.6785452386300939,
    0.6775028281286084,
    0.6772319325487354,
    0.6770484520761956,
    0.6775353066264511,
    0.6772385259746575,
    0.6765488208324538,
    0.6768774030715651,
    0.6759739909793185,
    0.6763622425328488,
    0.6771500521939793,
    0.6765867189415428,
    0.6773910627660453,
    0.6774911477377333,
    0.6769733730718834,
    0.6775681460813923,
    0.6776166554224964,
    0.6775014654566531,
    0.6773746296881183,
    0.677754866737372,
    0.6784842555826556,
    0.6782667250153415,
    0.6770049918542322,
    0.6771566580272719,
    0.6766043937536325,
    0.6776469706771271,
    0.6782500750288556,
    0.6789834280389873,
    0.6758110272112607,
    0.6774458230363299
  ],
  "weight_history": [
    [
      0.07710499019708883,
      -0.021462782008086743,
      0.10054075986816374,
      0.23642008474350593,
      -0.036347652977485836,
      -0.036345104444677506,
      0.24514137139164802,
      0.11912897369546548,
      -0.07287655828981418,
      0.08422165261129948,
      -0.0719363771796017,
      -0.07229527861412716,
      0.03755982885541517,
      -0.29699869354293823,
      -0.26775917650104375,
      -0.0872839522836992,
      -0.15722188129985945,
      0.048780646479126936,
      -0.14095267271395895,
      -0.21923205204967727,
      0.22751281249986077,
      -0.03504727886293113,
      0.01048241031370739,
      -0.22116381074574376,
      -0.08450458756513327,
      0.01721852526320409,
      -0.17866885404018662,
      0.058319642889164164,
      -0.09323720698800872,
      -0.04527965144946067,
      -0.09340298068056462,
      0.2875293373321968,
      -0.002095175615184787,
      -0.16418857871089118,
      0.1276837331891919,
      -0.18951168814604943,
      0.0324219178127711,
      -0.3041997993720565,
      -0.20617446001766682,
      0.030558790342203726,
      0.11463224485599911,
      0.026601516306997256,
      -0.017952095034533468,
      -0.04674035832474923,
      -0.2295111240184105,
      -0.11174149215444244,
      -0.07150500484823163,
      0.16409719432313208,
      0.05333990321817445,
      -0.2736769086852322,
      0.05030758864375305,
      -0.05977636287706352,
      -0.10507867327993047,
      0.09495057462918767,
      0.16004216427764212,
      0.14456271080637878,
      -0.13027182436624352,
      -0.047999069614364884,
      0.05142205728623198,
      0.1514339726532541,
      -0.07438226732171065,
      -0.028819862467944293,
      -0.1717364943364162,
      -0.18568728002672208,
      0.12612846884024545,
      0.21052928223184325,
      -0.011178138744150613,
      0.15577851725249886,
      0.05613679819101396,
      -0.10014200733606154,
      0.0560994778406628,
      0.23874957792362506,
      -0.005561279817832906,
      0.2428797992006239,
      -0.4066633079511694,
      0.12758401217003632,
      0.013512325554850326,
      -0.04641494245082815,
      0.01424403498945029,
      -0.3085305315890097,
      -0.034099690245597496,
      0.05543462202303648,
      0.2294136479528773
    ],
    [
      -0.004813102756130302,
      -0.007066899141150386,
      0.05211042319484976,
      0.00920704148433485,
      -0.014129663264983931,
      0.029850049426531564,
      0.02968340748109916,
      0.03391634197267137,
      -0.023331794920651638,
      0.08099197615594653,
      -0.0436991045892197,
      -0.04155667429471418,
      -0.005475076908526208,
      -0.05198514513543534,
      -0.1753759983738691,
      -0.14519711931553247,
      -0.15119284016190015,
      -0.024834346914144025,
      -0.09402667078467056,
      -0.17238134921428175,
      0.25911958259102,
      -0.015321483753508655,
      -0.08445719817865117,
      0.005527551851992727,
      -0.025839306248548632,
      -0.11006574835581177,
      -0.0794787830922828,
      -0.08980127933529405,
      -0.13870523918735664,
      0.0013571507805571715,
      -0.08767092231775832,
      0.09930808483074378,
      -0.06564629146388565,
      0.01833061653468081,
      0.08721417854220101,
      -0.048893655857228664,
      -0.013014048910727213,
      -0.2454436998954614,
      -0.2453590635919357,
      0.19040895183303813,
      -0.033877845931340356,
      0.011337618582939357,
      -0.0065253926397916984,
      0.013192534146764929,
      -0.11551446610970602,
      -0.0077962195817833126,
      0.07863440103317647,
      -0.0020034124401579877,
      0.002246135709168016,
      0.038515546961664475,
      -0.034915145258414694,
      0.05159396556673776,
      -0.048842468712472296,
      0.0008728444565301308,
      0.039231711738221084,
      0.012586173485771332,
      -0.030901395016423253,
      -0.031282578663069945,
      0.026431021568388613,
      0.11635568387716617,
      -0.0852584279129847,
      0.008737171147964483,
      -0.01808771026835294,
      -0.16681600792417844,
      0.10446718635513993,
      0.2606678075065182,
      0.03201946977324938,
      0.10716010950271007,
      -0.03615979482910237,
      -0.03430744995368455,
      0.05618198478306746,
      -0.027598799913057043,
      -0.016744327667685785,
      0.17952628222250955,
      -0.044976161365817044,
      0.04760422806750052,
      -0.09457823806737176,
      -0.056276101066742225,
      -0.06273150195502751,
      -0.08226940199508204,
      0.003343700220269244,
      0.010040085194964379,
      0.06352560079610103
    ],
    [
      -0.018450983748600783,
      -0.004064932071430137,
      0.016107961372396666,
      -0.012431421714325534,
      -0.04933378450536279,
      0.059681516676610515,
      0.0399936574609201,
      -0.01558082778935341,
      0.017234356232626282,
      0.05478029443366093,
      -0.0471795221113728,
      0.03192368371030441,
      0.0064006711489641615,
      0.03529342133706539,
      -0.10867059900564342,
      -0.04967239179097212,
      -0.10226183744897065,
      0.05521509018207794,
      0.039295807452302045,
      -0.031246082951066064,
      0.23399158596743846,
      -0.014041937468719599,
      -0.07481710322166651,
      -0.027192244134236796,
      -0.0011441929222625877,
      -0.05051671462158998,
      -0.042854469572646055,
      -0.08887376762273103,
      -0.11825886508834607,
      0.0176672469001752,
      -0.04567630280053866,
      0.09794174247262122,
      -0.0378291471727522,
      0.009275208172056567,
      0.053712790194014357,
      -0.01979169353307491,
      -0.048572573473934746,
      -0.17718402001011985,
      -0.15477873937391678,
      0.1675253628648086,
      -0.0627215582046003,
      -0.041709278620204654,
      0.003159711061506,
      0.012136954438732231,
      -0.042240682689031646,
      -0.004008942929081771,
      0.1183046977764507,
      0.011547915924825711,
      -0.009224879818362336,
      0.013211692303476524,
      -0.02241235726474433,
      0.007891368976219287,
      -0.016410419919988983,
      0.011513974471883643,
      0.0011762899879797506,
      -0.014712084177689377,
      -0.028953120841247144,
      0.026501224561353606,
      0.01794299667426414,
      0.07454996096188758,
      -0.06762873231304038,
      0.023269123022253282,
      -0.0009802545548161564,
      -0.003755280694402291,
      0.028918998371662005,
      0.17431798205819693,
      0.06028164290830518,
      0.14831890640458875,
      -0.024549462441808508,
      0.007123361861375466,
      -0.0026768796779015427,
      -0.014761345939967604,
      0.004009570743530611,
      0.21090282081130246,
      -0.028216951940052748,
      0.007849002069974182,
      -0.04949960799120029,
      -0.025569581066513903,
      -0.06008384016567888,
      -0.0723197111480259,
      0.06318479268297193,
      -0.024043209895741727,
      0.016184677556921358
    ],
    [
      -0.008811503190250931,
      -0.014169596993788228,
      0.011539686367168081,
      -0.016259766829492275,
      -0.07477557716152762,
      0.05670686863200698,
      0.02048003756293789,
      -0.021297454956332416,
      0.04996619212676484,
      0.03705157968315911,
      -0.04294718256666315,
      0.04940322349687228,
      0.051881040872581115,
      0.002847676731654425,
      -0.04754928476138551,
      -0.04648663880721185,
      -0.06916652526165683,
      0.01942019492663502,
      0.09335474799550521,
      0.0017493367060568612,
      0.1739313037963399,
      0.003754713747175416,
      -0.03429057571112213,
      -0.030975937386576346,
      -0.030587675277570572,
      -0.03117185721039572,
      -0.034746801695873145,
      -0.0845071045326123,
      -0.09543387675545367,
      0.056528417309640755,
      -0.09807296806000067,
      0.08731448197253844,
      -0.05952209241832185,
      0.006925059144678232,
      0.08364483705416581,
      -0.0006220849940213871,
      -0.007242336388430751,
      -0.14118966755403256,
      -0.08333896556702662,
      0.1895862416250283,
      -0.07268125027036365,
      -0.055188600490596776,
      0.016655643867956444,
      0.026378081661166106,
      -0.049308054227322866,
      -0.017331929658956025,
      0.1129209259135757,
      -0.02881897950627329,
      0.004688371670346201,
      0.01452227588345444,
      -0.0321425127514921,
      0.014337728265919874,
      -0.03534283587107946,
      0.022106065855241608,
      -0.004460959174719211,
      -0.002085281002823798,
      -0.006090379648019713,
      0.02785134704253074,
      0.01882564891522857,
      0.0494920407718679,
      -0.04541559443134764,
      -0.007801098812244475,
      0.013823196434793246,
      0.010425294448501893,
      -0.04969738155578873,
      0.1309214437209854,
      0.01168301170641676,
      0.14712700935050727,
      -0.060860531865639035,
      0.015251924141897886,
      -0.021192119744906736,
      0.019780086861060857,
      -0.04342485703681861,
      0.21006726256813665,
      -0.02537051271096339,
      0.004369559490638062,
      -0.04613778169555763,
      -0.011324722364322783,
      -0.05141522112758343,
      -0.029140451111089365,
      0.03842778601713371,
      -0.030324896477192644,
      0.05962461588727854
    ],
    [
      -0.027088258945169835,
      -0.027535600751998356,
      0.01686971925840163,
      0.005098699309377729,
      -0.07947893986347662,
      0.07174040460106021,
      0.003875157696473562,
      -0.01915914848869128,
      0.0680903509731103,
      0.025060463278085768,
      -0.01989635695915919,
      0.04384920990188559,
      0.03140269056951539,
      -0.020068980102145584,
      -0.04779834957941242,
      -0.007817177573483304,
      -0.04678195049212421,
      0.07188658646355822,
      0.07019808936840882,
      0.020928020120490196,
      0.13104470935954568,
      0.007046344321700751,
      -0.011630318750917816,
      -0.016687598736391286,
      -0.016584138949972974,
      -0.01895566949620646,
      -0.043349492947895446,
      -0.09533436438875828,
      -0.12402485582412275,
      0.09267083123025255,
      -0.06369139429604509,
      0.0819291274176246,
      -0.028796494597551663,
      0.022061411356264916,
      0.08035107483308701,
      -0.008025768913126142,
      -0.018504376753842654,
      -0.042210374421541394,
      -0.10965336832102866,
      0.14366345995837898,
      -0.07584370811121949,
      -0.036744489959226245,
      0.0076425223297424015,
      0.03086315775216903,
      -0.05566220618909706,
      -0.0066490845889534125,
      0.1275356046787234,
      -0.003812623588429101,
      0.010025011611539703,
      7.590473004737402e-05,
      0.005845243661278635,
      -9.242693661411228e-05,
      -0.01201594750483696,
      -0.021434962447980637,
      -0.01990034402418526,
      -0.009922006940051164,
      0.012769561596233495,
      0.020321778347969863,
      0.03193293383213116,
      0.04222973831201143,
      -0.0298114671719128,
      0.025103073449519984,
      -0.004277594598007754,
      0.02593459366376389,
      -0.06711582508378687,
      0.09637797294193738,
      0.06331411547694271,
      0.1251762619189004,
      -0.05816349882585784,
      0.023875354729386865,
      -0.01044623315720741,
      0.023355392171743282,
      -0.03591500571455024,
      0.19837916904177394,
      -0.028985603943213607,
      -0.004704802387966078,
      -0.007992617459963838,
      -0.0017407499449155557,
      -0.026376836020022897,
      -0.06268217249093681,
      0.05687591816309723,
      -0.036469240586032944,
      0.055394938234484416
    ],
    [
      0.0007389537872798377,
      -0.009610654257400986,
      0.014264927123795838,
      -0.05422279205254014,
      -0.08560166900224699,
      0.06699311038499464,
      -0.002340693077214375,
      -0.01938900741347518,
      0.10352105360658719,
      0.016950068663273237,
      -0.01882792904319793,
      0.06029077896511318,
      0.0487236788975158,
      0.024318239831869204,
      -0.04126819618029442,
      -0.010652593384475008,
      -0.0316417643299022,
      0.038976159122042976,
      0.081403500411585,
      0.00946039870724614,
      0.07943781192880216,
      -0.02944521094842047,
      -0.04529766845935338,
      -0.00971331339178496,
      -0.024269431979581528,
      -0.005146111396441719,
      0.011570087315746025,
      -0.0859924777413853,
      -0.11304209710050737,
      0.08793654371196752,
      -0.03859944243364274,
      0.07313055831181764,
      -0.04307746237973751,
      -0.013888137193157808,
      0.051844579128446734,
      -0.021000965259542183,
      -0.05069886181815045,
      -0.05577815206776305,
      -0.046937461701403387,
      0.16421476101494176,
      -0.06482134250355663,
      -0.05850832680324548,
      -0.00545577066836769,
      0.07124063692008678,
      -0.02189201779406383,
      -0.02078920933122219,
      0.11537718601016311,
      0.01655847330757436,
      -0.014864379017897323,
      0.024242914064436214,
      -0.012529980169042668,
      0.003241701072258684,
      -0.029864285601536852,
      0.013651842068058006,
      -0.046697497147608354,
      0.0005943661707166481,
      -0.027420356137471173,
      0.04321685307278267,
      0.010990592678869138,
      0.024594754373762257,
      -0.027425051860241422,
      0.0015791341248460543,
      -0.023275956598194696,
      0.029379957262532685,
      -0.06900416284796497,
      0.11053927629645617,
      0.06720394805980281,
      0.139130663691503,
      -0.055812216606489946,
      0.030479652895671,
      -0.014485367165829557,
      -0.004975254368859961,
      -0.029994757792350432,
      0.19510343498153943,
      -0.05662186821835616,
      0.04972188650707154,
      -0.01619946672520764,
      0.019493256932426435,
      -0.002366349677249357,
      -0.05995698836111426,
      0.047874881601890636,
      -0.021099854536364926,
      0.05055895538232946
    ],
    [
      -0.004555821997439052,
      2.2622097477589397e-05,
      0.02578002472879521,
      -0.017310688055142288,
      -0.0759561604014721,
      0.07513314518905938,
      0.014727446575519294,
      -0.004524429190102869,
      0.10041718359371714,
      0.011464465939898045,
      -0.01581118393040006,
      0.05966438831953619,
      0.010856714974889515,
      -0.004631024029530048,
      -0.012552399249698195,
      -0.006577771285626201,
      -0.02140144306462012,
      0.06589455605805868,
      0.07545004054773792,
      0.0268093009515323,
      0.06987801467635844,
      -0.008667700798127877,
      -0.01660949089853912,
      0.023315274003941504,
      0.014895472752589414,
      -0.03106471571256159,
      -0.00959792261579091,
      -0.04376789623608212,
      -0.08032944125271745,
      0.08158132269162016,
      -0.06731514465253874,
      0.10453787662123366,
      -0.029058317165316063,
      0.006894972235327975,
      0.07234493753004913,
      -0.018690582861136392,
      -0.030200768921481883,
      -0.027344334142757193,
      -0.0421291104164294,
      0.16506523836073256,
      -0.0644089633544449,
      -0.02957711623953753,
      0.0059534945514697415,
      0.06545273428884554,
      -0.026815660865415675,
      -0.05661897045707919,
      0.10220671697361737,
      -0.0029321037589517852,
      -0.013935901120701701,
      0.009904276666214516,
      -0.019870664097817972,
      0.01649293814246011,
      -0.01699680958075281,
      -0.017976122662778912,
      -0.008269660331353328,
      0.028985837261395836,
      0.005589188902747037,
      -0.003974958454792589,
      0.02305132926386166,
      0.012190523083279305,
      -0.017867395423213497,
      0.023909057840174237,
      -0.028072025675284617,
      0.03980167909300246,
      -0.07111262418530086,
      0.08675383573001488,
      0.0373311060567837,
      0.12380746172379586,
      -0.0703849039935051,
      0.012416424015774183,
      -0.029030030284703322,
      0.0007320567293680827,
      -0.06059714946920174,
      0.2089383661767495,
      0.0004029161334291025,
      0.005220429197917963,
      -0.018108656464789423,
      -0.00018581659911438668,
      -0.021467852850158488,
      -0.0026039147803393996,
      0.08170904175191239,
      -0.0117773291299449,
      0.026226889862227574
    ],
    [
      0.02768030328899828,
      0.018587235842716633,
      0.04155775889249499,
      -0.001989655738845283,
      -0.06938471937810484,
      0.07631897851077266,
      0.033891854239799485,
      0.0027454470819447607,
      0.1056971549711872,
      0.0077541856554167055,
      -0.026017864350917887,
      0.07574596356426022,
      0.016143372147744806,
      -0.021513418521951017,
      -0.014731255089945121,
      0.007465303701232354,
      -0.014475228387164703,
      0.05697696008280734,
      0.07907373410255739,
      0.02520355277683442,
      0.04828070677644168,
      -0.029268701274058836,
      -0.00756114808243937,
      0.05091575692186995,
      0.005983045013935418,
      -0.006412515109669292,
      -0.04455687579070094,
      -0.0842553982082866,
      -0.0726385697593264,
      0.06613644067712439,
      -0.031790895666494394,
      0.08178942083648359,
      -0.04964229139811947,
      0.028320012278302324,
      0.08658393813202629,
      0.01674034159990461,
      -0.018963555585941,
      -0.018415579396449368,
      -0.02857396115933371,
      0.1833435244256355,
      -0.06611190204312237,
      -0.007944110266663416,
      0.022671284484807732,
      0.06582176035121771,
      -0.02854351789393107,
      -0.035457549277188596,
      0.1029276507604268,
      0.033225780677943836,
      -0.027315515619080355,
      0.019085148432306572,
      0.011589316295277463,
      -0.01887574502161251,
      -0.008806472571345108,
      -0.023789388687235676,
      -0.012723943941096237,
      0.004080775755371493,
      -0.009140926762406519,
      0.014758662778768528,
      0.019414851067279006,
      0.013627571908305129,
      -0.015818684484786676,
      -0.016362869388650936,
      -0.01987107716459284,
      0.054278936926600414,
      -0.05125442488937165,
      0.07540960795877535,
      0.0968241372435883,
      0.13891333076066426,
      -0.04074670715056142,
      0.004268013332924156,
      -0.043025270349791776,
      -0.020785900331262774,
      -0.014440387922774633,
      0.20774386065147973,
      -0.042200183664722286,
      0.04258451888093477,
      0.03039622792234533,
      -0.010239861917530818,
      0.015005191231941252,
      -0.07232105185995838,
      0.05677279927811762,
      -0.046282088575972664,
      0.04953901459267878
    ],
    [
      -0.020185787379897385,
      0.0011629648913196032,
      0.023422562345586866,
      -0.029533175425597944,
      -0.05377092458554394,
      0.07936951539787826,
      -0.007360453030925133,
      0.019691961253361527,
      0.056837298737133994,
      0.03852906696295979,
      -0.03989722878275087,
      0.051818204601271886,
      0.029400934329367814,
      0.0266075593535596,
      -0.08929417465526475,
      -0.0471897009986295,
      -0.07192464413637135,
      0.08566976508756002,
      0.06700141542737251,
      -0.03214514515682711,
      0.14819204624766408,
      0.003017247878069249,
      -0.050874024203753344,
      -0.03691581173350547,
      0.014023816503241261,
      -0.027944503562319117,
      -0.03394263424369374,
      -0.08848528329624211,
      -0.1108907089209333,
      0.044948969562999715,
      -0.04684998037761187,
      0.07241952450159565,
      -0.06105023631479182,
      0.0001246966209765537,
      0.07553979850532178,
      0.0002976285862935455,
      -0.019549745292109812,
      -0.10964686453082301,
      -0.12383518440203717,
      0.18107671692239793,
      -0.06519282968894748,
      -0.04350188276984296,
      0.019653642612206396,
      0.03829317829436415,
      -0.03713165945567528,
      -0.006618059708560522,
      0.10687850252817868,
      0.03510617839001027,
      0.004695100706362018,
      0.012185631098937852,
      -0.0006684403103993618,
      0.008914477110065927,
      -0.022611802281921167,
      0.009787235045253952,
      0.005996362408837161,
      -0.00034410131039699747,
      -0.029215931311402633,
      -0.009324524125715217,
      -0.006992768821711745,
      0.053860799334941784,
      -0.04711494557435998,
      -0.003062939439287778,
      -0.003162387941429674,
      0.03142921218212847,
      -0.02356882077936166,
      0.14765684799494833,
      0.05215142610058445,
      0.13963044573127031,
      -0.055305703354130514,
      0.005587752855140671,
      -0.029198531211492185,
      -0.0077481144086155905,
      -0.020745248991817598,
      0.2098639466520795,
      -0.03140311774992632,
      0.02145854205842605,
      -0.036991953094453495,
      -0.013492851906287424,
      -0.04359156887597071,
      -0.05113442216545211,
      0.06437849466210095,
      -0.014287360170792806,
      0.0035969378910617193
    ]
  ],
  "lr_history": [
    0.1,
    0.1,
    0.1,
    0.1,
    0.1,
    0.1,
    0.1,
    0.1,
    0.1,
    0.1,
    0.1,
    0.1,
    0.1,
    0.1,
    0.1,
    0.1,
    0.1,
    0.1,
    0.1,
    0.1,
    0.1,
    0.1,
    0.1,
    0.1,
    0.1,
    0.1,
    0.1,
    0.1,
    0.1,
    0.1,
    0.1,
    0.1,
    0.1,
    0.1,
    0.1,
    0.1,
    0.1,
    0.1,
    0.1,
    0.1,
    0.1,
    0.1,
    0.1,
    0.1,
    0.1,
    0.1,
    0.1,
    0.1,
    0.1,
    0.1,
    0.1,
    0.1,
    0.1,
    0.1,
    0.1,
    0.1,
    0.1,
    0.1,
    0.1,
    0.1,
    0.1,
    0.1,
    0.1,
    0.1,
    0.1,
    0.1,
    0.1,
    0.1,
    0.1,
    0.1
  ]
}