{
  "weights": [
    0.004733804744262939,
    0.0014891352517351422,
    0.0023914388760822884,
    0.0057730534744323886,
    -0.011540745024104057,
    -0.013113280918562887,
    0.012983183316710637,
    0.012756108084383152,
    -0.0041672425540093564,
    0.09037905382403191,
    -0.00010106367487345237,
    0.008905890061924063,
    0.017479527275530288,
    0.007044591504596032,
    0.0003454329187727622,
    -0.0025400048710783876,
    -0.0008422009881918641,
    9.79279654437934e-05,
    0.01943540146648961,
    0.024767291409479933,
    0.0022703922506593826,
    0.002450411746805129,
    0.0006716364408399101,
    0.003664945166860293,
    -0.004416433270719231,
    -0.004170072147560878,
    0.003530104765518784,
    -0.001893919092330089,
    0.0008537001815650424,
    0.0014612952572956933,
    -0.07479051884542928,
    -0.027793097159796883,
    -0.04093965358718575,
    0.1185385664130878,
    -0.02698003838044515,
    0.08404137637072566,
    -0.0386441419270442,
    0.016728691531156883,
    0.2648180706630545,
    -0.24071828577738472,
    -0.0029069591807689556,
    0.006249841204175943,
    0.00953298307308538,
    -0.009544105928015922,
    0.05298530135478464,
    0.11727730005566109,
    -0.04481055906075685,
    -0.02377148361091024,
    -0.002481566376208761,
    0.005092035434441503,
    0.06961038818981158,
    -0.004637811886028718,
    -0.008436302317050068,
    0.037496571994240994,
    0.07127686680155833,
    0.00791778285599346,
    -0.003953809399692768,
    0.024975428266558474,
    0.0018129743799345584,
    -0.0001645896007782772,
    -0.008057216116344051,
    -0.006347476644628094,
    -0.006011685906120119,
    -0.0004598446126236311,
    -0.00900291401301668,
    0.004164364954361744,
    0.0109969308814922,
    0.0042226160178577025,
    0.00438299134154105,
    0.00205681585554714,
    -0.0018270913129110693,
    -0.0014266396296073575,
    -0.005259643462556297,
    -0.019690998496492397,
    0.004174975285423244,
    0.0037384577864402343,
    0.020367351064195117,
    0.2784628053765915,
    -0.17849103837278468,
    -0.015026786860033994,
    -0.004796334228563658,
    -0.0011159180075480683,
    -0.012110966152322416,
    0.02077181956099053,
    0.005711772437263818,
    0.18235878782219345,
    -0.025698043874250127,
    -0.002980589082083438,
    0.03200838075562331,
    0.00659718629114427,
    0.003801623465505709,
    -0.013007817603933155,
    -0.007797244149163337,
    0.03598042675264649,
    -0.009298665382528312,
    0.004155417414949859,
    -0.02447173428308848,
    0.036365230600335516
  ],
  "bias": -0.04485380872873508,
  "learning_rate": 0.0015,
  "n_iterations": 3000,
  "optimizer": "adam",
  "batch_size": 256,
  "regularization": 0.0006,
  "l1_ratio": 0.5,
  "momentum": 0.0,
  "lr_schedule": "constant",
  "use_focal_loss": false,
  "focal_gamma": 2.0,
  "loss_history": [
    0.6813358988482148,
    0.6776062468238274,
    0.6766968598653897,
    0.6765379528776865,
    0.6762389025824224,
    0.675568629150252,
    0.6754288231688095,
    0.6757457925207425,
    0.6759712947892,
    0.6762217819264216,
    0.674909426023867,
    0.6748534736876742,
    0.6746791790136988,
    0.6753085734845992,
    0.675416470179274,
    0.6746509420589207,
    0.6752042180182556,
    0.674778736254174,
    0.6749952503497869,
    0.6746549993342291,
    0.6749493518937181,
    0.6753899598019758,
    0.6746512241165858,
    0.6749415811301085,
    0.6747406701700775,
    0.6754955613846475,
    0.6749332382361978,
    0.6747792673778428,
    0.6744599993214013,
    0.675147187279525,
    0.6744924695039269,
    0.674540012943816,
    0.6752803086560666,
    0.6749020161601104,
    0.6746268816554826,
    0.6749165734794413,
    0.6748901201808014,
    0.6748890817704423,
    0.6747871454421595,
    0.6749622293939754,
    0.6749924857060667,
    0.6746447429869085,
    0.6749437108225188,
    0.6748351352618632,
    0.6745065681305956,
    0.674196367187868,
    0.6745576813343808,
    0.6743739137516784,
    0.6742962744370935,
    0.6751964450574836,
    0.6745136681402206,
    0.6741919203687742,
    0.674406782305747,
    0.6749411608374408,
    0.6744746008776977,
    0.6743116691172207,
    0.675025598827377,
    0.6746932356399691,
    0.6750822920569882,
    0.6743700461666403,
    0.6747876376094815,
    0.6745436663328354,
    0.6749869071616299,
    0.6741977381920318,
    0.6743397180232886,
    0.6745306227898132,
    0.6756831887623775,
    0.6749645462728782,
    0.6748798064229778,
    0.6743171641172493,
    0.6747296527315682,
    0.6749415617170305,
    0.6743669366712176,
    0.6752296168890678,
    0.6746448743301008,
    0.6744519514466073,
    0.6746765557707866,
    0.6746569586296572,
    0.6745272233520998,
    0.6751361277541973,
    0.6742360142790349,
    0.67462276616273,
    0.6753482035987484,
    0.6743500078033936,
    0.6744395408033642,
    0.6746949779590402,
    0.6745523472479447,
    0.6746627556975383,
    0.6745007272855967,
    0.6744899450653689,
    0.6746190582554499,
    0.6746388830389983,
    0.6748455711723498,
    0.6748283588829743,
    0.6746402676842052,
    0.6742249167171519,
    0.6748183713611228,
    0.6753084266619093,
    0.674371937427926,
    0.675272987778239,
    0.6745488819743773,
    0.6746543016725041,
    0.6742414549827981,
    0.6741933033160677,
    0.674831859237849,
    0.6750119486129454,
    0.6746646474907009,
    0.6746511347450055,
    0.6743199049467631,
    0.6747487718246151,
    0.6747585395627798,
    0.674504536428424,
    0.6745173511738719,
    0.6752141720585391,
    0.6748635738358916,
    0.6744688002137631,
    0.674799892868368,
    0.6748318441314963,
    0.6747603780493734,
    0.6747276294293485,
    0.6751649593248026,
    0.6748408873499279,
    0.6747491290327571,
    0.6752269060303001,
    0.674648692805568,
    0.6739844436210453,
    0.6743352613039056,
    0.6745485221536442,
    0.6745280217687342,
    0.6746904549910211,
    0.6749440002929851,
    0.6744080888856687,
    0.6746025010330076,
    0.6745050596774826,
    0.6747409856354191,
    0.6748551379077052,
    0.674658359282961,
    0.6745637070482854,
    0.67464089651525,
    0.6746477906170932,
    0.674532713574526,
    0.6744914289921984,
    0.6741238843078706,
    0.67419246510342,
    0.6744244583292132,
    0.6747001475193367,
    0.6751974976073856,
    0.6746594320755545,
    0.6748249808770452,
    0.6752559092782396,
    0.6744452781823203,
    0.6745636377180176,
    0.6744276906001143,
    0.6744903150630899,
    0.6743029285206059,
    0.6746720018178904,
    0.6749313640044543,
    0.675107794391425,
    0.674677031208532,
    0.6747890248015794,
    0.6745551492938895,
    0.674561768439534,
    0.6744028117955994,
    0.6742165704645837,
    0.6746490634913965,
    0.6746211159829304,
    0.6746115836567846,
    0.6746060080260566,
    0.6746353884464086,
    0.674281737746952,
    0.6740632369329767,
    0.6745884447083995,
    0.6748198642696338,
    0.6752342570276068,
    0.6743206837143655,
    0.674752040544056,
    0.6748656393385796,
    0.6744909734917832,
    0.6744363538865279,
    0.674576615993197,
    0.6745912850759527,
    0.6746759200948469,
    0.6745586742513279,
    0.6745075712223101,
    0.6748667489756194,
    0.6742846313135743,
    0.6751684642111542,
    0.6744012630792309,
    0.6742460741875789,
    0.6747717649105541,
    0.6749533050344759,
    0.6742505807047088,
    0.6747401933015907,
    0.6748520070263608,
    0.674903475474796,
    0.674585107121262,
    0.6744563137238884,
    0.6746640548422221,
    0.6744725380753179,
    0.6746556188260114,
    0.6742151621271562,
    0.6748067932359118,
    0.6749547735240937,
    0.675119222741304,
    0.6745897987739116,
    0.6747112931491249,
    0.6747021804237083,
    0.6744339948116825,
    0.6748292371491279,
    0.6743606489220967,
    0.674648958897157,
    0.674788637090857,
    0.6750388998942991,
    0.6745526788588792,
    0.6749105354249204,
    0.6746450864892081,
    0.6748443695127702,
    0.6741409921593242,
    0.6741575969928523,
    0.6747438928077711,
    0.6749107815839225,
    0.6746081254963759,
    0.6742613300582865,
    0.6749039884494508,
    0.6747637485723591,
    0.6752618442678441,
    0.674715650891967,
    0.6751549537859743,
    0.6747043017153783,
    0.6747875216243591,
    0.6745947440590231,
    0.6746420863439001,
    0.6747050555905949,
    0.6746992021647844,
    0.6745237143574103,
    0.6744991722483292,
    0.6745657841082681,
    0.674506478428503,
    0.6747017559120531,
    0.6750240512004138,
    0.6747439341361113,
    0.6744859572666576,
    0.6746148071039172,
    0.6746755470104198,
    0.6754953588287681,
    0.6747894482596757,
    0.6746572849655794,
    0.6743589233914287,
    0.6743104277250406,
    0.6741787424200688,
    0.6744092283798888,
    0.6742161304235031,
    0.6746191362221082,
    0.6747674247898262,
    0.6742947419929706,
    0.6748751535084382,
    0.674920925610796,
    0.6749459355463077,
    0.6746427247786929,
    0.6744958205467604,
    0.6747875766565495,
    0.6745271717700159,
    0.6743173180113559,
    0.6745016628287815,
    0.6747700160152463,
    0.6746823096524015,
    0.6747866361417412,
    0.6747053994719591,
    0.6751439133625184,
    0.674649597873401,
    0.6743308828047568,
    0.6747021233768574,
    0.6743806891043479,
    0.6749242344860505,
    0.6748833410340558,
    0.6746147533477159,
    0.6744793868464106,
    0.6750057245510462,
    0.6746839187715712,
    0.6749446977082356,
    0.674462819750868,
    0.6747065928126779,
    0.6749701966668471,
    0.674338219311422,
    0.6745326847046493,
    0.6744834341220121,
    0.6746495476270278,
    0.676289943840087,
    0.6743972593854781,
    0.6752861221297475,
    0.6743987295524062,
    0.6746388507471485,
    0.675049449187529,
    0.6748400523159878,
    0.6748337351876585,
    0.6747072641459937,
    0.6744357754571717,
    0.6745326958187916,
    0.6743331743823854,
    0.6747923672066668,
    0.6752949529311506,
    0.6749508941214094,
    0.6754622864891849,
    0.675427520594124,
    0.6745958330746111,
    0.6744819912996,
    0.6743668175115977,
    0.6743482845286691,
    0.6744680874832476,
    0.6745430502840634,
    0.6745649818732996,
    0.6744711617216413,
    0.6743857921356042,
    0.6744911373406394,
    0.6746768046202395,
    0.6745194182728435,
    0.6747117757985839,
    0.674602922334153,
    0.6745905553134763,
    0.6744373447592118,
    0.6743180936013572,
    0.6744163221325892,
    0.674714536296848,
    0.6747842850892023,
    0.6744372217500126,
    0.6741569151824434,
    0.675047790133367,
    0.674471863972531,
    0.674589030967094,
    0.6746733059291321,
    0.6747529932236106,
    0.6747000768705311,
    0.6743823883501985,
    0.6746363372968553,
    0.6744411662691228,
    0.6744263847584745,
    0.6743961531271426,
    0.6743802792745734,
    0.6748142439997851,
    0.6750188191995841,
    0.6748657074595104,
    0.6743363442483159,
    0.6747005898991772,
    0.6747502595728057,
    0.674855541563524,
    0.6753012993644254,
    0.6745388391150489,
    0.6743872000355591,
    0.6742790263820236,
    0.6751189015943458,
    0.674801195821941,
    0.6748227853008816,
    0.6745013919524444,
    0.6746902815564516,
    0.6746101129277624,
    0.6760919659490232,
    0.6747423487485268,
    0.6745861396197508,
    0.6748383944265498,
    0.674902711524795,
    0.6750549711683278,
    0.6746959608280609,
    0.6741469563420484,
    0.6743005433706075,
    0.6750995244343381,
    0.6743716672666389,
    0.6745594621342327,
    0.6748827140926823,
    0.6744866922821898,
    0.6747062414045103,
    0.6748554544611652,
    0.6744788923775725,
    0.6743103016209302,
    0.6742521904303428,
    0.6748194299993814,
    0.674612885128698,
    0.6745794200850668,
    0.6745331595474879,
    0.6743850822582699,
    0.6748144310461879,
    0.6750551079892466,
    0.6746281053409567,
    0.6745632601153635,
    0.6744750901608849,
    0.6746792554144906,
    0.6747297616829995,
    0.6750147637167099,
    0.6744453915766364,
    0.6745499876405829,
    0.6749571808821118,
    0.6743742023692664,
    0.67468007023048,
    0.6743865976296728,
    0.6747755696548147,
    0.6750010375998939,
    0.6746471508505381,
    0.6746783594115361,
    0.6744723514567429,
    0.6748457415018468,
    0.6744054750125215,
    0.6748618698828528,
    0.6749054966861296,
    0.6745271882817094,
    0.6745418309900999,
    0.6749367261773751,
    0.674665663342238,
    0.6750462935078402,
    0.674750097620908,
    0.6748478628606923,
    0.6747058044822439,
    0.6747299321859231,
    0.6749511293492597,
    0.6745206899186729,
    0.674659790694501,
    0.6750869956705977,
    0.6749486248713114,
    0.6750592029898959,
    0.6750174090057243,
    0.6742611521702527,
    0.6744908642448278,
    0.6746136617060662,
    0.6751625288849016,
    0.6748704131644283,
    0.6749876677984354,
    0.6746233017470008,
    0.6743548684823607,
    0.6747224655591184,
    0.6741124505962699,
    0.6749684955444797,
    0.675156260291311,
    0.6745733268057796,
    0.6748014562686885,
    0.6745563692998034,
    0.6749240447570001,
    0.6746186616872941,
    0.6743322345603261,
    0.674458445759183,
    0.6746200346754895,
    0.6744042103133966,
    0.6745751201459175,
    0.6746693732844531,
    0.6745784834265701,
    0.6748605894430525,
    0.6748860667771229,
    0.6750307123102646,
    0.6746532078635764,
    0.674327826324322,
    0.6747112571580764,
    0.6746072784839159,
    0.6749686499021043,
    0.674499987010482,
    0.6750180806929673,
    0.6744400569907197,
    0.674462666958859,
    0.6746281824171947,
    0.6749215206099776,
    0.6748132985992916,
    0.674329953753035,
    0.6750829175029958,
    0.6746992855822123,
    0.6746341319634683,
    0.6749420628911383,
    0.6745697617331827,
    0.6749387012838247,
    0.674677793167039,
    0.6756573966523884,
    0.6745366895606177,
    0.674646490659427,
    0.6744956530875973,
    0.674345701701287,
    0.6746149566304233,
    0.6745103941251004,
    0.6749974452588212,
    0.6744784242410514,
    0.6744401937692087,
    0.6746131127624827
  ],
  "weight_history": [
    [
      0.07095916471589038,
      -0.01975204302445495,
      0.09252693401438464,
      0.21757569377257505,
      -0.033450482103333706,
      -0.03344813670702579,
      0.2256018307867702,
      0.10963353273612982,
      -0.06706776941927887,
      0.0775085776551378,
      -0.06620252754463746,
      -0.06653282193860811,
      0.034566038795147726,
      -0.27332574923682823,
      -0.24641683321614752,
      -0.08032678989156752,
      -0.14469016004777482,
      0.04489247608503912,
      -0.1297177250744587,
      -0.20175767161932734,
      0.209378395560222,
      -0.03225375721236223,
      0.009646886383989119,
      -0.20353545517335095,
      -0.07776896064645467,
      0.015846084244266583,
      -0.16442765391747183,
      0.05367114547795313,
      -0.08580552713125784,
      -0.041670535684753825,
      -0.08595808746134241,
      0.26461116921556255,
      -0.0019281749625619886,
      -0.15110156127941432,
      0.11750641601474128,
      -0.17440623571014602,
      0.02983765642925077,
      -0.27995287483996795,
      -0.1897408641283472,
      0.02812303369558907,
      0.10549522571363006,
      0.024481183027138642,
      -0.016521183198320074,
      -0.04301481365561268,
      -0.21121742719534675,
      -0.1028348869135298,
      -0.06580553870854107,
      0.15101746088841653,
      0.04908832708120877,
      -0.25186287933753343,
      0.04629770991354214,
      -0.055011754345188076,
      -0.09670314290085125,
      0.08738232697726683,
      0.14728564607085012,
      0.1330400170165998,
      -0.11988821760323407,
      -0.04417319655017351,
      0.047323347343366275,
      0.13936358958890846,
      -0.06845346254932713,
      -0.026522710951973873,
      -0.1580478534294326,
      -0.17088666058295296,
      0.11607511748488543,
      0.19374857551011754,
      -0.010287160225761977,
      0.14336184255600345,
      0.05166228929251916,
      -0.09215996494358918,
      0.05162794364405913,
      0.21971950949513844,
      -0.005118005587135934,
      0.22352052225914373,
      -0.37424930058424916,
      0.11741464348217483,
      0.012435295462595888,
      -0.04271533578083821,
      0.013108682362214612,
      -0.2839384163715561,
      -0.0313816982625017,
      0.0510160816445352,
      0.21112772067735944,
      -0.07403860261052105,
      -0.11549908612759822,
      -0.07167957765493378,
      0.1307717311002963,
      0.04696444423709778,
      -0.07568002910957697,
      0.07332391901619373,
      0.01386822133543434,
      0.13837785579041273,
      -0.10029329912533605,
      -0.04680887808539545,
      -0.056015450447451084,
      -0.20907356401887406,
      0.04230289672351086,
      0.03729361031141276
    ],
    [
      0.02378039734524554,
      -0.041330857476286974,
      -0.04677953766531817,
      0.06951195046423586,
      0.012183200873865305,
      -0.0734105611379257,
      0.1800899854470773,
      0.049995676484977936,
      0.061251181041420716,
      0.21926137788196215,
      0.0001853413095096101,
      -0.054977338615551645,
      -0.0950221381375304,
      -0.06685733349533488,
      -0.07564292896232519,
      -0.13395115867204563,
      -0.1782039734745855,
      -1.1375732426044068e-05,
      -0.09502822954828456,
      -0.17536380334993976,
      0.1556702286934878,
      -0.07702046878393234,
      -0.04364173029256872,
      -0.06722124132379252,
      0.0403539753235817,
      -0.061557638108584625,
      -0.030586340952483738,
      -0.010661610943908693,
      -0.05863962469966384,
      -0.03917290749907299,
      -0.22726052328320945,
      0.11588382062931986,
      -0.12027537526227232,
      0.015730768580073672,
      -0.07237346461152835,
      -0.015392457712487793,
      0.04572939636705282,
      -0.09372843242647622,
      -0.137242805933752,
      0.05547243223013374,
      0.11879079285778699,
      0.0721693337166303,
      -0.030333501114187842,
      -0.0216128349224075,
      0.007497341325277653,
      0.11353433171303512,
      0.01350308599241501,
      0.046763124215110564,
      -0.02212874724653036,
      -0.10441991972195293,
      0.1908125463773868,
      0.08299298671016545,
      -0.03593239410160174,
      -0.0013475773791492877,
      0.05463548788308588,
      0.0033638188190324193,
      0.011320125207073354,
      0.004146460591055023,
      -0.0026295368930703026,
      0.06896885179916343,
      -0.04062014238436041,
      -0.02359318074270957,
      0.016412384419769725,
      -0.027144078017112442,
      -0.02448565617587508,
      0.020967019603292707,
      -0.05763337745880373,
      0.06995012237629841,
      -0.01875011414382306,
      -0.13616117497749342,
      -0.027976515146572168,
      0.046850472479440665,
      -0.12100571332314311,
      0.09427877284952382,
      -0.22647662749951417,
      0.11257560993000292,
      0.0017331523565836831,
      0.09028365120435031,
      0.09870329273752854,
      -0.14729161093820445,
      -0.029993188301211025,
      0.04209319454715609,
      0.0966689873220772,
      -0.0925512798954322,
      -0.010397024865127487,
      -0.007233337685093587,
      0.04135427813025317,
      0.057906289783302506,
      -0.020551623032313903,
      0.04083503385948611,
      0.0369103553779615,
      0.02617528958140618,
      0.014986558163516843,
      0.05172994428662134,
      0.012992464496052234,
      -0.08362565549259596,
      0.06826116962839063,
      0.02652613165576615
    ],
    [
      -0.004579958195871405,
      -0.0063565580586417095,
      -0.005569086874520518,
      0.016330397798806077,
      -0.0075464933144042375,
      -0.057021190789479606,
      0.06377683005045967,
      0.019836882299598912,
      -0.0035771670139747654,
      0.19617564863185166,
      -0.0001954909775840191,
      -0.04164304611000988,
      0.0006054069852313952,
      -0.005210028493175905,
      0.00884304971681097,
      -0.11296603297206706,
      -0.10608278933139204,
      0.0002197488679274211,
      -0.000315560003393682,
      -0.03393915789152468,
      0.14094752642911548,
      -0.0048818993053022655,
      0.003377172614220874,
      -0.00048616199296270624,
      -0.0027337791687316497,
      -0.02069766511062281,
      -0.007837283382180269,
      -0.010616758387028342,
      0.007487689957857532,
      -0.010810746037379717,
      -0.15942209804215024,
      0.06393354860059057,
      -0.1134236985565068,
      0.027638055347508097,
      -0.06938215691620882,
      0.07772910116215329,
      -0.03904624039403023,
      0.011256367711160337,
      0.010771280352545239,
      -0.04474172110744232,
      -0.0001352839573115698,
      0.04571916075668075,
      0.004332180519601155,
      -0.006616782398822805,
      0.0306717694348777,
      0.1329350561856053,
      -0.02708469581360618,
      -0.012708857498826064,
      0.002259373804228326,
      -0.045409492591679805,
      0.17387748334986608,
      0.022560143000541745,
      -0.002544053300815907,
      0.0264986301442214,
      0.08005022609015355,
      0.014102272772335049,
      -0.0005957972905866659,
      0.013328024085467233,
      -0.004483413881810935,
      0.017953798991723686,
      -0.0011189107025425114,
      0.009878754585510983,
      0.0023411986823633968,
      -0.011491790686873915,
      -0.012342201782599411,
      0.00844676563993705,
      0.015181675215353076,
      0.025171305160858255,
      -0.0007064291734982736,
      -0.09101657090053439,
      0.002805918501807717,
      -0.0029710721950547097,
      -0.0354535269677771,
      0.03750378872810058,
      -0.1649706317651255,
      0.006277505246520948,
      0.00644618799819,
      0.220756390425758,
      -0.12402407501251872,
      -0.01576412208916016,
      -0.0001844111000394001,
      -0.01185745382608654,
      -0.011253340446887432,
      0.014960651852818306,
      0.026759792597404065,
      0.1494069185797467,
      -0.012128727317671813,
      -0.012267055756526809,
      0.02381510621837459,
      0.015466592628886526,
      0.01132945189282185,
      -0.006006985498872067,
      -0.0017376010821313964,
      0.03841683675196198,
      0.0006804473653213333,
      0.0019593364770492537,
      -0.014441521766560399,
      0.03228658086674592
    ],
    [
      -0.009307633007868785,
      -0.013791743956831658,
      0.005088238452514199,
      0.009344281720129072,
      -0.006687005732951822,
      -0.02631434544436134,
      0.04421465872593482,
      0.017598340154598494,
      0.004974784274222827,
      0.16595374286033704,
      0.00010106398383663437,
      -0.022957110387285734,
      0.018742290120633626,
      0.004921637423694602,
      -0.007583843274398744,
      -0.06901649014534049,
      -0.07685790200794125,
      -1.2381191933673648e-05,
      0.01636471753471231,
      0.02164264128712568,
      0.09065837734823803,
      0.0025825905357990155,
      0.0009518890630328216,
      0.0035869655788674073,
      -0.004192393296223115,
      0.0077185494419838895,
      -0.009975748935778902,
      -0.007736039113613708,
      -0.004430074404890923,
      0.0011766312494799257,
      -0.1056422512115742,
      0.017794107291444334,
      -0.11471849403262215,
      0.04503388696689792,
      -0.06270375519031347,
      0.08131264401586977,
      -0.039766138538729935,
      0.012699727388642177,
      0.0782825294512242,
      -0.09016829826767479,
      0.001327309148683631,
      0.03193447736492088,
      -0.008978475675301377,
      0.008967105947397679,
      0.04311878153052301,
      0.14139633065058171,
      -0.041456862543685184,
      -0.013804527950179508,
      0.0015439151937878563,
      0.00040696506961915963,
      0.13402275050182438,
      0.003211161144032839,
      0.0038870267449395528,
      0.027519464618142808,
      0.07895670464975792,
      -0.003199398717816299,
      -0.006400121399365445,
      0.008790583176801564,
      -0.012460108006849959,
      -0.003541824569244649,
      -0.012143422885414125,
      0.010969783172839153,
      0.002688398221828348,
      0.005748689881527254,
      0.0005001589233033523,
      0.010254789089203888,
      0.0015581035843245823,
      -0.0030803921680730537,
      -0.0038221312318384546,
      -0.03926000715093678,
      0.0004047287223798685,
      0.002227211131600429,
      -0.013305077540203571,
      -0.01596957565364519,
      -0.11264812302995247,
      -0.01697885983781188,
      -0.0027205479396926044,
      0.26425137251548414,
      -0.15979279390088189,
      -0.021859461121513594,
      -0.0009696328645145767,
      -0.003613305869340217,
      -0.0029668903350917905,
      0.03339529916574297,
      0.016328044971780344,
      0.18213365243433932,
      -0.01692886066402482,
      -0.01522870130844498,
      0.021056579443073136,
      0.004383271378946588,
      0.005960736342615347,
      -0.01569167465686353,
      0.003811738164304448,
      0.0372316562860877,
      0.0007843098393083637,
      0.005797378477909985,
      -0.018888643328135658,
      0.04158844759815813
    ],
    [
      -0.0030096650974201894,
      -0.006571634754021737,
      0.010916678525178764,
      0.015169659540925359,
      -0.004932801753689024,
      -0.025368232993734842,
      0.018434178762272758,
      -0.0030917550157190236,
      -0.00651557057046313,
      0.13346212029470833,
      0.0001340351957722424,
      0.00017171370545122455,
      0.016050639702186904,
      0.020599386028245296,
      -0.00725467627597049,
      -0.042438466439066375,
      -0.02599212674773778,
      3.405822475888286e-05,
      0.029680787062709914,
      0.015250173205181931,
      0.05175375764462087,
      0.002293671447126425,
      0.0005462245740015471,
      0.0005242506047551075,
      -0.007795311083948171,
      -0.0005140859044787835,
      0.0026334253862613857,
      0.0006939000567919073,
      -0.004561071303990717,
      0.0015221243211010792,
      -0.08206589940391891,
      -0.002845298555483311,
      -0.11803606116725274,
      0.060544770164910756,
      -0.04976034494456595,
      0.08114413492619489,
      -0.02996602260263593,
      0.011093093284966835,
      0.1313026351749156,
      -0.12514295423070768,
      -0.0014215195364838799,
      0.02078112747275962,
      0.0018257316695839349,
      -0.001837159263419362,
      0.033019389518897595,
      0.12736262992205363,
      -0.0570835762473759,
      -0.017483764518388952,
      -0.0017599246250748,
      -0.0010540953086152177,
      0.09806090796429176,
      -0.004238211228954296,
      -0.006099747135996988,
      0.029847256290825862,
      0.07926241571551366,
      0.009396882097061042,
      -0.004199801964155266,
      0.016790163825814323,
      -0.001617710915499888,
      -0.005869110151501484,
      -0.0059979024697436436,
      0.002983013134877704,
      -0.009457537060425297,
      -0.005432057102341885,
      0.008197339960546536,
      0.0034930534416480214,
      0.0035169707467908613,
      -0.0037438909927378647,
      -0.0035078880248369916,
      -0.008328427772479186,
      0.00683398634324227,
      -0.008929389181421873,
      -0.0006657230367779212,
      -0.012076447997657702,
      -0.061598368785842385,
      0.008047933975483085,
      0.018368334355449614,
      0.25930197753700435,
      -0.18373610626519865,
      -0.02072877217138892,
      -0.0046976464384440135,
      -0.0006097823072583853,
      -0.013019309105226315,
      0.0240958638293377,
      0.004794757913623319,
      0.17256181165471282,
      -0.024208447630850508,
      -0.009280709729359876,
      0.030421651699864688,
      0.02010408804999242,
      0.014595079309403182,
      -0.022102994695045213,
      -0.022348969059320066,
      0.02886369262965775,
      -0.010230106457386262,
      -0.007471077468814915,
      -0.021863914249499412,
      0.038570990034439256
    ],
    [
      0.0033844531212254437,
      -0.001599441942095437,
      0.003909844148509889,
      0.00769906195494391,
      -0.019882690139203928,
      -0.021443938699345924,
      0.01351365672178416,
      -0.002833105492799552,
      -0.010693315801492093,
      0.11046310363117955,
      -0.0001956306088829085,
      0.0031518502933088914,
      0.023388378462269398,
      0.019366057874919844,
      0.00030854647835353195,
      -0.0037599681728667884,
      -0.00827953351333498,
      9.13940034154779e-05,
      0.004439555581882995,
      0.033772560456751984,
      0.016746660646072234,
      0.002485826167678895,
      0.0006358362795985019,
      -0.0034993212328905464,
      -0.01087042922305991,
      -0.0012431522948085903,
      0.0006538568431885614,
      -0.0035895382186250198,
      0.004266775413524812,
      -0.0015958100661346666,
      -0.08270397234429151,
      -0.014400087933369379,
      -0.10358904377344862,
      0.0660761410599919,
      -0.053767128327509066,
      0.07458967290243546,
      -0.04566887728445494,
      0.01129060317784383,
      0.16897521769438387,
      -0.15422753352103838,
      0.0038816129769794028,
      0.011238444402077014,
      0.0003405488873361749,
      -0.0003516977519169607,
      0.037300283520700854,
      0.12793000095844317,
      -0.05714601366472399,
      -0.035846749683627645,
      -0.02008986812553573,
      0.0044790232288488075,
      0.07812199912736838,
      -0.0007636398404805266,
      -0.0028717861576369632,
      0.03501714719267811,
      0.08247476263959985,
      0.013611397087338448,
      -0.00565483848255491,
      0.020490191632718664,
      -0.0007688415423906848,
      0.002395135172334636,
      -0.014139436849315788,
      0.005680073543085875,
      -0.022769564175894444,
      0.005433903851771078,
      -0.009801866861277564,
      -0.0008503290064554494,
      0.0038503478702432373,
      -0.0023787743029716106,
      -0.0016103961938255173,
      -0.006044850550234424,
      0.007436148366568221,
      -0.006192801842775277,
      -0.008596185961036366,
      -0.01865848810338308,
      -0.002562692843081062,
      0.002096994245880583,
      0.018915812447374624,
      0.2656609810041713,
      -0.18865601518712805,
      -0.02522670427604561,
      0.002060682520951345,
      0.005117343230329441,
      -0.017723764969918683,
      0.022716560610149567,
      0.0003498801189934541,
      0.17206305007679992,
      -0.030642944116548828,
      0.002586171952218779,
      0.0412518453638884,
      0.0023587048187899873,
      0.015260867778541548,
      -0.002778616860485364,
      -0.01712881991877697,
      0.02930824716214723,
      -0.012120714986223942,
      0.007946866996389603,
      -0.006237201529723496,
      0.032508195294401424
    ],
    [
      -0.003281439315479282,
      -0.0011979081760911234,
      0.00469664914813118,
      0.006929015293299473,
      -0.012002300400349756,
      -0.01636096228404361,
      0.013816049177795973,
      0.001964780342322754,
      -0.001661166672362211,
      0.1018162300451585,
      0.00010106367487306878,
      -0.004947416374726769,
      0.013218176617698236,
      -0.007795570265568214,
      -0.0024089469020503714,
      -0.003110051173440305,
      0.013268269749179825,
      -0.00017114210976534346,
      0.03416466414756803,
      0.01475412227186248,
      0.008471452176304137,
      0.0078035089192333715,
      0.0042742663392618925,
      0.004840146246150961,
      -0.0018521894141092447,
      0.0025940044647215837,
      0.0014467554338374212,
      0.006598004130610142,
      -0.007084025669416396,
      -0.0007038089813497716,
      -0.06474268453361312,
      -0.0016155269193798144,
      -0.09808998175879137,
      0.08071114908883757,
      -0.06146296335450226,
      0.08515378597676009,
      -0.038510020519621,
      0.007926901351012833,
      0.19118516498697363,
      -0.18326531311648195,
      -0.005155480164838179,
      0.004087395184553257,
      -0.0015903532520532121,
      0.0015995597742592036,
      0.03830024802080744,
      0.12535863333620983,
      -0.05567405065676047,
      -0.01580428626320468,
      -0.0062430833003492775,
      0.005189788618727359,
      0.06799108564262771,
      0.00016070604483321073,
      -0.013511787720228853,
      0.02866999312000323,
      0.07424238794163292,
      0.00944312896643135,
      -0.005344390480498281,
      0.016970647843564255,
      -0.008861897064306087,
      0.006725729215689702,
      -0.007172508442965598,
      -0.005276976107028259,
      0.0014654762983873683,
      0.00937160286716134,
      -0.006844849302921519,
      0.002055644756029717,
      0.012537214464769944,
      0.0027781017701905193,
      0.0025370274178029787,
      0.004202279898663821,
      0.005308877017496165,
      -0.008984186833106578,
      -0.007960525472047043,
      -0.022351778754441172,
      0.00451844111475135,
      -0.005829045683948455,
      0.014346905751288924,
      0.26600943369296115,
      -0.19159992739033985,
      -0.02809075890920031,
      0.0018401746740645064,
      0.004247289462273747,
      -0.015597196195070597,
      0.02153045399292714,
      -0.008332077421823535,
      0.17531957363940143,
      -0.02377410521662957,
      -0.015595405627285867,
      0.02248249514659613,
      0.0026304611059412507,
      0.010469931151884068,
      -0.015931891640590005,
      -0.005823065359577892,
      0.04239054385050035,
      0.004892373695424252,
      0.011066017847990103,
      -0.012871928937471256,
      0.027914813528026834
    ],
    [
      0.0036260860482512113,
      0.0014232837739468907,
      0.013352036256803361,
      0.017528152732946136,
      -0.0045037752992164734,
      -0.010060154609732514,
      0.015359994318419992,
      0.007524841584230857,
      0.0032287840772007178,
      0.09630580864150266,
      0.00013403519601275988,
      0.003306947649502405,
      0.03199749393927408,
      0.001485556988779142,
      -0.012340516710292595,
      0.0014415381339409011,
      -0.0020196433784908847,
      -0.000161883623982655,
      0.027158871930286828,
      0.014085876527432787,
      0.0008216323723703542,
      0.0008205856145320873,
      0.0010918926804559742,
      -0.004968067123539284,
      -0.010668930304905655,
      -0.0039839405371924685,
      0.006881185215728599,
      0.006527581131096956,
      0.010420994444641165,
      -0.01131676396340413,
      -0.06926231877335765,
      -0.01117757556168663,
      -0.08436194286198172,
      0.07504279836809606,
      -0.04175410723687676,
      0.0850291715936823,
      -0.035996616453829025,
      0.018336256929571335,
      0.2217900346671204,
      -0.19243393368794742,
      0.005964363086301589,
      0.011663205184635875,
      0.0017879915759797889,
      -0.0017778277271042948,
      0.04330568943413103,
      0.12684110210640975,
      -0.05055316808163314,
      0.00281394390853846,
      0.00884093289750054,
      0.007106323671280457,
      0.06679343959848269,
      -0.0015232962773650653,
      -0.010464618544333667,
      0.03364850455557934,
      0.07745950183565666,
      0.011317884058172648,
      -0.00907016949351884,
      0.011212622388366037,
      0.0025252832496701913,
      -0.0019448301901898244,
      0.004639174309874285,
      -0.01008527510870819,
      -0.001350698271631471,
      -0.00484550211068674,
      -0.0029617698296546566,
      0.0029069813618769246,
      0.005515968676821981,
      0.0012294367156073448,
      0.0013232122491484742,
      0.001088459591907719,
      0.0020063124422175847,
      -0.0007652330581470053,
      0.001939275058856675,
      -0.011440886980621845,
      0.006377682707331521,
      0.013941875371486216,
      0.028815478765305904,
      0.2802269885120038,
      -0.178356903164525,
      -0.012631210242483848,
      -0.010510238500516291,
      -0.009104742191208649,
      -0.018444276198725885,
      0.018047714337949265,
      0.014440465534887939,
      0.17702182413798137,
      -0.027769875843197032,
      0.0018768599440406512,
      0.03844875944044972,
      0.028297135916405303,
      0.0014513039708640653,
      -0.005703380640010765,
      -0.037682871834120564,
      0.04301557213052942,
      0.009739620932878477,
      -0.0009644406629419407,
      -0.020829734375805462,
      0.03603720870413109
    ],
    [
      -0.0014681441467302978,
      -0.00564641473087909,
      0.0027293196239010623,
      0.009031392669792132,
      -0.0071896624826090815,
      -0.0159797486789475,
      0.010692315342165668,
      0.002187985632507875,
      0.012714463567355356,
      0.10103348088066978,
      -0.0001956306089192003,
      0.009461283342826393,
      0.019194126058611188,
      0.0025175023546515807,
      -0.007891854531250882,
      0.003709937376715658,
      0.00412520949577732,
      0.00021994890489819053,
      0.021331250481228484,
      0.016837301671087098,
      0.011218580041711166,
      0.011294599923361699,
      0.009794802291201646,
      -0.0029687584592001013,
      -0.005978656396299528,
      0.0014039368521307303,
      -0.003470283309259663,
      0.0016852585995892314,
      0.003980935421847635,
      -0.0040596782087879086,
      -0.06598867929974636,
      -0.01071982311248291,
      -0.07028666056009854,
      0.07230467319638374,
      -0.029728005580245066,
      0.08653452664185655,
      -0.030154887712553875,
      0.0072396218771455315,
      0.22843836588173239,
      -0.21231515472263998,
      0.00012317148773077508,
      0.005408691545020722,
      0.002665396137300487,
      -0.0026556130470379545,
      0.05295629765181446,
      0.13318136124404817,
      -0.0566517397550531,
      -0.01881120963506431,
      0.0025031228639295013,
      0.013536328447971648,
      0.07361528437399688,
      0.004446208757218366,
      0.0019462815930375997,
      0.024046703243892468,
      0.06616767643496979,
      0.0021766308937518864,
      -0.014947023008244461,
      0.007518346689223861,
      -0.005754396011525943,
      0.011001378301777219,
      -0.004649649738311419,
      0.004261570629303315,
      -0.005795809022747951,
      0.0036977648819246024,
      -0.0014862155002831447,
      -0.0030209717126643077,
      0.010465678845494698,
      -0.0016036426416284311,
      -0.0019940269280549735,
      0.00022912602896074793,
      -0.0006568276356855372,
      -0.0031976496516801546,
      -0.00032346831629297764,
      -0.01291714040526855,
      0.012769977956759247,
      -0.006805736605675915,
      0.010114137142881275,
      0.2766991569571191,
      -0.1783598980172257,
      -0.028066254059981168,
      -6.147455907044201e-05,
      0.001478376586488975,
      -0.014047674618835423,
      0.022618453138939006,
      -0.000602519510807775,
      0.17347699684841847,
      -0.01989438681568005,
      0.003173794724928293,
      0.038699392394789325,
      0.01350197838997778,
      0.00345782384242887,
      0.0027877545884034192,
      -0.03004050501172046,
      0.022657927810821276,
      -0.015188193173248647,
      -0.007714144739378627,
      -0.022936639188947297,
      0.03588404513979913
    ],
    [
      5.7620725802641764e-05,
      -0.002699872403634977,
      -0.0007595601933336331,
      0.005239626265552292,
      0.0023390698371509506,
      -0.009104550556771515,
      0.019552251656610054,
      -0.004332310639899399,
      0.0009912663367093685,
      0.0991586209939273,
      0.00010106367487343631,
      0.021818835393448376,
      0.009102721979785164,
      0.00467309491045793,
      0.006732334446679175,
      -0.013324652269475028,
      0.0072151727628409585,
      -1.2380679017939152e-05,
      0.03718261894714372,
      0.009959966739394489,
      0.007447593495650535,
      0.00752566743819149,
      0.005930382969277771,
      0.0011100524712769387,
      -0.006257842733948527,
      -0.0015163886616153146,
      -0.00017382617982666476,
      0.005213860722981274,
      0.00859169033780386,
      -0.005890402361534749,
      -0.07891924910079133,
      -0.0252274031870704,
      -0.06927906800009113,
      0.09119362138944472,
      -0.04121552471707715,
      0.0772790602694735,
      -0.04574032638281409,
      0.01104100515755704,
      0.23874632588395733,
      -0.2226771299783432,
      -0.0024686160762496514,
      0.0019322587401704155,
      0.0028729856245339348,
      -0.002863924516877533,
      0.05166290252386979,
      0.12874243085332437,
      -0.04588912480758053,
      -0.01620721809519008,
      0.00043456964178117475,
      0.009343647332496438,
      0.07178726227379367,
      0.0016981690619719166,
      -0.002085018201455124,
      0.030117452082906872,
      0.07057430463687536,
      0.010992648587644493,
      -0.005609153157608987,
      0.004020330894767962,
      -0.0017241033327704957,
      0.0009625705733384129,
      -0.010665159299833788,
      -0.0019950263698765196,
      0.002956598279644238,
      0.0008581321925574456,
      0.001671085039149236,
      0.0017050737665469623,
      0.014134674023815876,
      0.005680725319081649,
      0.005271575148962405,
      0.005465584455811261,
      0.006939827310665069,
      -0.0014644782127131578,
      0.010133535519827298,
      -0.003507414358570294,
      0.008108772041582403,
      -0.005679292553143774,
      0.012649941836950685,
      0.283151319722807,
      -0.17595354673750827,
      -0.018839190635295294,
      -0.008974134611319077,
      -0.0031160814838381403,
      -0.017516056212027207,
      0.021537693066963674,
      0.005504183157978144,
      0.18293099171039817,
      -0.017983347394869613,
      -0.010496740756511531,
      0.02978764252017996,
      0.009011038556686144,
      0.00346102284953335,
      -0.016199830188855565,
      -0.011752421393339122,
      0.039031414934778984,
      0.0009283785108314157,
      0.004000360133283548,
      -0.022040430183519758,
      0.031718671013298956
    ],
    [
      -0.0033456134613417906,
      -0.0034946342355456515,
      -0.007046595207084907,
      -0.0033990348594216116,
      -0.0019042434431703256,
      -0.010494155616325001,
      0.018676501722367938,
      -0.0030831142411691125,
      0.002621107182632396,
      0.08624261934802806,
      0.00013403519601279916,
      -0.006047787139378645,
      0.00880189106848273,
      0.019847650262997365,
      -0.000984705612715201,
      -0.0007028115314178055,
      0.0005725422265830338,
      3.4058226264273016e-05,
      0.024535693724275227,
      0.027014456053947224,
      -0.00032908337300886114,
      -9.942276466827386e-05,
      -0.0033135185559152614,
      0.005987086218385708,
      -0.0009277406812451879,
      -0.014445050320726384,
      -0.0029875270007995967,
      0.00564954586805296,
      0.015898824138633576,
      0.0030728957825513037,
      -0.08598884423125762,
      -0.03277756274959869,
      -0.057328742185592335,
      0.0907244056872439,
      -0.03177861122824577,
      0.07844820552817425,
      -0.033529606205156944,
      0.02055807899694913,
      0.24325809538830265,
      -0.23425284148114794,
      -0.010072432924882782,
      -0.0012512660627776162,
      -0.002939705389813887,
      0.002928471023289747,
      0.053478204264600475,
      0.1275397474564016,
      -0.0509470243364383,
      -0.020264054920770297,
      -0.0041541358406722365,
      -0.002237449550651577,
      0.059709021612820545,
      -0.011302049960848512,
      -0.007366971323842557,
      0.028306947282091825,
      0.06715762741865992,
      0.008405410845503933,
      -0.0034780015713846606,
      0.01885733059366173,
      -0.0022079643557079533,
      -0.0024484949168425995,
      -0.0151387018597053,
      -0.004180517962251881,
      0.005573163053965029,
      0.005235949043002614,
      -0.0017409143476706805,
      0.0017409747692568476,
      0.007942301119053998,
      0.003037097119136776,
      0.0030247225973624543,
      0.003109190406449638,
      0.0016828598124189803,
      -0.0029505215234395233,
      -0.01096092260335096,
      -0.02332362335128552,
      -0.003322603754472947,
      0.004723704304981402,
      0.021255275873129514,
      0.27559515036594556,
      -0.1814094982461802,
      -0.016580480833518513,
      0.0003328172974891232,
      0.002365386411197181,
      -0.02571325714537745,
      0.014272124427165304,
      0.005711287642910487,
      0.18203790373207757,
      -0.012668842118400189,
      -0.004714841147922535,
      0.03323369420268032,
      0.016318276702414664,
      0.00659326282123323,
      -0.019084714935042265,
      -0.017947846885503112,
      0.030025138973767334,
      -0.0066014429465052985,
      0.0012039087924740404,
      -0.011792499422340263,
      0.025257807487597917
    ],
    [
      -0.003798819100128844,
      -0.0003752727071529675,
      0.007561088338931342,
      0.012575804322848818,
      -0.01060850991427123,
      -0.013387591933885203,
      0.014312995538501351,
      0.01112455585350946,
      0.002182277669888695,
      0.10185845206342184,
      -0.00019563060891918016,
      0.006584490783372687,
      0.02059875042326391,
      -0.006427001364698552,
      0.00018973214288933238,
      -0.012589068572270897,
      0.007427579487918761,
      9.139400342727654e-05,
      0.01812012730617976,
      0.025527327388142177,
      2.6711936180460528e-05,
      0.000260175729687703,
      -0.0029895712886243305,
      0.003660912777903231,
      -0.002987770889772325,
      -0.011272348222057691,
      -0.005652767306301113,
      0.006944110335814444,
      -0.005536470608290127,
      0.022215419963973398,
      -0.07927350397172744,
      -0.02825076125339554,
      -0.048291981021708605,
      0.0977795385845135,
      -0.036579857282602796,
      0.07376498189348438,
      -0.046401346657454996,
      0.01273043789737655,
      0.2521879407415183,
      -0.23535033941115768,
      0.0012275496208752645,
      0.004025531082211226,
      -0.010410666040233853,
      0.010419614457151862,
      0.04413384172330844,
      0.11524102403428423,
      -0.04906627651373847,
      -0.008357874233821849,
      0.008071959518546772,
      0.01805321702077422,
      0.08171693930500146,
      0.007266318402026694,
      -0.005303867682076331,
      0.037782734139202516,
      0.0750899685520613,
      0.004469345630660409,
      -0.00500994789019447,
      0.010458986239955044,
      -0.0025325914091938783,
      1.9770574241894116e-06,
      -0.002837677694469621,
      0.0068857764761894175,
      0.002801643593302436,
      -0.006761755742817521,
      0.013367269756365374,
      -0.003154709630169728,
      0.0028404410892155867,
      -0.0033500914905290145,
      -0.003622937126162129,
      -0.0008898557144438568,
      0.0064201155758337415,
      0.002862857460153383,
      0.0013095262535859778,
      -0.01319535174209299,
      0.017278809067486172,
      -0.0053702650096072386,
      0.015495206132047508,
      0.2763737745098236,
      -0.1799611101325969,
      -0.026073406101730846,
      -0.006825307369004924,
      -0.0018813732351028105,
      -0.014490015199999696,
      0.0233895225042513,
      -0.00022744349374544527,
      0.17557291740048067,
      -0.02304710041333417,
      0.001264892763561269,
      0.03861696653329917,
      0.0038060818875025573,
      0.00824768399435422,
      -0.005355324132432738,
      -0.015298239669144151,
      0.03202075357506765,
      -0.0015399157782657732,
      0.004658179381514791,
      -0.010061905224530836,
      0.025741168179871834
    ],
    [
      -0.004024368702901916,
      -0.005354912284943378,
      -0.008536476192553403,
      -0.0030655791004527847,
      -0.005764596664116383,
      -0.008912414119491426,
      0.023081030885826748,
      0.004082921503230687,
      0.00937079180058248,
      0.09458493001179118,
      0.00010106367487345193,
      0.00898736708022971,
      0.017296699517686587,
      -0.007647191541889997,
      -0.0061518169031779335,
      -0.0026179932175046244,
      -0.004680176054732933,
      -0.00017114210976561166,
      0.025858033029303704,
      0.029846692851635017,
      0.0018158408870656505,
      0.002005564293900285,
      -6.030143907969763e-05,
      -0.004860187739660641,
      -0.011140553605889168,
      0.006001641109526736,
      0.00608322364067838,
      0.001423090889786305,
      -0.0037845679797292833,
      -0.008365507636761532,
      -0.07213938868255935,
      -0.023086921345748242,
      -0.04823172262981474,
      0.1086436635555651,
      -0.03145243106154817,
      0.08481288154121151,
      -0.032162053291747365,
      0.010481977701471972,
      0.2581325151252301,
      -0.23865805175406846,
      -0.0011144195729758382,
      0.006108719128418887,
      -0.015628748274084826,
      0.01563734263767426,
      0.05155438252509588,
      0.1198169589273044,
      -0.04281349885993543,
      -0.011424868326749734,
      0.010547110270885169,
      0.01055566398323592,
      0.07410835623038638,
      0.0012549650387944423,
      -0.017190083663282344,
      0.0288792003613652,
      0.06471777043415265,
      0.008160779901209036,
      -0.004676664511980687,
      0.006593857135920012,
      0.001269121296656156,
      -0.0026831049244176153,
      -0.012632265418829784,
      -0.0008234013317448264,
      -0.01881189677725679,
      0.0035914631010236574,
      -0.0013224783901777985,
      0.012550658662904175,
      0.007928739930007676,
      0.0015944316527196157,
      0.0022304765352405003,
      -0.003002124638618756,
      0.0010488368783746359,
      -0.0002767598022638253,
      0.004598356798916169,
      -0.010364005601541163,
      0.009375005052532,
      0.007524026313349573,
      0.027160715750121515,
      0.2907869568157276,
      -0.169646477503368,
      -0.0005462813846806406,
      0.009698231336101133,
      0.012950344669857691,
      -0.015404835790873062,
      0.02102138946642364,
      0.017553777911335337,
      0.18639045891353323,
      -0.009013236440997696,
      -0.0018251915468674863,
      0.032260328196600664,
      0.019434420712573588,
      0.00907012977597126,
      -0.014024637145558103,
      -0.02305386414178844,
      0.031509717684157106,
      -0.006102944432296323,
      -0.005512163473048648,
      -0.02563314603978163,
      0.03472431386780779
    ],
    [
      -0.01478074323692051,
      -0.01481985650308255,
      -0.0039487363045350625,
      -0.0001062090552241744,
      -0.004421308819431091,
      -0.013276243026161356,
      0.012840061600605381,
      0.003693147812071181,
      -0.007268220940580257,
      0.0930904385335516,
      0.0001340351960128082,
      0.008390679297620718,
      0.022048440272209018,
      0.007966751132471906,
      -0.0033403106522829876,
      -0.012960428006406437,
      0.0021750733951315412,
      -0.00016188362398265443,
      0.04164433180874039,
      0.008058411811007577,
      -0.0039049775260564697,
      -0.003826146310289334,
      -0.004534092942293039,
      -0.00359882378127334,
      -0.0076331082890728884,
      0.0029552209438421387,
      0.0005528025406891507,
      0.001711824082241062,
      -0.005029600811791319,
      0.0020125337098168003,
      -0.0664587782126031,
      -0.0181123065626223,
      -0.04812688387482438,
      0.11727850897695112,
      -0.022497498739045274,
      0.07411774374150493,
      -0.04388698862295434,
      0.007974042589116553,
      0.2576095214652049,
      -0.2447670010698153,
      -0.0008950954309912974,
      0.0002752751089604706,
      -0.002929077533594512,
      0.00291772961701666,
      0.04383710580525592,
      0.10942094905934596,
      -0.05211676202866938,
      -0.004590586956568791,
      0.01811027970899401,
      0.014687474943621256,
      0.0780220390842882,
      0.007577578826266919,
      -0.02293322316337377,
      0.029922476216613716,
      0.0643832240067547,
      0.006739871447228354,
      -0.01674102200309838,
      0.017747514667428754,
      0.004403859840566385,
      -0.006987428931675107,
      -0.006846106434452275,
      0.008248211010704087,
      0.0011294657580556392,
      0.013884788895613372,
      -0.01943348428862851,
      -0.017145352860135583,
      0.001970380628707816,
      -0.009516249126235464,
      -0.009194309006417808,
      -0.009816798141929173,
      0.007048681111036579,
      -0.012244278555063534,
      -0.01483989915428516,
      -0.02718340823010124,
      0.012924390078863209,
      0.010053126985016357,
      0.025317324029603107,
      0.2638132205360643,
      -0.19523060206387977,
      -0.018542941630950355,
      -0.0059682853524742705,
      -0.001839983386509881,
      -0.0058325477808364255,
      0.02985591626401234,
      -0.000732003917438622,
      0.17498953425502203,
      -0.024955346541504348,
      -0.0038357152126019525,
      0.03293376167172502,
      0.0062586477517065035,
      0.00047820178009646706,
      -0.004475867062938928,
      -0.012434586546328277,
      0.025726750977392646,
      -0.008035043902743939,
      -0.00781820123842176,
      -0.025662698543890465,
      0.040904108082135966
    ],
    [
      -0.0006620660818741845,
      0.0008136301250470781,
      0.004472676917663395,
      0.008883821740113531,
      -0.006586534569011038,
      -0.008712640925564504,
      0.024201004618571782,
      0.008287772938727872,
      -0.00044714908496782237,
      0.10014548566259655,
      -0.00019563060891917937,
      0.013137565196994768,
      0.009624354529494634,
      0.004239937688424645,
      -0.0004598576208153975,
      0.002122940429545831,
      -0.002434651239407319,
      0.00021994890489818988,
      0.021183656727363675,
      0.028516303674608945,
      0.007983326164034,
      0.008139932076672867,
      0.006396243240134453,
      -0.005352038418782202,
      -0.010630087691002241,
      -3.5431520527903e-05,
      0.009445263382539705,
      -0.008303184624547034,
      0.0002562007057427133,
      -0.004922185235259679,
      -0.08215288051431227,
      -0.036425713320028634,
      -0.037945241675447,
      0.11976664541367286,
      -0.022288177818645963,
      0.07498787468481737,
      -0.04145787083788677,
      0.021326831423678853,
      0.2575677336384865,
      -0.2510482666491121,
      -0.005045841679277222,
      -0.0032008320513260014,
      -0.013359659571227816,
      0.013368731800442702,
      0.050644521669259084,
      0.11365220371457734,
      -0.04308267022941688,
      -0.020460117476321604,
      -0.003302053850714699,
      0.016743510893910962,
      0.08103514142946366,
      0.009399867002137303,
      -0.004929700565776522,
      0.030061375796293054,
      0.06316829089558998,
      -0.005776485683228958,
      -0.01764101439701612,
      0.02345267361160889,
      -0.003919336322183063,
      -0.0027814409470309476,
      -0.0020043914150217872,
      -0.008453326618658328,
      0.004959432150961795,
      0.005332208490107689,
      -0.017326111103135713,
      0.003991873554814161,
      0.01021006821035065,
      0.0014351965429857923,
      0.0014977961586862972,
      0.0010548242885052486,
      0.006150543636446888,
      -0.012631466173742346,
      -0.004449963082878847,
      -0.017967805470302106,
      0.015699970403433947,
      -0.014368487627821941,
      0.007857105655846254,
      0.2749258186814051,
      -0.18265916338284918,
      -0.029518223473838593,
      0.006732127329345959,
      0.011003420029505556,
      -0.007274019125979845,
      0.030460674025259555,
      -0.006869214477432966,
      0.184980205022878,
      -0.009104100786740054,
      -0.0037195722698597335,
      0.034228409257620246,
      0.022942511342247663,
      -0.004692809491935259,
      -0.019221142223849505,
      -0.016032752636296232,
      0.0342455605893125,
      -0.009004883791416752,
      0.002730250876447535,
      -0.013470361442217983,
      0.02795444160221476
    ],
    [
      0.005325775718062959,
      0.0007197639444291347,
      0.007304414640813157,
      0.010010869246399247,
      0.0021874081372558426,
      -0.008062008622033264,
      0.01738601363299026,
      0.01122316872604922,
      -0.010934227275544082,
      0.09106375309292342,
      0.0001010636748734507,
      0.006519509963966335,
      0.01601429631568345,
      0.008060726574808828,
      -0.009622950772023384,
      -0.014414688876003825,
      0.0030139101688193455,
      -1.238067901793489e-05,
      0.02305744441384305,
      0.029428270450849118,
      -0.0016144073870899022,
      -0.001294588067739388,
      -0.004024824219968217,
      0.00017496165788494363,
      -0.004528123735659742,
      -0.0013469526975093617,
      -0.0032959417633073385,
      -0.010179509463147468,
      0.0029823159359191305,
      0.003765110730305843,
      -0.08080544801009013,
      -0.03638067210859505,
      -0.03001960098777036,
      0.11779606537932913,
      -0.009793983759793984,
      0.07463974800179841,
      -0.041969123529534726,
      0.019117231238728983,
      0.2641234763653418,
      -0.24780247333675035,
      -0.006669488977983112,
      0.004536488847462065,
      0.0022375129025559294,
      -0.0022488635798168705,
      0.0420698968589225,
      0.1025876046151879,
      -0.0441665659592749,
      -0.009546600554931468,
      0.008698019590677212,
      0.005911151187966389,
      0.07262074098391323,
      -0.0025963429254636477,
      -0.014861629458054863,
      0.03449834622088353,
      0.06628354380975657,
      0.008925264714975383,
      -0.008479428617300909,
      0.005563567358787112,
      -0.013071532881739447,
      0.006665071581981981,
      -0.006325162729314575,
      0.012000057677218326,
      0.005609653271192373,
      -0.00023221026217789436,
      -0.01837256192735876,
      0.015874983390766404,
      0.009819278445619781,
      0.004792187484646036,
      0.004244595975830385,
      0.007719127852995617,
      0.006848826392574613,
      -0.0042822421428247125,
      0.0015523727681857333,
      -0.010503276162414957,
      0.005387346846266493,
      0.001901728709846844,
      0.019362818082173834,
      0.2796096828605292,
      -0.17668423377750264,
      -0.011140956132049136,
      -0.004085819002087302,
      0.001960355854091495,
      -0.004977257336537408,
      0.03207683343177423,
      0.008734839323595651,
      0.18647837748123366,
      -0.017802694446263582,
      -0.003892236871519663,
      0.03432359575898389,
      0.013903990376569085,
      -0.005591095748577725,
      -0.01849378128393659,
      -0.004657333737144104,
      0.039728219389176374,
      -0.0008026399400180653,
      0.004510526870719603,
      -0.019115919667075782,
      0.03136359118938301
    ],
    [
      0.011433341103594643,
      0.014863099064465504,
      0.005600529266842371,
      0.009756826856946137,
      -0.002578015545575223,
      -0.006592187955358546,
      0.02101243647916785,
      0.00038260511881296045,
      -0.00307085805166713,
      0.08808127815858874,
      0.00013403519601280518,
      0.014890022235385436,
      0.018714488591698688,
      0.019572791926071743,
      -0.009666197067667212,
      0.008649303462970128,
      -0.005775443607074116,
      3.4058226264273774e-05,
      0.02909066396582894,
      0.012553353927168099,
      0.006593344340574256,
      0.006531241806988093,
      0.007760171730247483,
      0.004457514235435495,
      -0.0018725744821003786,
      -0.0013469801997799706,
      -0.013820281322909142,
      -0.0035934192709298376,
      0.0029158363670725366,
      0.007610307280235977,
      -0.06766529301406868,
      -0.024122999719063485,
      -0.04361787114573701,
      0.1428446495290929,
      -0.012401860132313595,
      0.08246446337872809,
      -0.03856562503088119,
      0.012314977904252507,
      0.26427133967481986,
      -0.24963834273871638,
      -0.009132596788663658,
      -0.0007720773295216879,
      -0.005726819400871333,
      0.005735939039571714,
      0.051154524866127545,
      0.10926339419542501,
      -0.04753701800196673,
      -0.016033168492425413,
      -0.005356213561758503,
      0.005671071014081508,
      0.07223034317043492,
      -0.004719142095756784,
      -0.0063865907775157715,
      0.03472060625911461,
      0.06526234949092072,
      0.020875296070710543,
      -0.0027189775312261278,
      0.008366652291241677,
      -0.0003545633075134891,
      -0.005163690919097668,
      -0.007700082863802084,
      -0.0014327058626993367,
      -0.005242616029082525,
      0.006962728450693775,
      -0.006380159447006319,
      0.005281783405636583,
      0.00738539807787797,
      -0.0003407199700926017,
      0.0001447827034929043,
      -0.002638911026349681,
      -0.008508466111200624,
      -0.007239338419667836,
      0.004563511276265465,
      -0.00882147535995731,
      0.004552451617581425,
      -0.0009819767677346353,
      0.015485262535936635,
      0.2668647660744461,
      -0.18933639216373513,
      -0.025188016046349033,
      -0.003466162181754225,
      0.0004640191134773346,
      -0.026596837208111554,
      0.013427020239232356,
      -0.005138352048446682,
      0.1784171612459929,
      -0.03172122157660452,
      -0.0048006444176114035,
      0.03329600680344729,
      0.011299200911983135,
      0.0012724350489501319,
      -0.007360566302110021,
      -0.009328599360888343,
      0.03927877639608695,
      0.0006842593468354078,
      0.002832944263538508,
      -0.02004680127875275,
      0.018477831413433413
    ],
    [
      -0.014324918395951323,
      -0.013061970438409197,
      -0.0006862796035679753,
      0.004038695395820522,
      -0.01209043839606881,
      -0.018619299843503356,
      0.005551787609209633,
      0.006903915107626489,
      -0.0033496110599159352,
      0.09273915086552799,
      -0.0001956306089191824,
      -0.003902074963819151,
      0.009176446619441227,
      0.020955406304919832,
      -0.0011383274394713135,
      0.0014910815817616321,
      0.0036743889853173926,
      9.139400342727654e-05,
      0.030975866956064937,
      0.013137978566715787,
      0.0033588879897658483,
      0.0036371913927820887,
      0.001208740182816686,
      -0.0025515257270411337,
      -0.007109874359072972,
      -0.006657316441051892,
      -0.0010113068113890389,
      -0.010736851737788464,
      0.0001024204803309314,
      0.010731188586178886,
      -0.07092006932038744,
      -0.027766041425541853,
      -0.029045689600099598,
      0.13876613103452054,
      -0.010866214196789705,
      0.07487523982133763,
      -0.043331255822888694,
      0.01009209578117448,
      0.2695428252551118,
      -0.24683482272127738,
      3.5502114054153464e-05,
      0.0050100138404286015,
      -0.0019021549017254516,
      0.001890874997577389,
      0.05331264027329055,
      0.1090959283320588,
      -0.05367141513952469,
      -0.0044979527556156,
      0.0077984939405678355,
      0.008257439031462366,
      0.07430651386876472,
      0.0001978255912493704,
      -0.0048820538756706245,
      0.037238770150160534,
      0.06658779371247327,
      0.015442425774669047,
      -0.012126786652618312,
      0.015336195934132647,
      0.0073977320030673855,
      -0.006138513584462322,
      0.0004865951899101895,
      -0.015909178881141798,
      0.003448661265828138,
      -0.004620906258217006,
      0.003121838596803859,
      0.0067659876385434085,
      0.014902427191064964,
      0.005499084929540953,
      0.005788470179294969,
      0.00371572501867666,
      0.00038955923636603394,
      0.002950849763246279,
      0.002505047507939063,
      -0.011546663768921226,
      0.007015876009851466,
      -0.01412369011852377,
      0.005530193352596936,
      0.2739798643857271,
      -0.1842663888035141,
      -0.028000316934623806,
      -0.00529330917529824,
      -0.003917183079123275,
      -0.019403639420767352,
      0.01640676531563251,
      -0.00527849520890816,
      0.17321142381678412,
      -0.02986245630649515,
      -0.009628409350342423,
      0.0287505395981602,
      0.020993461087249716,
      0.008992443009235794,
      -0.012203565442781084,
      -0.03203600049430364,
      0.03858844027605756,
      0.0032409986956194008,
      0.005755150323103435,
      -0.009308070363205806,
      0.0413777845438903
    ],
    [
      0.0036337932345673015,
      0.0039014273743979964,
      0.007056845983115827,
      0.010752573897514052,
      0.005039823276195181,
      -0.016879379723561513,
      0.012890246288863256,
      -0.00593000533698371,
      -0.0010257282626550642,
      0.09253801402788192,
      0.00010106367487344766,
      0.011051236468477752,
      0.006984473854011296,
      0.004891055711480139,
      0.004373620169629635,
      -0.000876673526474726,
      0.00231403505578277,
      -0.00017114210976561166,
      0.029152906237478324,
      0.01856207507231254,
      0.009754239066081078,
      0.009974845199565707,
      0.007462096658980178,
      0.00405180202161871,
      -0.0012975558842566494,
      -0.0039581848835532505,
      0.0023048082086353236,
      0.013001338727869214,
      -0.0015156621683401236,
      -0.00011561880964151172,
      -0.06981447005155404,
      -0.02639348114401933,
      -0.02577924294034378,
      0.14190760997118496,
      -0.0038077755253056868,
      0.07855835516636776,
      -0.04314188499655213,
      0.005863220559569765,
      0.2666301159835011,
      -0.25326989329887456,
      -0.007220959879668634,
      0.0008045503700586623,
      -0.0016372396694602626,
      0.0016263846762825105,
      0.055029361170853094,
      0.10860518856565188,
      -0.04839091075041162,
      -0.010286407500340539,
      0.006488453518636488,
      0.006804561163913899,
      0.07201410677399883,
      0.0004679106116861952,
      -0.0037997581414609166,
      0.0354000612430295,
      0.06360802203631853,
      0.0077192539031664415,
      -0.00475925834131722,
      0.015173205525968375,
      0.0015385578198526951,
      -0.0008711049738792092,
      -0.013036809929179395,
      -0.003931257769031208,
      -0.012490579248166026,
      0.0012140505730916715,
      -0.0060311129591590976,
      0.015534304762488621,
      0.012952644690275137,
      0.005589731477539022,
      0.00625739697370802,
      0.001871895228701443,
      -0.0029788077463297267,
      -0.002300289727039465,
      0.008266867887330989,
      -0.003981949911559517,
      0.005895199902852632,
      4.055761287603886e-05,
      0.016267148670703568,
      0.28043156953526743,
      -0.17686354307101843,
      -0.014879147520455797,
      -0.0013518306858828419,
      0.0036225594967575947,
      -0.017880388609230885,
      0.02076204116565521,
      0.0073273347301708565,
      0.17777152652360786,
      -0.024061951275903954,
      -0.015304698372627,
      0.025611824736550385,
      0.00830874514756439,
      0.004639585161139138,
      -0.008726867491518233,
      -0.014702663076778548,
      0.030477640912461905,
      -0.00459289227668907,
      0.0004845375390881535,
      -0.012215648072890203,
      0.03007836341543315
    ],
    [
      -0.0032244450000933683,
      -0.008681397701789433,
      0.0005145216963135811,
      0.0031754807111235355,
      0.0021273377447659095,
      -0.011007644796967352,
      0.017296728725844625,
      -0.003759962917576338,
      -0.010829483410156639,
      0.0924968290930262,
      0.00013403519601280214,
      0.01571620223614808,
      0.006340233960874443,
      0.004766956882468583,
      0.0077563498046289816,
      0.0018647485547374034,
      -0.0015718339135977978,
      -0.00016188362398265443,
      0.020290858441428448,
      0.02393676378707212,
      0.011015460218358118,
      0.011195319393443943,
      0.009325763584024802,
      0.00888798085959207,
      0.0039125622081705785,
      0.008403396353357993,
      -0.007981516299944081,
      -0.0007069707557372656,
      0.0051023986936730055,
      -0.009601948141432958,
      -0.060074120489461945,
      -0.015908359999582407,
      -0.007604232110754088,
      0.13933716592266146,
      -0.02090071960746291,
      0.08491731382625495,
      -0.033346904503580424,
      0.018935852737305792,
      0.2732647670570054,
      -0.24747291132221597,
      0.0021650834072303145,
      0.007869992507921784,
      0.007242010143066847,
      -0.007252598058871656,
      0.06206182013532351,
      0.11351590227498479,
      -0.04444764018070295,
      -0.013630296352055376,
      0.0009961758298490534,
      0.008236032088412656,
      0.07302231861432572,
      -9.040542903560636e-05,
      0.0034986536272549546,
      0.03223816360853149,
      0.05934486812336845,
      0.008760212678268344,
      -0.0005474740334512528,
      0.017604100924073874,
      -0.006744664663022379,
      0.0021744153462760854,
      -0.005638485046882463,
      -0.013591534945713041,
      -0.004233682590551884,
      0.000302404281045886,
      -0.002099721203286632,
      0.011749773229257885,
      0.013071368378046764,
      0.003354348660017584,
      0.003358292282562374,
      0.003297774103429513,
      -2.801690378589894e-05,
      -0.016364671521478278,
      -0.012233797874156896,
      -0.02486494669666803,
      0.007333599568030829,
      -0.002461640731951628,
      0.014097609702324779,
      0.28441303507513316,
      -0.17584673129224346,
      -0.01809859071973008,
      -0.005451747972439813,
      -0.0008507379048196258,
      -0.014787138161249772,
      0.023455502322608603,
      0.00779650351098849,
      0.17993993669905,
      -0.029068924486671817,
      -0.004114448404284031,
      0.0340088321733074,
      0.00964582214844781,
      -0.0005611717613363113,
      -0.009120667129868818,
      -0.011741073837306873,
      0.039984561047632296,
      0.0010876415788817254,
      0.008130759743580495,
      -0.009818000176526323,
      0.042247939005268804
    ],
    [
      0.004616637679829963,
      -0.004489179812132242,
      0.0018699943338324329,
      0.006302975536392263,
      0.007078354925533233,
      -0.004565027585447751,
      0.024380789913290235,
      -0.0016496404675467372,
      -0.0011455154457829814,
      0.10013579599870151,
      -0.00019563060891918544,
      0.012154639395479725,
      0.02173428795106883,
      -0.005147554103519917,
      -0.0037651334433597807,
      -0.010368844896971468,
      0.014314368007387487,
      0.00021994890489818988,
      0.023419720545395737,
      0.013979992339215541,
      0.010445163119274686,
      0.010665868164908365,
      0.0081412312651751,
      -0.005012459946516164,
      -0.009345841817293228,
      -0.0061241827622672065,
      -0.00577984292762189,
      0.007737744026411545,
      0.0006001875993110971,
      0.006478455111456196,
      -0.06851489754007792,
      -0.025516039496485458,
      -0.017947081561499986,
      0.15376785296766055,
      -0.019035524263191553,
      0.08618722381306441,
      -0.03659233549807744,
      0.016193895671464145,
      0.2697492585234423,
      -0.25245673969579446,
      -0.00045745527550391027,
      0.0015535905701657832,
      0.0010783333033741295,
      -0.0010884427629911295,
      0.060229129152113335,
      0.10961170503782272,
      -0.036595618480614184,
      -0.03307399549560705,
      -0.011841121898753188,
      0.017821126266933607,
      0.08498824336924966,
      0.010075623281597867,
      -0.008441644121375384,
      0.03899817020406137,
      0.06504898418544228,
      0.0073636508017702025,
      -0.01794374856406226,
      0.015948134865183237,
      0.017995084486351117,
      -0.017110894277942802,
      0.003920050263092373,
      -0.007732748964141162,
      0.0008989408853654043,
      -0.010652558963558184,
      -0.004941365428588386,
      -0.0015305465284105241,
      0.01089266830058752,
      0.0004249456058214203,
      0.0009530884169007282,
      -0.003393934099296581,
      0.0009597672402880514,
      -0.006060526511124993,
      0.0014716836601230848,
      -0.011367694321164166,
      0.016492318795216968,
      0.0010227986674811436,
      0.01714860778310735,
      0.27612320931536294,
      -0.18133781885883532,
      -0.01697045331469295,
      -0.0020260400220332236,
      -0.0005752995337386772,
      -0.014072463268729535,
      0.021050982965833447,
      0.006071592455307551,
      0.187472292580724,
      -0.013011887662218948,
      0.002092439006203453,
      0.04068440777735062,
      0.01590674974505236,
      0.007694409965143562,
      -0.02484267788190134,
      -0.014593984527675609,
      0.029559186429673038,
      -0.013767798219924812,
      0.004355747989887664,
      -0.011856564991778335,
      0.04167074753046301
    ],
    [
      -0.001116835498044776,
      0.0021033200577292048,
      -0.0037772553798465537,
      0.0013113488077022865,
      -0.00751862052987365,
      -0.00956602776677254,
      0.01938370106062326,
      0.005303835521754381,
      -0.002308736831719089,
      0.08903228934325835,
      0.00010106367487344462,
      0.012284645156997117,
      0.012650013548747436,
      0.006139431170784973,
      0.0021086770811425126,
      0.001827568163340063,
      0.004002952582971627,
      -1.238067901793489e-05,
      0.018873360424046866,
      0.01859672427889501,
      0.011082611847550581,
      0.011131456169909761,
      0.01024296748828619,
      0.0014903328007101065,
      -0.0025333173385874144,
      -0.0016169390488325517,
      -0.008204491221247464,
      -0.013530032023531651,
      0.016951056470595947,
      -0.0042249830281479855,
      -0.06829035378304078,
      -0.025054423205704033,
      -0.015688850714842068,
      0.14942994314385838,
      -0.005847083308123419,
      0.07314010158450177,
      -0.04881165919330152,
      0.009099637637015134,
      0.2719229124266056,
      -0.2502448068289784,
      -0.00025438840717956554,
      0.004849206005403535,
      -0.007532726250504075,
      0.007522595972018677,
      0.0562058375641762,
      0.10364396587207153,
      -0.047458835328275426,
      -0.015760156689280966,
      -0.005177415415871668,
      0.0066848153543832755,
      0.07361169646374335,
      -0.003985757962183996,
      -0.016162185837943585,
      0.034611702300875506,
      0.059652765363895285,
      0.0017073829741623553,
      -0.009593367321364458,
      0.00929361816542826,
      -0.0025691978682017046,
      -0.010741317531276011,
      -0.008490679480477513,
      -0.008266675097105389,
      -0.0006828689191714716,
      0.009709733938781632,
      0.0002933017188500819,
      0.009123678452862327,
      0.009382533246725767,
      -0.0013906920871836826,
      -0.0007759732456279925,
      -0.003556935995519027,
      -0.0058513897950301695,
      -0.014058270167285234,
      -0.0028248849593425812,
      -0.017547708006663772,
      0.005802981264242709,
      -0.0006665610549889079,
      0.01958264577829976,
      0.27362634617666126,
      -0.1852282432112115,
      -0.020578827391868202,
      0.0028670650895998,
      0.005759376558862502,
      -0.02054798966015144,
      0.020518778938924356,
      0.000625074721544439,
      0.18176370587980584,
      -0.02360220877930455,
      -0.010194080346042604,
      0.026840983917466435,
      0.004971243008982762,
      0.009012337839049969,
      -0.015012149904402278,
      -0.007764634005891341,
      0.04075828638983195,
      0.003728384871417292,
      0.012309288667099186,
      -0.008027099722310818,
      0.02964886348937542
    ],
    [
      -0.009668691515641177,
      -0.010088350697731962,
      -0.0012446773652127552,
      0.003762314567519388,
      -0.006633575382508362,
      -0.014447553449866715,
      0.010925016327403897,
      0.01305472974639849,
      -0.0032910794987128667,
      0.08771577290355563,
      0.0001340351960127991,
      0.00647217216558051,
      0.017942224104870123,
      0.004033295270070877,
      -0.004070910145474522,
      0.004971389282644974,
      -0.007886104680335484,
      3.4058226264273774e-05,
      0.015406820442381104,
      0.030186817495537113,
      0.0043004019035404566,
      0.0043283257946231495,
      0.003169284671018908,
      0.004759027787147517,
      -0.0022895903868298535,
      -0.008495212198562188,
      -0.011463668562656851,
      -0.006507240352180908,
      0.01168357317994407,
      0.007296456252964392,
      -0.06923712152790405,
      -0.026293231848436214,
      -0.004347196623523018,
      0.1441498822865989,
      -0.010645914048875705,
      0.08609845080116185,
      -0.029306121266523683,
      0.012562469615340733,
      0.27649586433219775,
      -0.24489786581354994,
      -0.001105509942836576,
      0.010500085764698288,
      -0.013972672062736367,
      0.013983064660313476,
      0.05491439240093145,
      0.1004810038269955,
      -0.05160670803186927,
      -0.0034842116459753857,
      0.02539727014269305,
      0.00778615208123014,
      0.0743232181844418,
      -0.001247568486812647,
      -0.013783852463112598,
      0.027395024709371198,
      0.05147768693672318,
      0.006385170929569476,
      -0.004297797621542539,
      0.01158297107110151,
      -0.002264031705508172,
      0.002624449225573551,
      -0.00011718841697333005,
      0.006174051331413413,
      -0.011463253373146246,
      -0.01169571708533978,
      0.0015565176757847648,
      0.008691698124646432,
      0.004026959802551673,
      -0.0022405968224764395,
      -0.0022070935977842993,
      -0.001614457509870301,
      -0.011512455959943903,
      -0.009253190149039681,
      0.0023320516640114412,
      -0.013999083170280742,
      0.006293568587961937,
      0.009499112352449803,
      0.0283539064207518,
      0.27618178182844744,
      -0.18143251765070523,
      -0.01353410633369042,
      -0.0022469198867762223,
      -0.000808169330938578,
      -0.01663347111996349,
      0.01837831484333903,
      0.009048480632452028,
      0.17363420296463533,
      -0.022738210310272886,
      -0.01523633848476773,
      0.025674030033691897,
      0.016733048152862015,
      0.012068541832195964,
      -0.029587569492217667,
      -0.017665085947863184,
      0.028903727387686765,
      -0.007128579792981536,
      -0.00291028785612365,
      -0.018102188425685922,
      0.03941730956301871
    ],
    [
      -0.0014511010654533465,
      -0.006137681163551556,
      0.0072258004187409465,
      0.009532600248104381,
      -0.007108466328559563,
      -0.00021512505695289665,
      0.023189899594573096,
      0.0007110735564125139,
      -0.004860846766145986,
      0.09684393498953289,
      -0.00019563060891918848,
      0.017454483719039487,
      0.021751231753080566,
      0.0017086443493114015,
      -0.0013692376246295802,
      0.00275753592291907,
      0.005909335531477078,
      9.139400342727654e-05,
      0.025140107622601222,
      0.006904846608703947,
      0.012762903084096059,
      0.012693934387728227,
      0.012358071893245944,
      0.010829525712434503,
      0.0021796953686025436,
      -0.0075914119259549336,
      -0.011900449962559366,
      -0.007205813297005481,
      0.022821027579147446,
      -0.005190202320019867,
      -0.07098290310599845,
      -0.027325506411470826,
      0.0025026059424481575,
      0.14304245844871066,
      -0.015032869241118128,
      0.07586197504359865,
      -0.04727853615066401,
      0.007093581938295836,
      0.26711305859961226,
      -0.2549187929487155,
      -0.00644296764294035,
      0.0010533634462604302,
      0.0031862195198692793,
      -0.0031956770909006647,
      0.06029218400797895,
      0.10404151560700477,
      -0.05081610159535112,
      -0.006477758056485186,
      0.007122048147055051,
      0.013437868568924635,
      0.07918172880188154,
      0.005645351079795102,
      -0.0004473510181382846,
      0.03715805790944182,
      0.06030472747365791,
      0.001774030897939647,
      0.0005963070029846769,
      0.014944753730044927,
      -0.00014105934758930095,
      0.011234030664266405,
      -0.0134152017263775,
      -0.0012744874674746858,
      -0.00978289321950831,
      -0.006152177796577728,
      0.0097563078055929,
      -0.0009960602572767962,
      0.019947541011511697,
      0.004681060575007586,
      0.0046251380239173065,
      0.0060889846645161595,
      0.007242596911163378,
      -0.007478825854773359,
      0.0024869074872006236,
      -0.009795028883615763,
      0.012260637673024303,
      -0.006193882674069472,
      0.011489807925504887,
      0.28833509943552155,
      -0.17066591872387593,
      -0.01932274548005241,
      -0.017625917354244895,
      -0.014967971004648141,
      -0.014137644828356926,
      0.021633577679099045,
      0.009172412316279197,
      0.1774658820710691,
      -0.025814222520312284,
      -0.010673861154877158,
      0.0273585057889414,
      0.007578098039628226,
      0.002287768683343411,
      -0.02203791189316319,
      4.318435684131234e-05,
      0.03617333825165792,
      -0.0005531864665023634,
      0.003677403493737123,
      -0.014822106316673522,
      0.03993199878897572
    ],
    [
      -0.013199816159474846,
      -0.01147372478367837,
      0.01117105579291529,
      0.018453821443849806,
      -0.0008100321098042774,
      -0.014729563234568529,
      0.010872077220954962,
      0.008153229412183775,
      -0.0001037287844250299,
      0.08470673591637437,
      0.00010106367487344159,
      -0.001931789669113803,
      0.013321617975525704,
      0.011212038622921748,
      -0.0012181273403038657,
      -0.002981855228797901,
      -0.00027239469409798755,
      -0.00017114210976561166,
      0.03421574400925712,
      0.018563577923043383,
      -0.001921540864184766,
      -0.0017750990782625328,
      -0.0033311042405784115,
      -0.008279585120637877,
      -0.017432991288543316,
      0.007724475161006733,
      -0.00805264332197325,
      0.014421205012070308,
      -0.007966166635301464,
      -0.0003108116292024725,
      -0.07415445537448123,
      -0.029326948903264167,
      -0.023821973124165938,
      0.1646591211146539,
      -0.008513551010962172,
      0.07875087838794878,
      -0.03982211428350442,
      0.0037220525064700404,
      0.267912157322664,
      -0.2563929168142607,
      -0.002434213633904766,
      0.00030042077796057717,
      0.014063593171823645,
      -0.014072680836489023,
      0.06974438358245545,
      0.11174210510474254,
      -0.05406376489269187,
      -0.009482078321045992,
      0.004631061148239834,
      0.00142728770864748,
      0.06935645468807583,
      -0.006390535696580175,
      -0.00802599480327672,
      0.039999277380839526,
      0.06224345960074554,
      0.013291128656992437,
      -0.008152936960194649,
      0.011802328396415648,
      -0.005958706895380223,
      -0.0007194049326031913,
      -0.015898102066833977,
      -0.00013293087298880848,
      0.005776451374091744,
      0.010005664465745513,
      -0.002142882619806519,
      0.006210312688164987,
      0.009923745853096966,
      0.0017997268836659308,
      0.0018173397125821676,
      0.0015325663804975432,
      0.006629710029800084,
      -0.0058598664735798126,
      -0.0023655927670197885,
      -0.016241210467053027,
      0.0005580071718361834,
      -0.0034146742859425443,
      0.015222941876487147,
      0.26628342234364544,
      -0.19024930679822802,
      -0.024636040006498168,
      -0.014243790829566798,
      -0.008436829115318246,
      -0.022735461166152306,
      0.017945437092811052,
      -0.006249545650099962,
      0.17203508464516595,
      -0.027773698275563106,
      -0.006861737772165185,
      0.02793234549404072,
      0.013891462761048174,
      0.0043704997302979765,
      -0.014707090585538148,
      -0.013933831239751386,
      0.03984078466961492,
      0.0010753179565979407,
      0.005525310085365948,
      -0.018143932401428763,
      0.036865045393052215
    ],
    [
      0.008924635752762368,
      0.004618102842925104,
      0.018669720532385328,
      0.021821685624783448,
      -0.007919721146341074,
      -0.015324970496974956,
      0.016535946287249137,
      -0.002144558196751681,
      0.00016361023831832288,
      0.09297767414901839,
      0.00013403519601279607,
      0.0019727660888713755,
      0.01950347457863086,
      0.009945443264267396,
      -0.00014905500436006536,
      -0.009898071161989066,
      0.0030191957579055184,
      -0.00016188362398265443,
      0.027975072379230678,
      0.022599835449502028,
      -0.0027088616944442,
      -0.0024623672065168184,
      -0.00532301380668764,
      0.0020097172753886826,
      -0.0029944096245098904,
      -0.0036323479905839774,
      0.006381211820189823,
      0.0033251682658642667,
      0.011271964446681104,
      -0.01322991524462993,
      -0.06898524153350745,
      -0.025203615562511425,
      -0.020226344354692727,
      0.15902210985396018,
      -0.004002218201978085,
      0.08014170673718575,
      -0.03453479068681783,
      0.009610330237839823,
      0.2795374951629761,
      -0.24491469739251054,
      0.009628253582217828,
      0.012851507410932099,
      -0.004849016799332321,
      0.004820179313516602,
      0.06133877740829899,
      0.10163689628623099,
      -0.05409687809953367,
      -0.008288841602664496,
      0.006288197020845279,
      0.010154710199373806,
      0.0778925377636647,
      0.003690007737158639,
      -0.013983776522296779,
      0.03392771664323517,
      0.05529898000146558,
      0.0005229432421050568,
      -0.01082676762475181,
      0.02000297557431985,
      0.002777943407782623,
      0.0029781023505113247,
      -0.009658927277315103,
      0.0005156439028865164,
      -0.0036608718291403046,
      -0.0026914670085597453,
      -0.009103927652983746,
      0.005661729410899833,
      0.009444821819694348,
      0.0054510731082891214,
      0.005598841392523926,
      0.004408049057380444,
      -0.009394423341542843,
      -0.010795536814198323,
      0.001649717801965889,
      -0.007977118170626954,
      0.009585156878536675,
      0.0023093307677247003,
      0.020754423690853802,
      0.28386354784401463,
      -0.1721267336316361,
      -0.007635393423707055,
      0.0005214588766398749,
      0.006523031702644216,
      -0.012327489749141475,
      0.02739219956775812,
      0.011797249028953492,
      0.17177472534222302,
      -0.020722626984440023,
      -0.005854521605368998,
      0.03253157932702798,
      0.015537300461673268,
      0.024883891223688854,
      -0.039596712390354956,
      -0.021898183629903954,
      0.03359541065233487,
      -3.6164746989944985e-05,
      9.429181043941001e-05,
      -0.015432249986164354,
      0.03691691561384872
    ],
    [
      -0.0011392350691176464,
      -0.004444080839908344,
      0.0027871578319497306,
      0.0076272927795717985,
      -0.002462002658992178,
      -0.021554915720215742,
      0.013767655333021966,
      -0.008201879904809858,
      -0.005058511008306821,
      0.09020537095257881,
      -0.0001956306089191915,
      0.006179879601036394,
      0.022206551862516084,
      0.0035776274651516935,
      0.010552891618417598,
      -0.009761479441721552,
      0.008918541074578274,
      0.00021994890489818988,
      0.02465930787605792,
      0.012798740187444148,
      0.00337047112499896,
      0.0033982925852859775,
      0.0017164331951797028,
      0.009802013310180917,
      0.0030009583064659513,
      0.012996450521552566,
      -0.009048109501308129,
      -0.003814443620885086,
      -0.005716731722490803,
      -0.0025914589106419586,
      -0.07169570338641927,
      -0.02982905037720626,
      -0.0211059554999648,
      0.1583957059589553,
      -0.003980912853647165,
      0.0855266142743262,
      -0.035063516959285175,
      -0.002272987951308642,
      0.26768180531571023,
      -0.2585220607792108,
      -0.0019036190066643185,
      -0.003629569208637011,
      0.013240849088624653,
      -0.013227286326033157,
      0.06529839311513479,
      0.10398193153134806,
      -0.05878902571886555,
      -0.011033055300002573,
      0.008256963832258688,
      0.007730834831017618,
      0.07504516322728157,
      -0.002055318835049662,
      -0.012033188594980598,
      0.04528703875328631,
      0.06583821477040555,
      -6.132194718744446e-05,
      -0.0025641581179936678,
      0.021461312872324303,
      -0.0010167242195474832,
      -0.004389358376383066,
      -0.011892600001549283,
      -0.007041764592384808,
      0.00289833935036962,
      -5.19612898577584e-05,
      0.0005947154555696382,
      0.00837581367644999,
      0.011508026968247601,
      0.0025557124647656204,
      0.002748131330951493,
      0.0019343372457579127,
      0.008592906190990485,
      -0.0028400602305807456,
      0.00612033936467314,
      -0.00651775135616987,
      0.006919471807524881,
      -0.007995710493548048,
      0.014044956593556588,
      0.2794954403018602,
      -0.17772654138165303,
      -0.018916386152379228,
      -0.0004034701249440647,
      0.006544931452140737,
      -0.013831024889263854,
      0.027396268112709756,
      0.0007215977372152288,
      0.16760016220709784,
      -0.030412732741466112,
      -0.002655937845535413,
      0.039583549389170684,
      0.0054146530061308954,
      0.008245596034644918,
      -0.012186695875728194,
      -0.00759341001102182,
      0.03337501465652368,
      -0.0043706485040333224,
      0.0024432211384350236,
      -0.013987653040934318,
      0.03825239257432425
    ],
    [
      0.0018911875757334456,
      -0.005049507294567423,
      0.007509604150564885,
      0.01177519176750131,
      -0.001387296816469827,
      -0.006395385941354817,
      0.021889609123283495,
      0.0045074693414433745,
      -0.0028419205494884634,
      0.08996375854959933,
      0.00010106367487343855,
      -0.008264326895742453,
      0.019675772507442426,
      0.008903719821938817,
      0.006222098414246695,
      -0.016447700514607564,
      0.00688031945549971,
      -1.238067901793489e-05,
      0.028244010905786245,
      0.023083532825138323,
      -0.007921064999056445,
      -0.007713143085278099,
      -0.010885767738816464,
      0.004996616619297827,
      -0.001194548642534191,
      -0.0014752284693043084,
      -0.005434026194849457,
      -0.007067881655022897,
      -0.004737174249639396,
      0.008820736107296213,
      -0.06687178082529112,
      -0.024176331197779975,
      -0.024128073797888304,
      0.1630635863993898,
      -0.00451150454479817,
      0.08152066915101248,
      -0.04215139750345959,
      0.02073578735375737,
      0.2781352581473432,
      -0.2475525011977804,
      0.0024155938999056775,
      0.0100554283063151,
      -0.0012501367943556253,
      0.0012429833731581355,
      0.06020213071785892,
      0.09733260422547982,
      -0.0431077612379528,
      -0.0109862509094543,
      0.00857671875677194,
      0.011190386527922683,
      0.07729681979946083,
      0.0009481961541536816,
      -0.017605144158296785,
      0.037182795978112644,
      0.05692650937141008,
      0.006643843158859684,
      -0.001859378138981057,
      0.017554396760181747,
      0.0023691099465527454,
      0.002459314410819681,
      -0.00913616365802613,
      0.004033290141022091,
      -0.00707597585743589,
      -0.005901669036985633,
      0.0008925860856830143,
      0.0008216530014449225,
      0.004807793419778409,
      0.00013586860762086466,
      0.00027017376016373845,
      -0.0008546708115161739,
      0.006293432779455955,
      -0.01430994305500919,
      -0.005666450412757545,
      -0.01836591568610723,
      0.010035888440535077,
      -0.003454950079503262,
      0.017555262115839958,
      0.28519472723761496,
      -0.1705747032354968,
      -0.01360662702698948,
      -0.0006448229426599667,
      0.00015721263143932894,
      -0.009699889770318994,
      0.025603480024083115,
      0.008385462568331267,
      0.1830813904760214,
      -0.020515925813565275,
      0.002875489977709406,
      0.04003073910093142,
      0.021415925496757346,
      -0.00776008093496586,
      -0.007474856413529698,
      -0.019096938490703666,
      0.035547640762565065,
      -0.002136241399841398,
      0.01049506777021287,
      -0.00871121523861949,
      0.040372124936221276
    ],
    [
      0.004382968617842663,
      0.0030640957678580633,
      -0.001289057806575752,
      0.0025996045369757765,
      -0.0059400966466049195,
      -0.008576846049974995,
      0.019314504131685416,
      8.479644081470323e-05,
      -0.003725542324170362,
      0.08809094351424446,
      0.00013403519601279303,
      0.0049433734131763465,
      0.014360083076762179,
      0.009463197515255031,
      -0.004341589653742323,
      0.008454379529514135,
      -0.0065025142447773,
      3.4058226264273774e-05,
      0.014783878564586196,
      0.028257200292885826,
      0.008537996267745995,
      0.008682842822528443,
      0.0069993196694734415,
      -0.0007926436291430409,
      -0.005113783461933699,
      -0.003809631261304537,
      0.007895275593156299,
      -0.004726519864312026,
      -0.005441691763306748,
      0.009586324551971509,
      -0.07346006431093137,
      -0.030969369686812825,
      -0.0017938861704818974,
      0.1455382323474668,
      -0.00880552846212785,
      0.0731033375753347,
      -0.04573439859060617,
      0.010327883548933532,
      0.2685097994099679,
      -0.2565913400365764,
      -0.0014937555003412706,
      0.00021768914940087987,
      0.0015256885857540439,
      -0.0015205781402502518,
      0.06352696956368259,
      0.09920075062975554,
      -0.052376001289083665,
      -0.013174880166274433,
      -0.0001725890947034443,
      0.00878436586502771,
      0.07531293589334596,
      0.00010028895248134614,
      -0.008128042734145113,
      0.049768952071891956,
      0.0687272777350867,
      0.005230626352547578,
      -0.020305198294074258,
      0.00558005892844571,
      -0.006138193285433634,
      -0.007522475779235761,
      -0.010146824414157398,
      0.010520342861255104,
      0.011983971336055985,
      0.0031658756205861036,
      0.005609020083534738,
      0.0016065799399080428,
      0.0031753028710091577,
      -0.004355822259609735,
      -0.0047613987207475806,
      -0.002852730441274679,
      0.00826370098626055,
      0.009471283287400396,
      -0.0008827141974863848,
      -0.013279137827562367,
      0.007773763531667816,
      0.00482911748139458,
      0.02073779473431121,
      0.271415546396486,
      -0.18811134093957918,
      -0.020153646638239136,
      -0.006609240793960198,
      -0.0029690187831188423,
      -0.017622581627826435,
      0.021006067498411878,
      0.0028182722266869337,
      0.17789634003325538,
      -0.01758446706302222,
      -0.0007139524911184351,
      0.03855182709455838,
      0.02012521830864628,
      0.001769476424516517,
      -0.013937589332746591,
      -0.023331180525200005,
      0.027488108661048654,
      -0.005251856268468107,
      -0.0015156181796317926,
      -0.013392049162421638,
      0.02668924916726203
    ],
    [
      0.0021905124426334723,
      -0.001788089609596249,
      0.0005082382395753797,
      0.007781724279635614,
      -0.004421108311679356,
      -0.017119496178847976,
      0.013080891982532209,
      0.009256337518418823,
      0.005002735264594483,
      0.09136765318568456,
      -0.00019563060891919455,
      0.022628101562968895,
      0.023194581847298112,
      0.005630960071880338,
      -0.0016088990364187135,
      -0.0006210300031099495,
      0.0049736844097545965,
      9.139400342727654e-05,
      0.014847887262975507,
      0.013500228678071702,
      0.011072442003686877,
      0.011180919945833727,
      0.010732754942212224,
      -0.0051064784581529655,
      -0.00935582569463656,
      -0.0007329643439338335,
      0.0025909484990085116,
      -0.0012173523332769626,
      0.0031031224845875804,
      -0.003475391063125992,
      -0.07536844935702833,
      -0.03263224160167141,
      -0.006066968443221604,
      0.14944523886657246,
      -0.004654568209908397,
      0.08361402518954837,
      -0.03645958630111913,
      0.00013325661100731506,
      0.26554328415144796,
      -0.25790151766828534,
      -0.006079502227200402,
      -0.0016575618821439886,
      -0.001388704076095057,
      0.0013812488306710429,
      0.07848193299795483,
      0.11273125443857174,
      -0.044799641875638216,
      -0.0012152225675112292,
      0.01614439064684793,
      0.009053816658915269,
      0.07654015943295475,
      -0.00010492026513696135,
      -0.0019738466353251367,
      0.03591184781011954,
      0.05411895627886947,
      0.00877226334166377,
      -0.018435698114555903,
      0.028068228303928626,
      0.009194160895971167,
      -0.009224941416860592,
      -0.02118861735251762,
      -0.009602480278510487,
      -0.012046008104572724,
      0.008054496821713152,
      -0.0030399356516793413,
      0.0013483174591188876,
      0.013801681737748994,
      0.0013563284068262966,
      0.002587359822068185,
      -0.005274774335000411,
      0.0014699437894661613,
      -0.0046570912056872376,
      -0.007093197770498422,
      -0.01946655038362449,
      0.008043742770096328,
      -0.003287315351793888,
      0.014117673145641971,
      0.2846815877215051,
      -0.17282792178007259,
      -0.015630842271383606,
      0.0037326880903751857,
      0.008635093199285543,
      -0.0199095451647004,
      0.016765622124312908,
      0.009143693558784414,
      0.17727308069604436,
      -0.021176985928749035,
      -0.0003503342284875129,
      0.036130299844826935,
      0.01629714725588745,
      0.009220709344891572,
      -0.012941913082588314,
      -0.02545365017306342,
      0.03577839994717218,
      0.0026552559917141358,
      -0.0024352983924993223,
      -0.02418103601550099,
      0.03444503215875706
    ],
    [
      -0.0045500107335284656,
      -0.010184080454689498,
      0.006638117538654811,
      0.010918716611861867,
      -0.003032640372920575,
      -0.013140771956726811,
      0.01790151299505886,
      -0.0011367048868666393,
      0.009739110649813027,
      0.08449838957420056,
      0.00010106367487343551,
      0.011056343857410523,
      0.0016225978927872672,
      0.025988631220258764,
      0.002869011968361204,
      -0.0062167095014364964,
      0.00471353726251454,
      -0.00017114210976561166,
      0.017958946614584005,
      0.026844760032029197,
      0.00964713056785655,
      0.009979978536059067,
      0.0060823226894629635,
      0.0052833248186786004,
      -0.00041075029264128846,
      -0.011615896788300866,
      -0.013214886058599402,
      0.00037482258771004596,
      0.01344877010960546,
      0.008415925208102025,
      -0.07085800101332286,
      -0.027353919911861525,
      -0.016670690772217188,
      0.15875939684572432,
      -0.002576385582488257,
      0.08550498879818223,
      -0.0362838122248787,
      0.004277799404650035,
      0.26801592107545813,
      -0.2556281982129137,
      -0.004524135292296291,
      -0.00019599471669682234,
      -0.012101976484895008,
      0.012094520245745286,
      0.07334004703604552,
      0.10623332599164786,
      -0.052317064144855305,
      -0.013732986131438264,
      0.005641509778309996,
      0.0002077043943572624,
      0.06761113617400562,
      -0.006293408111366102,
      -0.0019422292840891575,
      0.04231606292358076,
      0.059803237844895,
      0.006093177620120089,
      -0.006787244277596745,
      0.0017807187037087592,
      0.00278667795071165,
      -0.002964246043742113,
      -0.011155376338417119,
      0.002777420547478232,
      -0.009400323083673756,
      -0.001794135283313545,
      0.0012859602109514098,
      0.010252182523289436,
      0.014493196112926625,
      0.0017884126123347552,
      0.002098444832940245,
      -8.858721655127039e-05,
      0.005623789462428788,
      -0.005574772118805301,
      -0.009695685275585755,
