{
  "weights": [
    -0.026970886800994104,
    0.010065617816352568,
    0.006765866867253729,
    -0.00874005846538445,
    0.008390895430217874,
    -0.010401196708058629,
    -0.00027204246531908026,
    -0.004668698008077895,
    -0.003706051969498819,
    0.0008793854414373438,
    -0.015426306040885074,
    0.016304079283727006,
    0.0003603733713399425,
    0.0022794167741245416,
    -0.0017611993040748146,
    -0.008291834254549308,
    0.0044131355422099275,
    -0.008514901868455492,
    0.006572788006478274,
    0.0018505837060963214,
    -0.09692724963130345,
    -0.08443602618707083,
    0.1017458987520314,
    -0.05171401510796702,
    0.05312663562179558,
    0.026848805294618718,
    -0.002477680989115593,
    0.0020678755917720474,
    0.16897068529334686,
    0.16802905494095458,
    0.09704470538205093,
    0.014053091869395145,
    0.0010931304079575947,
    0.010147921791069239,
    -0.0195213859053299,
    -0.006664050793066936,
    0.009486424355204352,
    0.0014012051235140345,
    -0.01125061683306701,
    0.011180207668639659,
    0.02047335210856113,
    -0.01696251247516837,
    0.021182559848769843,
    0.09156074682764831,
    -0.002437163343601106,
    -0.008628751622918988,
    0.072000882378518,
    0.01143958048673179,
    0.0076345613255148674,
    0.016382256033593293,
    -0.015455623320259362,
    -0.013758491827059545,
    0.060300793141956244,
    0.013708672991431716
  ],
  "bias": -0.052377547677206995,
  "learning_rate": 0.1,
  "n_iterations": 300,
  "optimizer": "mini-batch",
  "batch_size": 1024,
  "loss_history": [
    0.6753482525342747,
    0.6751536729576155,
    0.6752591131408671,
    0.6752174301687036,
    0.675184860463821,
    0.6751378602123981,
    0.6751571206550395,
    0.6751875801129573,
    0.6752169453595913,
    0.6753123600379628,
    0.6752210796499587,
    0.675144283799898,
    0.675091230115732,
    0.6754116159685464,
    0.6754221501314623,
    0.6751802575231779,
    0.6751806571571688,
    0.6752159466734555,
    0.6753571700906909,
    0.6751138141461474,
    0.6753104919564306,
    0.6752873378455558,
    0.6752602964868881,
    0.6754832782574639,
    0.6752969306892734,
    0.6752755048244019,
    0.6752441041149171,
    0.6752471998165145,
    0.6752291774111072,
    0.6752194196882045,
    0.6753021057199294,
    0.6753078235607102,
    0.6754440226706716,
    0.6751629045774226,
    0.6752752226463861,
    0.6752117383369962,
    0.6752324954410008,
    0.6751717741699829,
    0.6754457511873542,
    0.6751633197962238,
    0.6752255126182476,
    0.6753096706683223,
    0.6752716319341108,
    0.6753230688886258,
    0.6751937746201704,
    0.6751694081902508,
    0.6752105770697833,
    0.6752680447686533,
    0.6751482213258124,
    0.6752494057657958,
    0.6751972439992593,
    0.6751676567019558,
    0.6751909699608264,
    0.67520277763949,
    0.6752947063441678,
    0.6751804141802568,
    0.6753462845541468,
    0.6752665642462197,
    0.6751380837251081,
    0.6752209041436755,
    0.6753130016011842,
    0.6752353021401195,
    0.6752828576611271,
    0.675153258918899,
    0.6751961080244618,
    0.6752856116722709,
    0.675346667864137,
    0.6751761330264929,
    0.6752717936407835,
    0.675179284036407,
    0.6752150776599413,
    0.6752909872974483,
    0.6752115810130682,
    0.6753441902127542,
    0.6753792935640102,
    0.6750893248770173,
    0.6752272189485078,
    0.6751824839103067,
    0.6752925008179665,
    0.675251654380138,
    0.6751294385311202,
    0.6751401784410466,
    0.6754023570823386,
    0.6751790879184755,
    0.6752030556663501,
    0.6753735041495047,
    0.6751705439248995,
    0.6752108247315409,
    0.6752412386356594,
    0.6751449164240722,
    0.6752203551940521,
    0.6752619305227574,
    0.6751909411806133,
    0.6752375326784327,
    0.6752140677597961,
    0.675180061117488,
    0.6752192164783434,
    0.6752819723026424,
    0.6751353933269914,
    0.6753357794183169,
    0.6752469641489909,
    0.6751934254774442,
    0.6751577597147373,
    0.6751398007631788,
    0.6754336296065638,
    0.6753132676512804,
    0.6752744819642094,
    0.6752407908975434,
    0.6751638871152355,
    0.675244646498866,
    0.6752306672373914,
    0.6751856895545858,
    0.6751437957460676,
    0.6753559978852384,
    0.6752417361692092,
    0.6753309666952657,
    0.6752718637593745,
    0.675172186086138,
    0.6752238619443841,
    0.6752517014870247,
    0.6753709916472492,
    0.6755224142637564,
    0.6751628143311954,
    0.675270459749791,
    0.6753842982484703,
    0.6751500529330631,
    0.6752277575482505,
    0.6752924256399027,
    0.6752961104435927,
    0.675231497509292,
    0.6752432576382196,
    0.6752198021330676,
    0.6751940206140119,
    0.6751923654617488,
    0.6752270710296453,
    0.6752674203129145,
    0.6753408229928682,
    0.6751393287039105,
    0.6751781187533528,
    0.6752376085926145,
    0.6752790881097027,
    0.6752825233476746,
    0.6751559707034848,
    0.6752219035718108,
    0.6752648673171575,
    0.6751947666334629,
    0.6752214651557447,
    0.6751901685181554,
    0.6753127101759686,
    0.6753450498284526,
    0.6751467812141281,
    0.6751412437082539,
    0.6752771302944535,
    0.6751463716319133,
    0.6751922603678066,
    0.6752903398471705,
    0.6752505879659174,
    0.6752696876588246,
    0.6751881765498741,
    0.6752340334478274,
    0.6751516410110361,
    0.6752118199661349,
    0.6752591542554861,
    0.6751207035812649,
    0.6752253579859074,
    0.6752515181461672,
    0.6752452707680163,
    0.6753147171788959,
    0.6753174041271351,
    0.6752415415971477,
    0.6751003828877865,
    0.6751693840526604,
    0.6752833917488595,
    0.6752426967180603,
    0.6751583043363095,
    0.6753438088860535,
    0.675251975069167,
    0.6752124414938953,
    0.6751539009478992,
    0.675205669871226,
    0.6752151802925456,
    0.6754541408699494,
    0.6752211272719761,
    0.6751775400227747,
    0.6752709765189242,
    0.6752133487027184,
    0.6753541040575363,
    0.675167309742778,
    0.6752311551916904,
    0.6753522777028066,
    0.6752445020050587,
    0.6751654978222489,
    0.6752024417454939,
    0.6752854307970212,
    0.6752458165511557,
    0.6751428571241481,
    0.6752216473785678,
    0.6751948421848106,
    0.675195066011994,
    0.6751248861141942,
    0.6751585643018895,
    0.6752046575440608,
    0.6753211786873797,
    0.6754262469527599,
    0.6752114513770218,
    0.6751762230013232,
    0.675220344370301,
    0.6751985373246545,
    0.6753053214795275,
    0.6751254357061313,
    0.6752757901263081,
    0.6751915022879493,
    0.6753414763527374,
    0.6753152233990253,
    0.6754189577565075,
    0.675320405011005,
    0.6753276190385528,
    0.675213322919584,
    0.6751543573023202,
    0.6752323655304814,
    0.6752779903299257,
    0.6754054037329219,
    0.675169827911754,
    0.6753606162077858,
    0.675305111756203,
    0.6752989194204547,
    0.6752420348647832,
    0.675453528396869,
    0.6752330250359798,
    0.6751600434052755,
    0.6752070441621588,
    0.6753066672672653,
    0.6753044384882273,
    0.6753588659793052,
    0.6752844976794906,
    0.6751489866123466,
    0.6751648539278259,
    0.6752830743746524,
    0.6751928528475045,
    0.6752899632295737,
    0.675257667093945,
    0.6751808911438852,
    0.6751791682454487,
    0.6752763779132036,
    0.6753328242070947,
    0.6751576654754954,
    0.675292280185639,
    0.6753182366471857,
    0.6751580984248885,
    0.6751067062241569,
    0.6752188863102166,
    0.6752269636171728,
    0.6752011735452189,
    0.6752843255068034,
    0.6751308826341803,
    0.6752276693068364,
    0.6753035040795562,
    0.6753198900129798,
    0.6752431644323909,
    0.6752203822576015,
    0.6752345835470736,
    0.6751864413301129,
    0.6751358424311282,
    0.6752545312113911,
    0.6753279509028182,
    0.6752520561091706,
    0.6751911509187015,
    0.6753855504142944,
    0.6752932149974018,
    0.6751894350432401,
    0.6753144837266778,
    0.6752350848102048,
    0.67517640259494,
    0.6752973861992142,
    0.6752952422515379,
    0.6752139686580284,
    0.6751821151936271,
    0.6752857513322871,
    0.6752221319776018,
    0.6753425223135591,
    0.6752280933228271,
    0.6752215924824653,
    0.6752188901528439,
    0.6751683128461043,
    0.6753289909261153,
    0.6752317188249881,
    0.6753503645018194,
    0.6753394733787077,
    0.6751937568207541,
    0.6754890670771521,
    0.6752205891010611,
    0.6752434497927263,
    0.6752044668132717,
    0.6752725383925295,
    0.6752734902860076,
    0.675270807745112,
    0.6752279413251187,
    0.6753866217816791,
    0.6752505172192453,
    0.6752236291751237
  ],
  "weight_history": [
    [
      0.004967141530112327,
      -0.0013826430117118466,
      0.006476885381006925,
      0.015230298564080254,
      -0.0023415337472333596,
      -0.0023413695694918055,
      0.015792128155073915,
      0.007674347291529088,
      -0.004694743859349522,
      0.005425600435859647,
      -0.0046341769281246226,
      -0.004657297535702569,
      0.002419622715660341,
      -0.01913280244657798,
      -0.01724917832513033,
      -0.005622875292409727,
      -0.010128311203344238,
      0.003142473325952739,
      -0.00908024075521211,
      -0.014123037013352916,
      0.014656487689215542,
      -0.0022577630048653567,
      0.0006752820468792384,
      -0.014247481862134568,
      -0.005443827245251827,
      0.001109225897098661,
      -0.011509935774223028,
      0.0037569801834567195,
      -0.00600638689918805,
      -0.002916937497932768,
      -0.006017066122293969,
      0.01852278184508938,
      -0.0001349722473793392,
      -0.010577109289559003,
      0.00822544912103189,
      -0.012208436499710222,
      0.0020886359500475542,
      -0.019596701238797757,
      -0.013281860488984306,
      0.0019686123586912354,
      0.007384665799954104,
      0.001713682811899705,
      -0.0011564828238824054,
      -0.0030110369558928878,
      -0.014785219903674275,
      -0.0071984420839470865,
      -0.004606387709597875,
      0.010571222262189157,
      0.003436182895684614,
      -0.01763040155362734,
      0.00324083969394795,
      -0.0038508228041631656,
      -0.006769220003059588,
      0.006116762888408679
    ],
    [
      -0.019636492852797966,
      0.021915280840881086,
      0.004325113813696021,
      -0.004869019658363816,
      0.01633803814756976,
      0.0019326980236236816,
      0.0073121858433497135,
      -0.015229980665452933,
      0.00253139932867545,
      0.004141191963081077,
      -0.008819489121839916,
      0.006857079292512603,
      -0.006388977764314867,
      -0.007308351445590893,
      -0.0068651664285006835,
      -0.009088698672344249,
      0.0009880551719918156,
      -0.004895373770734853,
      -0.01557554641416974,
      -0.0072150604132840464,
      -0.091904584971631,
      -0.06851120318732891,
      0.07598555109295871,
      -0.04384202110141377,
      0.04650142401994402,
      0.020425460276551836,
      -0.005641781998404589,
      -0.0020355619491532234,
      0.1612600512489289,
      0.1428017706188849,
      0.08091222847470764,
      0.02138488766777048,
      -0.005193757917008334,
      0.014406395962238923,
      -0.027898630647304707,
      -0.010966198502783495,
      0.012324199884636008,
      -0.001999964223999209,
      -0.01771653019594707,
      0.004365539088686905,
      0.029729162078892875,
      -0.019252930710975925,
      0.020512156930722423,
      0.08116986932949515,
      0.008302538851635621,
      -0.0074336340764378575,
      0.05385707976528979,
      0.020751612589502297,
      0.0003602774778355565,
      0.006810733989835447,
      -0.01038746579675735,
      -0.011657283069644005,
      0.04576104708614753,
      0.028397109543615094
    ],
    [
      -0.021341603203677312,
      0.012995385486594476,
      0.011875611314546149,
      -0.02258153264632293,
      0.017509595617930408,
      -0.007238878676338694,
      -0.0045504377938391845,
      -0.0011707907254363834,
      0.0075957428785320335,
      0.013079089890732833,
      -0.008848955465573584,
      -0.0012926635529216996,
      -0.00640001014012288,
      0.007545216025730659,
      -0.007665368863041481,
      -0.0137460217392368,
      -0.008796234434360267,
      -0.007833378644360503,
      -0.0020247242222280037,
      -0.004969378301216574,
      -0.09914337003082042,
      -0.07525101179565563,
      0.08272207971572788,
      -0.04319543862300508,
      0.05664146652478237,
      0.025060350681630428,
      -0.005799745138186289,
      -0.0011608762262065508,
      0.16906560844275362,
      0.15663197201779572,
      0.09499488524629768,
      0.008582048340687817,
      -0.00015211193564740582,
      0.004484585133339339,
      -0.01680553002412115,
      -0.003668265280029825,
      -0.00046046094295450635,
      -0.010314807818480943,
      -0.022516410259751568,
      0.016924910655817065,
      0.025368850291504905,
      -0.004241707892231798,
      0.017708426007282344,
      0.1074997523656871,
      -0.004353048952252248,
      -0.007434396712924923,
      0.06968275366457162,
      0.013971281919195638,
      0.006863948307608815,
      0.007496362210455065,
      -0.017318121255795068,
      -0.014105734363149615,
      0.05626088887857206,
      0.009041311190793232
    ],
    [
      -0.025384460075023228,
      0.012924963378056578,
      0.012232517682996404,
      -0.01839981078636351,
      0.013266405197819724,
      -0.005739646856181429,
      0.012266254079090655,
      -0.020664383581819133,
      0.004163491417806803,
      0.0009489489743700983,
      -0.016103074737847594,
      -0.00012981120673829626,
      0.008921511670060008,
      -0.0031522032152868926,
      -0.010514124922786897,
      -0.004913277807118771,
      -0.015673290716741145,
      -0.006225861672311326,
      -7.694080960498999e-05,
      -0.011097863643401639,
      -0.09368210632398281,
      -0.07751381022820716,
      0.08834535013943556,
      -0.04955188893315562,
      0.052425356307758464,
      0.035979794860626,
      -0.012491773421274702,
      0.00618096461690241,
      0.17182898053898965,
      0.16673963433760475,
      0.1053720734816236,
      0.004329574305753148,
      -0.005579320394780885,
      0.0022407920328593425,
      -0.02665516496969512,
      0.0012050782878612236,
      -0.004301990197777743,
      0.00294933045512333,
      -0.01029640194337283,
      0.011935844566653774,
      0.016498929399650888,
      -0.024118521199636596,
      0.005862032214604293,
      0.09538768113971713,
      0.0024117994989871702,
      0.004608982398939586,
      0.07002359020137638,
      0.015089250866547999,
      0.0007134668427285678,
      0.005308611454245599,
      -0.018026642810246414,
      -0.0022450312823910266,
      0.05435259125620218,
      0.008382298877309348
    ],
    [
      -0.027056352151913786,
      0.012883831503488995,
      -0.0047939640009260105,
      -0.01829020410377896,
      0.017401497219481143,
      -0.011103897475354728,
      0.006121591436236199,
      -0.01649789172583186,
      -0.0003038873048490006,
      0.008676605119025113,
      -0.012007118958586234,
      0.009550299504355065,
      -0.0006598446241068185,
      0.0019722794865237227,
      -0.010590009939826143,
      -0.004715952616268801,
      -0.008073935236961637,
      -0.002736160960771677,
      -0.005646759153916966,
      -0.008813420360763442,
      -0.09577317854317291,
      -0.0872334602233048,
      0.0936226447614784,
      -0.039726284079197774,
      0.044277946882848335,
      0.027753912658713895,
      0.006301145153860372,
      -0.012022805000073924,
      0.1643680205372299,
      0.1565287155207698,
      0.104464987453241,
      0.007903709128355224,
      0.0048661024594158515,
      0.00632791990364767,
      -0.020719792768576484,
      -0.011707446137872364,
      -0.00458589543819966,
      -0.00809709574179072,
      -0.003570140527935237,
      0.010567553266991717,
      0.02396053616395782,
      -0.011331751032881497,
      0.023245213085850962,
      0.09079648789335813,
      -0.0014315028968931477,
      0.004611594359012804,
      0.05869288194268995,
      0.013677268985775702,
      0.014347301245345926,
      0.012113683359164216,
      -0.020997325160549488,
      -0.02325626495976664,
      0.04519780273581032,
      -0.0023635828976871684
    ],
    [
      -0.018679661911871717,
      0.011403507624422635,
      -0.0005923846633141146,
      -0.027712217317931893,
      0.013164398733700832,
      0.0015403984459012709,
      0.00904372184481957,
      -0.003470031977183639,
      0.0015031874138357556,
      -0.002748897309533597,
      -0.008884310089253687,
      -0.0029411915512933314,
      0.006589819217394045,
      -0.006654623982812649,
      -0.01808160083576265,
      -0.016192193686636804,
      -0.0022215061367995602,
      -0.007155959930197117,
      3.786411944721197e-05,
      -0.00016499613783507814,
      -0.09855700871517954,
      -0.08202922494199738,
      0.09023085987482835,
      -0.04181290489472239,
      0.04698382315565354,
      0.025396850435383114,
      -0.006403794130979834,
      0.0012162829243193957,
      0.16517158666066814,
      0.1612925559945662,
      0.10217720058484688,
      0.011883315717703383,
      0.005288798259423246,
      0.011160413599679645,
      -0.02611916518752287,
      -0.008030664829685221,
      -0.012142735145773145,
      -0.005391584325439439,
      -0.012880685689708831,
      0.01379512494169442,
      0.026109440885609056,
      -0.017568603021282575,
      0.019401163739724434,
      0.09132325675111666,
      0.005200573929755292,
      -0.003957739786413423,
      0.06247700620967581,
      0.02640574679763718,
      0.0013374084863959127,
      0.014611367036243068,
      -0.003892377244101657,
      -0.02122694874074354,
      0.047702092504156475,
      0.005339252408248141
    ],
    [
      -0.02441495510948713,
      0.014170523026735804,
      -0.0002681753152176461,
      -0.021854134184554654,
      0.007480971434363095,
      -0.001970945858566935,
      -0.008948870902235636,
      -0.012874502566722483,
      0.004729782152895701,
      0.005031869721310088,
      -0.01968258425073715,
      0.013543980335980034,
      -0.0024567058286706278,
      0.00046506472123026416,
      -0.012854647672211571,
      -0.008052750139554327,
      -0.0005194907807530148,
      0.0031932245301703336,
      -0.007643742251430221,
      -0.0045859706812411095,
      -0.07923947544324252,
      -0.07989976145092069,
      0.09262643373864607,
      -0.05050361245046415,
      0.057474003010271724,
      0.028954019112234088,
      -0.0023525103543042946,
      -0.002350717947013914,
      0.1700204079518229,
      0.16133651486366743,
      0.09382647007381209,
      0.011459829278152912,
      -0.0030741285378218155,
      0.01653859701369958,
      -0.02142640134826694,
      -0.014405321771058216,
      0.004589697697158685,
      0.0017117901773499354,
      -0.01161113970870131,
      0.008582697516513796,
      0.026680863382152004,
      -0.018324692197392883,
      0.0034181161867268333,
      0.08959323683537108,
      0.002310334139709901,
      -0.003367954797397871,
      0.06611876089100908,
      0.016644261440824683,
      0.004019752836682754,
      0.006351889496062959,
      -0.01450153922566822,
      -0.007674332828921696,
      0.06320128346692983,
      0.013500486296474289
    ],
    [
      -0.017908845192608495,
      0.021791283659819763,
      0.010840411790235675,
      -0.023066361199534473,
      0.007351612834085401,
      0.007203551345677498,
      -0.004226818041299853,
      -0.019397520927906486,
      0.005583858898078711,
      0.003216135480146285,
      -0.017078424927368635,
      0.009014139291049137,
      -0.004431164699968744,
      -0.0005487797224450921,
      -0.015633717742805628,
      -0.008244462983486625,
      0.007713862993805321,
      0.00024593564623625534,
      3.3837547331432016e-06,
      -0.013772115137809161,
      -0.09547559764589442,
      -0.07059348551025635,
      0.07905857574551897,
      -0.03866975165195579,
      0.057233484271257386,
      0.039402635589021406,
      -0.0014987410557919993,
      -0.0027654148318944595,
      0.1696143714449807,
      0.15784327751427554,
      0.09716217737510913,
      0.008566561687785922,
      0.009908471624903048,
      0.00752005424834358,
      -0.014083504508640966,
      -0.017713322505603795,
      0.0013706384816960047,
      -0.009839844377292182,
      -0.011752420719519317,
      0.012399081194793224,
      0.02870267029170256,
      -0.010621447116138227,
      0.022881840441810457,
      0.09508835139274763,
      -0.0053316663362118375,
      -0.0030039549803368166,
      0.06166799967034867,
      0.026854354099952276,
      0.024355746129144238,
      0.0021001352561643757,
      -0.008917826011517032,
      -0.03428771003128476,
      0.05334310386177351,
      0.0018590072159988754
    ],
    [
      -0.018921054014825703,
      0.010040663947064392,
      0.0013453295027216637,
      -0.0191114565970687,
      0.010891337426089205,
      -0.004483363930307325,
      -0.0009323827565859323,
      -0.01797712261596501,
      0.010477781198629247,
      0.004728110429537868,
      -0.01529526223772227,
      0.006304724211750286,
      -0.003219571571669805,
      0.008179472411929779,
      -0.01627110286584207,
      -0.0010670641419692189,
      -0.0061078234145670336,
      0.00248367027251529,
      -0.007734093672228058,
      -0.005670305894114238,
      -0.08986366502832815,
      -0.07338088151060743,
      0.0809534255444236,
      -0.03618666193157995,
      0.04990011449323,
      0.027071591212268563,
      0.0018584420874419956,
      -0.005724515403380068,
      0.17212742920447255,
      0.16703440415803575,
      0.0891224352288715,
      0.008001781155419403,
      0.00045217697047927343,
      0.013255097424253383,
      -0.016834494753746137,
      -0.0025135787543578885,
      -0.0009011052887393284,
      -0.004412337868465878,
      -0.008955261062614328,
      0.003216131649126699,
      0.0185363819590947,
      -0.01220180577087994,
      0.004330963468741236,
      0.1014533817429751,
      0.001892823611135418,
      0.0007607756473312886,
      0.06352779964871384,
      0.026220751613649437,
      0.01247037789289903,
      0.004957525921532164,
      -0.00834543037809768,
      -0.02104290262569607,
      0.043759257605248764,
      -0.0008665842511425822
    ],
    [
      -0.02280310770455096,
      0.011885127336765293,
      -0.0036194901262397885,
      -0.014528499041923092,
      0.017809291647868375,
      -0.009377198445382713,
      -0.0032508248316531676,
      -0.000820417824092668,
      -0.002627949944107001,
      0.007071278666065125,
      -0.019629148565047178,
      0.019503794932380136,
      -0.008876258254267407,
      0.0034858536093314942,
      -0.009789925040347956,
      -0.008609734095384305,
      -0.001713432530917455,
      0.0006694965143618601,
      0.003745412144806429,
      -0.008191735983083575,
      -0.10463210142070235,
      -0.0739441259710576,
      0.08419809367594133,
      -0.04143384078796611,
      0.047467128482624854,
      0.026653592199362492,
      0.001974374696297537,
      -0.0054795286535835085,
      0.17389178505039116,
      0.1562545711306373,
      0.09475921201117236,
      0.0038072886644074724,
      0.002069804862096654,
      0.010454834933651416,
      -0.017006925661062718,
      -0.010373358853514937,
      0.00748409707649181,
      -0.005095023807906834,
      -0.008899771356246885,
      0.013884777019121173,
      0.026711073409508856,
      -0.005631070914358694,
      0.0047608436317738275,
      0.1020900320816295,
      -0.004668704133114118,
      -0.005526452493070252,
      0.06616530203223764,
      0.019196592002533198,
      0.015036934142731329,
      0.0029089738860434596,
      -0.017766102656191315,
      -0.014331917304836721,
      0.05347330322533581,
      0.0065336716030569425
    ],
    [
      -0.029048220252773312,
      1.2161631092678666e-05,
      -0.005109536359163261,
      -0.021504629997990087,
      0.0007117011524614466,
      0.0016390270871977602,
      0.011222522007185775,
      -0.0074926830356483905,
      0.0012412573375255242,
      -0.00506858103836122,
      -0.025924942257875866,
      0.015109635694373976,
      0.0016239772422623,
      -0.00922442858423471,
      -0.003253785759348558,
      -0.022392402305512905,
      -0.0010344497222051431,
      0.004486044773477597,
      0.010005384225749914,
      0.0021708058694942457,
      -0.10428408809330701,
      -0.0696187636751171,
      0.07975024420013073,
      -0.03979931464193117,
      0.05116804062944465,
      0.025782296201468095,
      -0.004547782595288512,
      0.0013698541753520872,
      0.16875718987586716,
      0.1585259332427811,
      0.09759104835237369,
      0.014495460324802412,
      0.003913072283720351,
      0.005344065666987583,
      -0.01890287803653034,
      -0.008704081426059216,
      0.007591435396584389,
      -0.002541536561714754,
      -0.008335014550645909,
      0.003814520584495649,
      0.01922601185221228,
      -0.01904820422901185,
      0.015436975871953688,
      0.10598597773317792,
      0.0028257300233240604,
      -0.011934132725915916,
      0.06798647192912068,
      0.02030662896929275,
      0.01156350687362146,
      0.006575246644489954,
      -0.013095436528452081,
      -0.01637317102833365,
      0.05490572399481146,
      0.010942753856430941
    ],
    [
      -0.016705271304211632,
      0.01321867550659517,
      0.0061462498419054745,
      -0.017325969328982994,
      0.007018532723402547,
      -0.003413274608652896,
      -0.010136285614011739,
      -0.006459769230546279,
      -0.0022425241014062246,
      0.004301985669290491,
      -0.018059591162857103,
      0.007351813909516387,
      0.0045696141845919915,
      -0.0003153439094126702,
      -0.005116783438879168,
      -0.013616676957966364,
      -0.010683845788492333,
      0.00798531474147338,
      -0.004947610022429948,
      0.0121025614897901,
      -0.10533771517260533,
      -0.0683188021471555,
      0.07825616051092911,
      -0.03851097563522438,
      0.047720086763787965,
      0.03420804584289755,
      -0.008907304693158754,
      0.0060260534941217105,
      0.16425126829191256,
      0.17384144510170849,
      0.10309252336506279,
      0.007815193630591298,
      0.0010288135785686118,
      0.0070205774676541585,
      -0.013078406733628442,
      -0.005076062074293417,
      0.006974646546318101,
      -0.004922769489473234,
      -0.0032124912413528262,
      0.0030013955096613782,
      0.01573954564808874,
      -0.01495460601678647,
      0.006034399700618839,
      0.09666095376567359,
      -0.012172773109737354,
      0.004883305573791619,
      0.06658957875389483,
      0.024623867540531905,
      0.006252845333102629,
      0.00614764847514181,
      -0.002679638702492762,
      -0.016808342204972883,
      0.05480891317531857,
      0.009747915955123016
    ],
    [
      -0.024661977684429584,
      0.005713855600353459,
      0.00016785899095176618,
      -0.020250937256387134,
      0.012619745071190219,
      -0.006630458620843906,
      -0.011673450548660372,
      -0.010675001791698491,
      0.004368809898929439,
      -0.004164963895759771,
      -0.007748962633118465,
      0.014150916987868585,
      0.004172340009585113,
      0.0008660828906197457,
      -0.01251082545972575,
      0.0033757909703583822,
      -0.0014340046089564222,
      2.8475413117518087e-05,
      -0.0013549848417439068,
      -0.013623516389337653,
      -0.0938933674403579,
      -0.06947170056526444,
      0.08295483593013733,
      -0.04597731089182345,
      0.05433455656562949,
      0.02317675240040216,
      -0.010426514937940702,
      0.007814244497904006,
      0.16230048712374281,
      0.16232154641373422,
      0.09340829946625906,
      0.007967406784471111,
      0.00966899872366719,
      0.007213655052015227,
      -0.0197163936843599,
      -0.006414218830513237,
      -0.013165917597959174,
      -0.007330594500539975,
      -0.006774575817126495,
      0.013369946800098759,
      0.02051272202390353,
      -0.009268668938664223,
      0.025042794477662833,
      0.1085791452285532,
      0.007100718379156625,
      -0.0020187044547746473,
      0.07291981518918249,
      0.020502561825207776,
      0.01929575185689103,
      0.006085010800085485,
      -0.019234616866068033,
      -0.02023508328262507,
      0.051297181825468975,
      0.005473678446850209
    ],
    [
      -0.03497927519391953,
      0.008329467716260239,
      0.0052460096020712265,
      -0.025904738528182526,
      0.009147937937292593,
      0.0096267497280182,
      -0.0011744408014883576,
      -0.013403522965083195,
      -0.005467265669922755,
      -0.0024899864097555832,
      -0.017714549407426047,
      0.024343321130600986,
      -0.0072611685444529325,
      -0.008947541118159132,
      -0.01636570649713668,
      -0.0013900299767468827,
      -0.0005088260579757045,
      0.0020594546183619103,
      -0.005713713686289137,
      -0.0036989390309411807,
      -0.09292266509476858,
      -0.07872931383377245,
      0.08711048426417627,
      -0.03539148684457315,
      0.04396448952628065,
      0.02100258250158149,
      -0.007285976675178064,
      0.004917576150374754,
      0.16010381463239332,
      0.1647757463913635,
      0.09192851776000337,
      0.00864274102594689,
      0.007440744944398388,
      0.006663668290449588,
      -0.01938690322875097,
      0.0007189055903122116,
      0.0058710441918011684,
      0.003515679811850003,
      -0.018414361542407207,
      -0.005095291169998759,
      0.015511900160050416,
      -0.02189318298750308,
      0.02444167220602083,
      0.0831593410873699,
      -0.0031970043635269644,
      0.008709544657222882,
      0.0634654594020785,
      0.024542531923150816,
      0.007632500488293255,
      0.00643001778310315,
      -0.008825463560859287,
      -0.013085926178533729,
      0.04260294591219025,
      -0.0012120796587420882
    ],
    [
      -0.028562271658490932,
      0.01037976134501735,
      0.0047133986306482105,
      -0.024347662468737118,
      0.01618128176742168,
      -0.008138901016763166,
      0.0017446971367260317,
      -0.008518223453057524,
      0.0037120523149814155,
      -0.006954875348581635,
      -0.017398780687790445,
      0.01019975011832367,
      0.007440000270189745,
      0.001835068363838695,
      -0.015106989160950593,
      -0.005769700271592835,
      0.007905626974255592,
      -0.008230838381007846,
      -0.0028557410094030844,
      -0.0018911435937269323,
      -0.10447277746872985,
      -0.07565505945784792,
      0.08510853108063485,
      -0.036840302166591656,
      0.054729582860620046,
      0.020360253592427883,
      -0.014115553720398747,
      0.011968256503419256,
      0.16032668758849933,
      0.1680713784823584,
      0.09400745403948617,
      0.01440038458479891,
      0.0022976622123328625,
      0.004121489516700323,
      -0.01707342732281615,
      -0.01568765273517238,
      0.008468345203333262,
      0.003835522586259376,
      -0.018055263134487225,
      0.014080397547083037,
      0.022665647482164507,
      -0.012247481010540151,
      0.003506994343669232,
      0.09377039636531544,
      0.0011244101568534982,
      0.005007384729108909,
      0.07166553479541264,
      0.01927208041170913,
      0.0207071887208894,
      -0.0012575549535327687,
      -0.016485482342523408,
      -0.016620262301735696,
      0.05995452596106365,
      0.012116678798553682
    ],
    [
      -0.012091023938688761,
      0.01449326434132201,
      0.009612627588179348,
      -0.010913344573862983,
      0.007563722057085015,
      -0.00216604479673255,
      0.0003620154669465676,
      -0.01626678051079504,
      -0.010277014861575758,
      0.0013005688821212833,
      -0.024300379405946003,
      0.006040806807703088,
      0.012400157066579948,
      -0.005429768383227485,
      -0.008482881723496686,
      -0.008063739590124129,
      -0.004356892959955401,
      -0.009523327552254834,
      0.0008162274742981282,
      0.005792681070878035,
      -0.10286491697571695,
      -0.06834598867838423,
      0.07766652647650985,
      -0.035036672391057185,
      0.049082026893737196,
      0.03328613002461718,
      0.004427640774844843,
      -0.0063744759025016265,
      0.1580972130068216,
      0.169934007298818,
      0.10127576328405997,
      0.00396665793986268,
      -0.004087446208171932,
      0.013783216311424405,
      -0.018461274528769642,
      0.004783510059948028,
      0.010124564940362873,
      -0.002119853857510739,
      -0.01492927545187744,
      0.012709467982141214,
      0.02127281315632223,
      -0.010013081989371432,
      0.010363491738029354,
      0.09376504046443296,
      -0.00011601014419181837,
      0.0006045955223610488,
      0.0719524605779733,
      0.02377259760126613,
      0.012857314798226438,
      -0.003966805475024526,
      -0.013237438362857217,
      -0.00596898053793655,
      0.060787507024474614,
      0.01207759062192066
    ],
    [
      -0.016436293604378437,
      0.012244484536762187,
      0.002179949085463344,
      -0.014830976996407246,
      0.019974893836265217,
      0.003956086256039113,
      0.008997491665424052,
      -0.018721816700291702,
      0.00790796626626418,
      -0.008973461533926605,
      -0.021489403222773564,
      0.01287340412460168,
      -0.005092519861596598,
      0.0031630912903215114,
      -0.0066052084077520955,
      -0.0030021673518468533,
      -0.013090825711263377,
      -0.004551914980138347,
      0.0039621350580019005,
      0.0009667423269474236,
      -0.09258061135987948,
      -0.08169264050367031,
      0.09217650625447993,
      -0.03914965829750048,
      0.0508646360260109,
      0.026080321991683798,
      -0.006367150306903282,
      0.004602063022149162,
      0.1616233594897364,
      0.15892211225209227,
      0.09212036598212384,
      0.00974524769258607,
      0.0006574513172123084,
      0.005824362694925229,
      -0.016733478822164957,
      -0.003302212518989491,
      0.002507412362856596,
      -0.0004439123455593488,
      -0.010349620272970953,
      0.010419305556923966,
      0.016034353739197038,
      -0.007073164692626085,
      0.015728939336692317,
      0.0928191795649341,
      0.0010935480300476473,
      -0.012141791937118653,
      0.07163789092775776,
      0.02105370073121566,
      0.012684902337475722,
      0.004719732707652385,
      -0.01120342109083927,
      -0.015216473137686943,
      0.05773752356790687,
      0.011330505416182534
    ],
    [
      -0.03490354647962433,
      0.006106836481626892,
      0.0037837991037710677,
      -0.02067956654746252,
      0.0039886943902875385,
      -0.0018246544043872127,
      0.011970085100358921,
      -0.00023425595633231027,
      0.002943420742506282,
      0.0015397154906556499,
      -0.023047984283803603,
      0.015511037879965214,
      -0.00942230367171756,
      0.0015718032870837267,
      -0.011643599494365766,
      -0.005997363746270782,
      -0.003935957696834517,
      -0.005376309911549429,
      -0.0026926683852121006,
      0.006722286565009363,
      -0.0973325279108764,
      -0.07542465224537687,
      0.08463766117373707,
      -0.03503981680534452,
      0.04682203012300717,
      0.03396483717837635,
      -0.005607677768844419,
      0.004007371159136518,
      0.16845815990419372,
      0.1629426080982566,
      0.09242141449019162,
      0.011934575012688495,
      0.009611588693052803,
      0.008574469387436185,
      -0.015949972028854315,
      -0.019740206861594216,
      0.0064281345152093425,
      -0.005055439624576103,
      -0.007974878235264622,
      0.01330870087639087,
      0.0276832112750696,
      -0.008887488492360034,
      0.005378362097719992,
      0.0984998004029601,
      -0.002229770780806306,
      -0.007315394068822661,
      0.06550792076524638,
      0.015614339505211197,
      0.016113621135127383,
      0.009091664550403045,
      -0.014598923159292882,
      -0.02084324941529376,
      0.05515868245526898,
      0.007618754380159375
    ],
    [
      -0.022335556033714097,
      0.010387333378805187,
      -0.003304917047891195,
      -0.015373915720945286,
      0.012219614672726288,
      -0.006214452998930652,
      -5.231505637066144e-06,
      -0.007991524542663995,
      0.0030933649510056314,
      -0.0003007444129394703,
      -0.016371201365347456,
      0.012132142100574906,
      -0.0017846154100340497,
      0.005178014053406082,
      -0.002051858503868265,
      -0.006293901093459207,
      -0.002616446816306512,
      0.006293269811312865,
      0.000710624663025846,
      -6.50537594497143e-05,
      -0.10275216095930656,
      -0.07747789505255684,
      0.08467250985982655,
      -0.030500332965561556,
      0.050560407833990205,
      0.02657936823459051,
      -0.002577573382465117,
      0.0011266642590494367,
      0.1639492589456314,
      0.15771175643143415,
      0.09824195205282141,
      0.01762491693424484,
      0.00954704288570259,
      0.011954811422722145,
      -0.023496845214748364,
      -0.011059154616329891,
      -0.008478991171439925,
      -0.0065482113376281684,
      -0.010742416524930527,
      0.016985179280975697,
      0.02614086668825972,
      -0.008545290433970364,
      0.013179553997226298,
      0.1025455389662403,
      0.0014334168487278383,
      0.004093241287362164,
      0.06244190139225551,
      0.013770215366818486,
      0.004286163413297905,
      0.008294504873453156,
      -0.00940935378137343,
      -0.008376499679608044,
      0.05614223333022884,
      0.009521407414733061
    ],
    [
      -0.0242780639569935,
      0.010054857203026664,
      -0.004505100246581393,
      -0.019340150264235554,
      0.018496291554077567,
      -0.008098069154239041,
      0.0011110039035471002,
      -0.00295025809768245,
      -0.0016435351524000576,
      -0.004198086830725475,
      -0.026515644683065463,
      0.006750521706300152,
      0.008523765927063099,
      0.003405747421318678,
      -0.00035709514741775247,
      0.00033652422485863295,
      -0.00850967333129106,
      7.39550572781602e-05,
      0.0038012784004354924,
      -0.005050432313778487,
      -0.0884534807665701,
      -0.06880557279721404,
      0.08430675328482726,
      -0.047461505060617325,
      0.059727162522875736,
      0.0318132348104722,
      0.0019462767515894363,
      -0.0032617354715875485,
      0.17063763919843708,
      0.15476187090501467,
      0.09463996729757389,
      0.016487288822296536,
      0.000713824898882975,
      0.010896586506306259,
      -0.011856136539341339,
      -0.01914371722416914,
      0.0071821269111768315,
      -0.006658874429454005,
      -0.0068549346415894,
      0.01926174074555521,
      0.02535056975639883,
      -0.020727901331632177,
      0.011402145005899377,
      0.1099268800870043,
      0.0019043893298444,
      -0.003994247955771834,
      0.0699906195501694,
      0.020982153124784964,
      0.014980937968533392,
      0.0007501537792575035,
      -0.011774530206148584,
      -0.013297357298445753,
      0.06027118934781187,
      0.013254255183739403
    ],
    [
      -0.011017358537345468,
      0.012078156471967295,
      -0.0009039113802231701,
      -0.02928009894910623,
      0.016865188814954656,
      0.006801971414754483,
      -0.010752442615180748,
      -0.009302938508938244,
      -0.010048103630817908,
      0.007807039613352552,
      -0.019100015445897157,
      0.008042172598411518,
      -0.002893982253438491,
      0.0031927795398561734,
      -0.015383399199810388,
      -0.005410560414866506,
      -0.014990083706964783,
      0.0009423831976672773,
      0.005708204410369173,
      0.004099449922260649,
      -0.09258342455569626,
      -0.0767356242407337,
      0.08936446043618033,
      -0.0419271697849524,
      0.057022818285226755,
      0.028929115131615665,
      0.0012038571096133028,
      -0.002396510471627711,
      0.1678831637021471,
      0.1714129791214307,
      0.11334031048685614,
      0.013248229190049036,
      0.015905584756690506,
      0.0032656049453186407,
      -0.008751193521774048,
      -0.017512913847484997,
      0.0050320944702496664,
      -0.008901255851703455,
      -0.012544524372434966,
      0.006772594542336309,
      0.022793799625051524,
      -0.016210315575758548,
      0.01679822959065922,
      0.09802023383149937,
      0.001960247361250563,
      0.0004887115683012593,
      0.0705818195858872,
      0.024116508858380854,
      0.010189991871787943,
      0.009476053548098608,
      -0.016435845302629044,
      -0.011204766259700134,
      0.056711412643386014,
      0.011824293550902686
    ],
    [
      -0.02438161837782209,
      0.009981127499941712,
      0.0014350895496733477,
      -0.01902593975757418,
      0.014586920453883191,
      -0.0038787332071788523,
      0.0015941931222958794,
      -0.005036435678914749,
      0.002251141260257397,
      0.0018719944453701805,
      -0.011117510777077537,
      0.0054499469039782835,
      -0.003108448690980506,
      0.007696347013957814,
      -0.00931108751626738,
      -0.0008217564337239772,
      -0.010581834766656518,
      -0.013358281101730127,
      0.011839933312041561,
      -0.004988586606157864,
      -0.09533506544771346,
      -0.07458181649184707,
      0.08641010832306074,
      -0.039580600122266996,
      0.04705415523367792,
      0.028229080192891862,
      -0.0028951260807901467,
      0.0018138135163591421,
      0.16586377772883712,
      0.15666989317689178,
      0.09347631340662267,
      0.002001061847360819,
      0.010262578262261443,
      -0.0003246242912849453,
      -0.018727239047005347,
      -0.012969501922784513,
      0.0041868837626159346,
      0.0036540277686943515,
      -0.004774826188344709,
      0.010076754733812567,
      0.019397857878619803,
      -0.01353318391175061,
      0.015013855247247587,
      0.09691223476053872,
      0.0019343292078713731,
      -0.00490960151952775,
      0.07378806500699452,
      0.015034273962562768,
      0.0023407612539845073,
      0.015594932378059671,
      -0.014729246043443073,
      -0.0077554539992332255,
      0.061642971436975724,
      0.013606268861185046
    ],
    [
      -0.029349978674849495,
      0.007186763687183011,
      0.004155939554876693,
      -0.018987545676850657,
      0.011769636563932645,
      -0.0017002964445500077,
      0.006482055324742659,
      -0.014875195043419005,
      0.008943771349643578,
      -0.013687751121317659,
      -0.00885606320679808,
      0.010275189898315745,
      0.004934121013131654,
      -1.8181580963015902e-05,
      -0.006473089313410856,
      -0.009072908449924259,
      -0.0081457221309025,
      -0.004122762580746633,
      0.002237273730509911,
      0.01046016887342055,
      -0.09257783460876505,
      -0.07057380187842084,
      0.08194389678637223,
      -0.037752757554613214,
      0.051650308422422346,
      0.035456354812164574,
      -0.01404670963482706,
      0.013066343587796028,
      0.1581194092031209,
      0.1634934603924306,
      0.0843843317139291,
      0.010298883046813962,
      0.0037866281610585057,
      0.011806753560947455,
      -0.00819393870419416,
      -0.0072050246067955305,
      -0.0006609886241612836,
      -0.01586184955658143,
      -0.001671713216483209,
      0.016322525563446766,
      0.020576590579770446,
      -0.015972904812233294,
      0.01976176534948348,
      0.09834067194112237,
      -0.0005598268073500416,
      -0.003955191243302887,
      0.06268402290538796,
      0.013058018144791829,
      0.015053836046059185,
      0.009159568313178107,
      -0.021553721128983003,
      -0.012863475906093984,
      0.049846826799208425,
      0.0019101745341755837
    ],
    [
      -0.018726139133235502,
      0.012749053597746212,
      0.0041703207406694615,
      -0.01581734874702363,
      0.019473250155836185,
      0.005669956198705784,
      -0.0032392261093005742,
      -0.01108822236731911,
      0.006436223905285577,
      0.000107739019291655,
      -0.011615500884404432,
      0.008339440248636684,
      -0.012140794503477565,
      0.009922268548941213,
      -0.0069973241614956685,
      -0.009253617704138163,
      -0.012795473686965883,
      -0.0027808989476878405,
      0.018090336618241207,
      -0.0021289424340205226,
      -0.09827102424734387,
      -0.06587525754466013,
      0.07835143512365725,
      -0.03933383665144463,
      0.044228902531083844,
      0.02462842516927348,
      0.0011823358624109001,
      -0.0020711793085952082,
      0.16548451956838228,
      0.16258241047091215,
      0.0954440062815929,
      0.010720654178924365,
      0.007406156708270963,
      0.02149068459163204,
      -0.024135361895079137,
      -0.010309047068296034,
      0.005622241858584974,
      -0.004950248175229766,
      -0.003243812954556844,
      0.007988893886168694,
      0.02971917283253358,
      -0.012314385863015684,
      0.007685267343379073,
      0.10390845408420062,
      -0.014993985384829595,
      -0.0020485353053692067,
      0.06512523468449835,
      0.012726399679147855,
      0.011180510981350722,
      0.0013567943944852987,
      -0.018172547445303472,
      -0.0029792232842405907,
      0.05894111036325534,
      0.011574198537730774
    ],
    [
      -0.030353679797562476,
      0.01581624604088598,
      0.004631652478837662,
      -0.018090331910489595,
      0.0030359855902273706,
      -0.0027291010866357704,
      0.001480188979720228,
      -0.012940273351319021,
      -0.0030184192450218236,
      -0.002095983632369502,
      -0.016225431828577146,
      0.015475903151809169,
      0.0037260208520411035,
      -0.002972298349524295,
      -0.02193320442826706,
      0.007870357604035165,
      -0.010639901761190139,
      0.008226720172971345,
      -0.006443308161971717,
      -0.003169310179374011,
      -0.09803816913171966,
      -0.08440972672626998,
      0.09864932412124387,
      -0.04575658262166834,
      0.04931516039472491,
      0.025973046771181965,
      0.007966640328090017,
      -0.008772505315170459,
      0.17035389934682849,
      0.1530598504789474,
      0.09430455795855142,
      0.004269572536626463,
      0.005418597281640644,
      0.01042195826532094,
      -0.02190563485594262,
      -0.007271264543825678,
      0.009074185899139936,
      -0.00038138471245820985,
      -0.0065127271260823115,
      0.012915855596109664,
      0.025059247324178573,
      -0.013184952783440283,
      0.011512609277794218,
      0.093271309228933,
      -0.009420395660114123,
      -0.002204559861639359,
      0.06998697543097814,
      0.01790508652510756,
      0.016102193549460686,
      0.0027655946315909364,
      -0.014142050840672384,
      -0.013898817236730811,
      0.053720929499867676,
      0.0065876758927291765
    ],
    [
      -0.016433924514108023,
      0.020078730628022762,
      -0.004019820186459801,
      -0.011101128835949813,
      0.00926967751289854,
      0.00271294476564041,
      0.0014049671354656845,
      -0.011539780257426116,
      -0.006595971862570939,
      -0.003070419856265378,
      -0.02105504596126567,
      0.013174341097191712,
      0.002151590077465725,
      -0.004375479259706169,
      -0.01209490394593145,
      -0.005413860154535088,
      0.0036419955460976093,
      0.0036015124762176064,
      0.011407268902671741,
      -0.011191697251917248,
      -0.09060940022151678,
      -0.08085181194439393,
      0.09073361163570023,
      -0.03535767745089264,
      0.0470326982084702,
      0.04050542566642744,
      -0.004291539697750918,
      0.0035609066709900543,
      0.16128284165792178,
      0.16087083704639363,
      0.09144148772766685,
      0.00998706223351166,
      0.012405800056180279,
      0.011030023572620756,
      -0.021551207470486344,
      -0.011346865846165658,
      0.004780103655751478,
      -0.0031435850916634433,
      -0.01646128195346869,
      0.014313423435234328,
      0.0297519040174201,
      -0.0044946345468625665,
      0.02108589585542677,
      0.10643155217346628,
      0.0009232142447305262,
      0.001285884930768047,
      0.06581372861909161,
      0.012169282825550555,
      0.012009954673912892,
      0.020476952724539105,
      -0.03085865294341272,
      -0.011567124436004609,
      0.0547891972616071,
      0.006620316107062727
    ],
    [
      -0.02316778623474412,
      0.013057951832406326,
      -0.001023359993323653,
      -0.021805566045385527,
      0.012866647116401786,
      0.009334492603965605,
      0.0023643153038394272,
      0.0024470852098372876,
      -0.0069198706851700525,
      0.0013064719169312688,
      -0.016901654238537987,
      0.006405821341420741,
      -0.006613546767438778,
      -0.001100941220731006,
      0.0022431438654819482,
      0.0074374461152378725,
      -0.005040661278081534,
      -0.0035112874429102606,
      -0.003260583119675184,
      -0.004678337316820984,
      -0.09357867803601093,
      -0.08068266203121895,
      0.09020194914714003,
      -0.03437151769745857,
      0.058486549826922,
      0.017563690013333955,
      0.009831735871587562,
      -0.01049416025824288,
      0.16872033292102845,
      0.16862771080135355,
      0.09682159943844094,
      0.017207940101311422,
      0.00754114893999539,
      0.009624589828239213,
      -0.020860979566047086,
      -0.014505038476626361,
      0.006570385304967934,
      -0.00469206268415512,
      -0.008005579706501119,
      0.015579195751258232,
      0.02671021872767089,
      -0.009726866152172215,
      0.008190223831944319,
      0.09652691307957421,
      0.003401428111083013,
      -0.004108735047611267,
      0.06625986483814776,
      0.025352409704609544,
      0.007963865365635854,
      0.009189442138475255,
      -0.013896042479571196,
      -0.009126333714214663,
      0.05406391540288395,
      0.007264722027354998
    ],
    [
      -0.022383844453686574,
      0.017664606129451175,
      0.0020589502170316265,
      -0.02990081080265974,
      -0.0024169591992805484,
      -0.0018531628689093757,
      -2.5549828642614306e-06,
      -0.004168385132369888,
      -0.005800408799899812,
      0.0016342610609337387,
      -0.011190156468300587,
      0.014740043223800169,
      0.002424589676128429,
      -0.004162687082830846,
      -0.0002308621404053376,
      -0.0007090364112842572,
      -0.005626333514717413,
      -0.0022339077235969365,
      -0.0016403663935246869,
      0.0037837383155596973,
      -0.10111659971937212,
      -0.08406346897415364,
      0.09439297233618596,
      -0.0365271647544023,
      0.05710436908645937,
      0.02817788302767431,
      -0.001974529304074031,
      0.001373945903155222,
      0.1610002619904649,
      0.1571103409246514,
      0.08854309741439562,
      0.011756944951189058,
      0.009620453625542084,
      0.01742741216422073,
      -0.01362891426025465,
      -0.00665878457343802,
      -0.0006069425577946231,
      -0.01249029742127529,
      -0.00747039855821088,
      0.008512608725811227,
      0.024243055996839603,
      -0.01863765505946764,
      0.010307058604484332,
      0.11020276102683903,
      -0.0015513978848350142,
      0.005251731630454605,
      0.0667094597552016,
      0.02941875963331045,
      0.02130934314904127,
      -0.0014311020860565378,
      -0.014050911212625666,
      -0.01656277319930114,
      0.05842355891372997,
      0.010538746137736095
    ],
    [
      -0.015426465060290688,
      0.003938427074850403,
      -0.0013019518150891526,
      -0.02467568797753585,
      0.01006458703284567,
      0.0037041924124141283,
      0.005018153287749711,
      -0.009430956022379401,
      0.0010956265979531763,
      -0.012133644766339343,
      -0.010440738823916848,
      0.003549597217150891,
      0.009925203053897507,
      -0.004190864069863898,
      -0.007010007515494401,
      -0.005228046933210072,
      0.0031103685008925484,
      0.002133677199192269,
      -0.008712149368721356,
      0.009895436111631104,
      -0.10194116579068985,
      -0.06808888914700484,
      0.07874154925549026,
      -0.034813272145154006,
      0.0385996701265058,
      0.030351351201438313,
      7.779138325937716e-05,
      -0.0006223069970042617,
      0.16257551064468234,
      0.1537197664674776,
      0.10161491553374846,
      0.0034454847130153,
      0.001052429353564807,
      0.006331949392910961,
      -0.021321747374664277,
      -0.0003525514837784084,
      0.012123524760973172,
      3.437906513168191e-05,
      -0.0007958374335720229,
      0.010626265085478528,
      0.018080367387724085,
      -0.014621538071539049,
      0.016777779020782216,
      0.0913227140458208,
      -0.005605757615956889,
      -0.009566056085728266,
      0.05676482465105269,
      0.028906249254901296,
      0.016588207046041626,
      0.004500653613019642,
      -0.007677500568548867,
      -0.020912222888325976,
      0.048688889984778355,
      0.0009814746959741956
    ],
    [
      -0.016334688034472498,
      0.009306965140185574,
      0.0017407307637020003,
      -0.021312428163222583,
      0.02473705768824558,
      0.0036608746531415957,
      -0.0024025932058145813,
      -0.007849708924624488,
      0.0058542172098569505,
      0.0020269510758306694,
      -0.019731156764199505,
      0.0008001264526296312,
      -0.008403919996802489,
      0.01546156225948771,
      -0.013436961181246957,
      -0.0013545973959063007,
      0.001039043084029863,
      -0.004943346118980058,
      0.0008501454019353375,
      -0.0004494693312291182,
      -0.09867429985906209,
      -0.07151033113933686,
      0.0844443775121,
      -0.040279467431383935,
      0.0516236366486756,
      0.02057179867459165,
      -0.003128691100532607,
      0.0026350090354632424,
      0.17808144507116053,
      0.15922125344402369,
      0.09165226462833367,
      0.020119430746438287,
      0.010818638740409846,
      0.006497834317842005,
      -0.02735242485439274,
      -0.01403267836294048,
      -0.005991833958822275,
      0.003200130405343904,
      -0.008355558272136474,
      0.011147993933069783,
      0.02125604847753132,
      -0.01153546191924119,
      0.010344496786747835,
      0.10526489358570038,
      0.005862401296366929,
      -0.006173598989340351,
      0.06983268925878533,
      0.023356864647872337,
      0.012482821913746934,
      0.009245456750574496,
      -0.01507799415579733,
      -0.013913008025029955,
      0.05286446819272833,
      0.0027541583578270454
    ],
    [
      -0.02825027491776342,
      0.01455026361051348,
      -0.002764565471416531,
      -0.022176511250131536,
      0.01407698788460729,
      -0.010766785768547203,
      0.01864779678339716,
      -0.0009070775753548498,
      -0.0024817901788889533,
      -0.007316015853833051,
      -0.009954041197578999,
      0.00819898744222364,
      0.006546840375220207,
      -0.00022051207671123813,
      -0.008890909918002454,
      -0.007177080863186787,
      -0.015417504943771101,
      -0.004542683616495312,
      0.010940132810170875,
      0.006442476206368347,
      -0.09763826956667528,
      -0.07847647718549275,
      0.08758876282506371,
      -0.03266184463446606,
      0.0542955339618366,
      0.02555246138523389,
      -0.009244125677979524,
      0.00879653156824416,
      0.1685836666515116,
      0.156096347135853,
      0.09266242420675519,
      0.0087161411726725,
      0.010820800399595997,
      0.008469245905128538,
      -0.020040785137794368,
      -0.009646450951693971,
      -0.0020284072818622526,
      -0.007057093030996086,
      -0.005823173535170486,
      0.017933479133798044,
      0.02520000527896628,
      -0.022580527042507983,
      0.007276066099359003,
      0.09178663504959492,
      -0.0020690526116783035,
      -0.0005992236119343158,
      0.06505110381862063,
      0.013983265278954401,
      0.010168681457107445,
      0.01725246126508235,
      -0.017568935907158797,
      -0.01629204083329266,
      0.05005364725627987,
      0.0025496531766654356
    ],
    [
      -0.026970886800994104,
      0.010065617816352568,
      0.006765866867253729,
      -0.00874005846538445,
      0.008390895430217874,
      -0.010401196708058629,
      -0.00027204246531908026,
      -0.004668698008077895,
      -0.003706051969498819,
      0.0008793854414373438,
      -0.015426306040885074,
      0.016304079283727006,
      0.0003603733713399425,
      0.0022794167741245416,
      -0.0017611993040748146,
      -0.008291834254549308,
      0.0044131355422099275,
      -0.008514901868455492,
      0.006572788006478274,
      0.0018505837060963214,
      -0.09692724963130345,
      -0.08443602618707083,
      0.1017458987520314,
      -0.05171401510796702,
      0.05312663562179558,
      0.026848805294618718,
      -0.002477680989115593,
      0.0020678755917720474,
      0.16897068529334686,
      0.16802905494095458,
      0.09704470538205093,
      0.014053091869395145,
      0.0010931304079575947,
      0.010147921791069239,
      -0.0195213859053299,
      -0.006664050793066936,
      0.009486424355204352,
      0.0014012051235140345,
      -0.01125061683306701,
      0.011180207668639659,
      0.02047335210856113,
      -0.01696251247516837,
      0.021182559848769843,
      0.09156074682764831,
      -0.002437163343601106,
      -0.008628751622918988,
      0.072000882378518,
      0.01143958048673179,
      0.0076345613255148674,
      0.016382256033593293,
      -0.015455623320259362,
      -0.013758491827059545,
      0.060300793141956244,
      0.013708672991431716
    ]
  ]
}