{
  "weights": [
    0.004393356040830338,
    0.001183636043444322,
    0.006169483640773005,
    -0.012451275591550029,
    -0.013290872317949802,
    0.011562314123607507,
    0.013014486732680169,
    -0.002714979175720707,
    0.08778687632905006,
    0.00016188362398265443,
    0.008801254475305564,
    0.016636421032763003,
    0.007659614679455299,
    -0.00016119665936607097,
    -0.0018892848241362763,
    -0.0007979916676969306,
    0.00010106367487345144,
    0.018478106036059226,
    0.024307667044272587,
    0.0029335129132053877,
    0.0010268232418288452,
    -0.004704086644435497,
    -0.004059679164507215,
    0.002975363334594313,
    -0.0013715577953210256,
    0.0008097183664684277,
    0.0015463478344984781,
    -0.10194059660000093,
    -0.05115167235000705,
    0.1066625041957361,
    -0.03238359351980713,
    0.08274893303616898,
    -0.03822077093688867,
    0.0122344700997495,
    0.029865367043037567,
    -0.007579962936194513,
    0.0026615108604306948,
    0.00995164517359571,
    -0.009950418112179223,
    0.16972011196588263,
    -0.04691290108742911,
    -0.02898545706084586,
    0.001335171880377871,
    0.0091323040246928,
    -0.012080313410254517,
    -0.017118914237862985,
    0.10371920700383147,
    0.001317457959663221,
    -0.006622905487072124,
    0.024591126720885686,
    0.0017492429291167339,
    0.00010291438211547865,
    -0.008650642258210916,
    -0.006900971882967984,
    -0.0057093358965004636,
    -0.00019687316012618382,
    -0.008841279797630087,
    0.004905683510831382,
    0.013102098608489512,
    0.004937720501920889,
    0.002757192463172988,
    -0.0007064787461575849,
    0.0005411623886776518,
    -0.005715552893464559,
    -0.02033528563004219,
    0.07461394723450324,
    0.020486968701191814,
    0.10935902739256449,
    -0.021102438669582765,
    -0.004810250774843777,
    -0.0012911284299106575,
    0.003274196324533726,
    0.009315269426631297,
    0.18019931375886689,
    -0.02491189358069869,
    0.023530427110351526,
    0.006091409982554107,
    0.004132444902874718,
    -0.013125193859456208,
    -0.007402926713148059,
    0.03544974300089297,
    -0.013313149921819364,
    0.03570424267776805
  ],
  "bias": -0.043519176831096254,
  "learning_rate": 0.0015,
  "n_iterations": 3000,
  "optimizer": "adam",
  "batch_size": 256,
  "regularization": 0.0006,
  "l1_ratio": 0.5,
  "momentum": 0.0,
  "lr_schedule": "constant",
  "use_focal_loss": false,
  "focal_gamma": 2.0,
  "loss_history": [
    0.6797785012895183,
    0.6763852987282822,
    0.6760178925534994,
    0.6763868551746247,
    0.6759667172689867,
    0.6755980994977208,
    0.6756531316546519,
    0.6759336380466324,
    0.6759919668167705,
    0.6762486703219178,
    0.675269880029085,
    0.6753241336004355,
    0.6751435964442293,
    0.675652197857555,
    0.6759171918310979,
    0.6750326018726128,
    0.6755568499720602,
    0.6752079443739191,
    0.6750897276989699,
    0.6749465617429581,
    0.6752802910093714,
    0.6755576228401419,
    0.6749892290162326,
    0.6753174170056401,
    0.6750884109669295,
    0.6756450231413692,
    0.6752404702979378,
    0.6751508532765652,
    0.6748486715318223,
    0.6754407720233556,
    0.6749788198250752,
    0.6749566556231563,
    0.6754774525320869,
    0.675198282453117,
    0.6749695685019874,
    0.6752372690977412,
    0.675210451489042,
    0.675071813979998,
    0.6752386059515941,
    0.6752002925799326,
    0.6753179695402589,
    0.6750059188345026,
    0.6752797479338675,
    0.6751614358636359,
    0.6748244575128907,
    0.6747278107960029,
    0.6749109463435243,
    0.6748049616366492,
    0.6748266603175276,
    0.6755074579630552,
    0.6748731037517379,
    0.6746719169685319,
    0.6747306536751595,
    0.6751860934075183,
    0.6748994345959708,
    0.674600356037897,
    0.6751862693131011,
    0.6750918027979135,
    0.6753436646098,
    0.6747878760005941,
    0.6750302390450179,
    0.6748730654636258,
    0.6754131284506695,
    0.6746045384848803,
    0.6747510582149887,
    0.6749593730478575,
    0.6760944438732797,
    0.6751559424281027,
    0.6752975601643461,
    0.6748220250150562,
    0.6748924305604017,
    0.6752502041642309,
    0.6747234854294625,
    0.6754709892262488,
    0.6749220700289631,
    0.674858289224078,
    0.6749057405966047,
    0.6750673684648192,
    0.6749979057215351,
    0.6752731816617488,
    0.6746719225535953,
    0.6749713344203093,
    0.6753091752230023,
    0.674714308659411,
    0.674814343312867,
    0.6750359583415653,
    0.6748744119591585,
    0.6749536653701936,
    0.6748321842339309,
    0.6748722903450384,
    0.6748626212435913,
    0.6750724270171433,
    0.6750396152502462,
    0.6751270333548476,
    0.6749610322467938,
    0.6746229993962236,
    0.6750880741439067,
    0.675399329937564,
    0.6747451638720422,
    0.6752264040004623,
    0.6748820028183313,
    0.6750851674959601,
    0.6746868816970355,
    0.6746092279130659,
    0.675053924518975,
    0.6753166589932125,
    0.6750613506555648,
    0.6750564247652803,
    0.6747240138089687,
    0.6751690090022099,
    0.6751082616714651,
    0.6748566922707353,
    0.6749476859607727,
    0.6754334369475917,
    0.6751865104602176,
    0.6748833827924691,
    0.6751752995366327,
    0.6750582912328188,
    0.6749239863880753,
    0.6751152115496589,
    0.6754653703457516,
    0.675152183139212,
    0.6749746266622076,
    0.6752996799885165,
    0.6750311574344575,
    0.6745039780246922,
    0.6747858689281993,
    0.674937037389515,
    0.6749700679049052,
    0.6748816276309777,
    0.6751974729178952,
    0.6747097742921218,
    0.6750286231433478,
    0.6748859004849088,
    0.6749733157539995,
    0.6751027236882504,
    0.6750476249322633,
    0.6749797420576215,
    0.674891381664778,
    0.6750030252223491,
    0.6748984399790479,
    0.6748718271130011,
    0.6746429331540525,
    0.6746846185266349,
    0.6748399822269444,
    0.6748960455359917,
    0.6755812817335369,
    0.6748598447079407,
    0.675221157973103,
    0.6754220014208547,
    0.6748667241723089,
    0.674923311034717,
    0.6748494249154637,
    0.6747654201929617,
    0.6747503126178795,
    0.6749446509198399,
    0.6752286376867939,
    0.6752908672295991,
    0.6750176564892924,
    0.6750006490910849,
    0.6749303426882604,
    0.6749984693695484,
    0.6747982870661035,
    0.6746453085400163,
    0.6749051783496043,
    0.6749925213439393,
    0.6751183929899449,
    0.6748352707512701,
    0.6749726810453819,
    0.6747531118463664,
    0.6745457643433046,
    0.6748539327613284,
    0.6750632245880995,
    0.6755693077565622,
    0.674678333364533,
    0.6751138116453677,
    0.6750981899617186,
    0.6748507210268004,
    0.6748361982679075,
    0.6749520097593171,
    0.6749949265081225,
    0.6749256833618597,
    0.674910947508959,
    0.6748010824020263,
    0.6751395905511713,
    0.6746125427984915,
    0.6754571639950226,
    0.6747224632570923,
    0.6746695757446514,
    0.6750641396112177,
    0.6752833212151574,
    0.6746563678165319,
    0.6751230242532591,
    0.6751002685668904,
    0.6750826537464687,
    0.674791734989642,
    0.674882341187685,
    0.6749950129041724,
    0.6748968611154066,
    0.6749492622486809,
    0.6746518761824305,
    0.6749690750563914,
    0.6752618288681768,
    0.6753414160591282,
    0.6749926651090689,
    0.6748997689261927,
    0.6750169161638224,
    0.6748143540803869,
    0.6750573706750572,
    0.6746196228681663,
    0.6750098399744849,
    0.6750179936260811,
    0.6752316109837524,
    0.6748853090111446,
    0.6752502712706765,
    0.6750041982668118,
    0.6752514534899684,
    0.6745969188609614,
    0.6745705330346758,
    0.6749845250801211,
    0.6752388666833823,
    0.6750640029239813,
    0.674741155848954,
    0.6752207739408078,
    0.6751251316544207,
    0.6754448382564896,
    0.6750965514140186,
    0.6754494413356408,
    0.6750238481070965,
    0.6749717768812322,
    0.6749468529878027,
    0.6750694320325845,
    0.6750705940407815,
    0.675018881053523,
    0.6748667668124624,
    0.674792576192927,
    0.6748637684954164,
    0.674943358392667,
    0.6749176382599003,
    0.675233336727171,
    0.6751550559417618,
    0.6748824073528913,
    0.6748456030330798,
    0.6750374862411763,
    0.6755460352498204,
    0.6750177339116802,
    0.6749395724459686,
    0.6748519541867337,
    0.674790720406685,
    0.6745383341559065,
    0.6747761179476754,
    0.6747258700276489,
    0.6750168710056068,
    0.6750190152844557,
    0.6748295832266534,
    0.6750290994394992,
    0.6751620165486769,
    0.6752611939489537,
    0.6750225369604975,
    0.6748995450025439,
    0.6750490657492467,
    0.6748196528290272,
    0.6747005320397171,
    0.6747876215732376,
    0.6749536403698064,
    0.6748958887998778,
    0.6748614836487253,
    0.6750655093872285,
    0.6752458147300501,
    0.6749538102816742,
    0.6747661827267539,
    0.6749613179353731,
    0.6747628986974022,
    0.6752118057674734,
    0.6753013311809052,
    0.6749629205104161,
    0.674805131046548,
    0.6752511147237122,
    0.6750239657382793,
    0.6752598018918409,
    0.6748309624703779,
    0.675055694398216,
    0.6751830391287851,
    0.6746635862671542,
    0.6748423274074024,
    0.6747946907821509,
    0.6749288790311592,
    0.6764326444144948,
    0.6748294443168876,
    0.6756419211122343,
    0.6747392954511273,
    0.6750055238074348,
    0.6751537895533452,
    0.6750946784723361,
    0.6750571308899579,
    0.674817400154659,
    0.6748768764073345,
    0.674888380360142,
    0.674803391888338,
    0.6750814601166355,
    0.675350296029516,
    0.6750796807100203,
    0.6755023889992854,
    0.6755743854200771,
    0.6749063808532683,
    0.6747793244309221,
    0.6747874583110977,
    0.6747889234508299,
    0.6748380131608596,
    0.6749738525009277,
    0.6749030770607954,
    0.6748070666885003,
    0.6747704060579957,
    0.6747807290366835,
    0.6750088216060156,
    0.6748173303594933,
    0.6750409738448488,
    0.6750404142091793,
    0.6749880245023857,
    0.6748488569560133,
    0.6747280029056659,
    0.6748584909570068,
    0.6749880495332012,
    0.6749466587418869,
    0.6747204581768671,
    0.6745900290619015,
    0.6753606655654362,
    0.6748094220439296,
    0.6749916439317578,
    0.6750326868931037,
    0.6750798763879261,
    0.6750806389800584,
    0.6747574775356685,
    0.6748506803355543,
    0.6747311118689407,
    0.6748317812701432,
    0.6747448889971513,
    0.6748511441924899,
    0.6751090192707063,
    0.6753283348473642,
    0.6750453787848716,
    0.6748196310625745,
    0.6749829874286083,
    0.6750606868261191,
    0.6750932235585314,
    0.675568875323563,
    0.6747971329954074,
    0.6747625801557692,
    0.6746890180444849,
    0.6753625691936433,
    0.6750956036706884,
    0.67520563803931,
    0.6749442331100368,
    0.6748719525270908,
    0.6749511462030283,
    0.6760353207182898,
    0.6750540722073906,
    0.6749953808122072,
    0.6750764788380926,
    0.6752351542359063,
    0.675183685932039,
    0.6749551554903602,
    0.6746283708329393,
    0.6747005697089808,
    0.6754573374596297,
    0.6747765336388052,
    0.6749117493724788,
    0.6751538691672406,
    0.6748401288388081,
    0.6750316137012063,
    0.6751807936600167,
    0.6749282760520274,
    0.6747346524682181,
    0.6746576881234315,
    0.6752473434976483,
    0.6748424218628719,
    0.6749984919220486,
    0.674905898625981,
    0.6747785074800018,
    0.6750785663695632,
    0.6752905489923391,
    0.6749036085177573,
    0.675042641272381,
    0.6749006493433399,
    0.6750742537477198,
    0.674994069932819,
    0.6753183760624767,
    0.6747905149197523,
    0.6750315145969085,
    0.6751903322737207,
    0.6747636289820967,
    0.6748353390359386,
    0.6747096692458834,
    0.6748817142077542,
    0.6752575300676494,
    0.674911191877023,
    0.6749740955976451,
    0.6748293928350282,
    0.6752790454533737,
    0.6747509478252376,
    0.6752693815358523,
    0.6749865768249653,
    0.6749212080080635,
    0.6749108729552094,
    0.675156854757559,
    0.6749543071541605,
    0.6753159722265537,
    0.6749513821862699,
    0.6752060855048161,
    0.6750317695923853,
    0.6749289844750888,
    0.675255601756189,
    0.6748882223868551,
    0.6749176943513263,
    0.6753278826702704,
    0.6751867831496382,
    0.675280813592107,
    0.6754827940695386,
    0.674630382515056,
    0.6748153980532454,
    0.6749845707494269,
    0.6753875183995752,
    0.6751699187513414,
    0.6752937380311107,
    0.6750868896904031,
    0.6747911438332044,
    0.6750684689412533,
    0.6745574158455159,
    0.6752307895201702,
    0.6755123370587808,
    0.6748957805314747,
    0.6750007703523736,
    0.6747725781333032,
    0.6751153299426899,
    0.6748654264046943,
    0.6747134765397361,
    0.6747967303357832,
    0.6748883706423593,
    0.6748346192793122,
    0.6749315579013744,
    0.6749488744401309,
    0.6750150817179881,
    0.6751966931567004,
    0.6751046258255562,
    0.6751691712366602,
    0.6750104575765802,
    0.6747159485162533,
    0.6750174542592186,
    0.6748509637594822,
    0.6752081689269077,
    0.674906196586704,
    0.6752451403355414,
    0.6747312874777667,
    0.6748782054797037,
    0.6749253441865561,
    0.67532327211846,
    0.6752010763793816,
    0.6747379405140455,
    0.6752175662978451,
    0.6751041488058332,
    0.6751689713225172,
    0.6752774148064836,
    0.6748795088673385,
    0.6752696849837029,
    0.6749215436522094,
    0.6759154965239657,
    0.6749431485273214,
    0.6748690923445927,
    0.674874048000828,
    0.6747892374565988,
    0.6749788245933863,
    0.6748774939802287,
    0.6752653712135945,
    0.6749089987823829,
    0.6747417001465097,
    0.6749792052817191
  ],
  "weight_history": [
    [
      0.07710499019708883,
      -0.021462782008086743,
      0.10054075986816374,
      0.23642008474350593,
      -0.036347652977485836,
      -0.036345104444677506,
      0.24514137139164802,
      0.11912897369546548,
      -0.07287655828981418,
      0.08422165261129948,
      -0.0719363771796017,
      -0.07229527861412716,
      0.03755982885541517,
      -0.29699869354293823,
      -0.26775917650104375,
      -0.0872839522836992,
      -0.15722188129985945,
      0.048780646479126936,
      -0.14095267271395895,
      -0.21923205204967727,
      0.22751281249986077,
      -0.03504727886293113,
      0.01048241031370739,
      -0.22116381074574376,
      -0.08450458756513327,
      0.01721852526320409,
      -0.17866885404018662,
      0.058319642889164164,
      -0.09323720698800872,
      -0.04527965144946067,
      -0.09340298068056462,
      0.2875293373321968,
      -0.002095175615184787,
      -0.16418857871089118,
      0.1276837331891919,
      -0.18951168814604943,
      0.0324219178127711,
      -0.3041997993720565,
      -0.20617446001766682,
      0.030558790342203726,
      0.11463224485599911,
      0.026601516306997256,
      -0.017952095034533468,
      -0.04674035832474923,
      -0.2295111240184105,
      -0.11174149215444244,
      -0.07150500484823163,
      0.16409719432313208,
      0.05333990321817445,
      -0.2736769086852322,
      0.05030758864375305,
      -0.05977636287706352,
      -0.10507867327993047,
      0.09495057462918767,
      0.16004216427764212,
      0.14456271080637878,
      -0.13027182436624352,
      -0.047999069614364884,
      0.05142205728623198,
      0.1514339726532541,
      -0.07438226732171065,
      -0.028819862467944293,
      -0.1717364943364162,
      -0.18568728002672208,
      0.12612846884024545,
      0.21052928223184325,
      -0.011178138744150613,
      0.15577851725249886,
      0.05613679819101396,
      -0.10014200733606154,
      0.0560994778406628,
      0.23874957792362506,
      -0.005561279817832906,
      0.2428797992006239,
      -0.4066633079511694,
      0.12758401217003632,
      0.013512325554850326,
      -0.04641494245082815,
      0.01424403498945029,
      -0.3085305315890097,
      -0.034099690245597496,
      0.05543462202303648,
      0.2294136479528773
    ],
    [
      0.013976628417398178,
      0.00963930144763893,
      0.017348199951192293,
      0.086936962161073,
      -0.031648338426956225,
      0.014417866441745591,
      0.06774923194395964,
      0.06815223175866245,
      -0.0008833965352057167,
      0.0002515001620519605,
      -0.07480912993201333,
      -0.07734335958977095,
      -0.01668130445172162,
      -0.08331395201490746,
      -0.1659232827435328,
      -0.16145978708208178,
      -7.810379772069502e-05,
      -0.0569871754395148,
      -0.11391695653030166,
      -0.18268639147870896,
      0.2609363424259362,
      -0.029605335209561035,
      -0.08815098331197783,
      -0.04815065491672851,
      -0.018463033243759877,
      -0.08690555377725728,
      -0.07493753821234547,
      -0.08728940269446177,
      -0.1410497765799932,
      0.0013240208020992917,
      -0.09459733960177161,
      0.13748748747977105,
      -0.08443498062179015,
      -0.029060164338187384,
      0.11616242443347442,
      -0.10069730191790303,
      0.015561312339751455,
      -0.2567930943422812,
      -0.24358169444826905,
      0.12232530659386096,
      0.025312280802091438,
      0.025724855116343034,
      0.005796136393327086,
      0.02865852369362645,
      -0.13437942884958873,
      -0.030641176429477848,
      0.055368223191451474,
      0.04129685142502174,
      0.011536673221351827,
      -0.024584218606685172,
      -0.03986375894075213,
      0.02446795009260405,
      -0.033749013922182956,
      -0.014238480043790434,
      0.024528325819163227,
      -0.0286740584635033,
      -0.030728026131331132,
      -0.018074882844631348,
      0.025220537718164137,
      0.10306172238115638,
      -0.10112590819652204,
      0.06006394655351238,
      -0.04031215451072545,
      -0.16251390901235716,
      0.13149266517277813,
      0.28493143120282816,
      0.006030192859397139,
      0.13231171924941554,
      -0.005703308074647379,
      -0.058201310125898506,
      0.07141301719217082,
      0.04106546308025548,
      -0.01966033471354059,
      0.20283146085120934,
      -0.16148061988136397,
      0.03705715523163495,
      -0.11158446792893513,
      -0.06824367999946547,
      -0.07040734136767732,
      -0.10685131017831408,
      -0.05483843596794644,
      -0.005233956608656851,
      0.06768554013805095
    ],
    [
      -0.006151114157385954,
      -0.004651152425603158,
      0.01791059207606485,
      -0.00876164784374904,
      -0.007113051045427761,
      0.012730101311220982,
      0.013183522311325871,
      -0.006530847146247398,
      5.279650474252566e-05,
      -9.790574691290119e-05,
      -0.05492924035548377,
      0.0030152090416904584,
      -0.005254670240176333,
      0.01399819966657333,
      -0.12340116823579776,
      -0.0800953444067293,
      0.00019574737523394856,
      0.010492350057037112,
      -0.007650764005333758,
      -0.0857660730974486,
      0.2429537911325945,
      -0.003064277024254493,
      -0.04729557768284983,
      -0.024996077566773738,
      -0.007918294274778522,
      -0.02520628284617283,
      -0.0347782425231989,
      -0.09143168328565147,
      -0.13488346572847223,
      0.015767797486883083,
      -0.08149679105837801,
      0.08220204637881054,
      -0.03680715737053391,
      0.008110576933882459,
      0.04029474686607356,
      -0.012299033291700482,
      -0.012668151810633091,
      -0.19345908827259856,
      -0.20927569183172506,
      0.168527385766446,
      -0.05097464324796842,
      -0.020049258028381874,
      0.003675628414601431,
      -0.0007792333997814636,
      -0.04348664022799625,
      -0.009663669300135612,
      0.10204984436646802,
      0.005455341383386972,
      -0.0008987042931267338,
      0.01213772783201463,
      -0.012461184273682667,
      0.001379168197459122,
      -0.009636603299873958,
      0.004464855606940594,
      -0.00320688649512833,
      -0.006055336449869914,
      -0.009673233260696648,
      0.009451259483689042,
      0.01448844994741891,
      0.06988705500528028,
      -0.050417435349759614,
      0.004129379355160805,
      -0.005518467598388384,
      -0.06502138693390484,
      0.06515360350313242,
      0.21603347085934455,
      0.021930625338210802,
      0.12025467082885186,
      -0.01685029426212543,
      -0.008765581179511135,
      0.0002187209482384996,
      -0.006857209646639368,
      0.016245621286216632,
      0.17940894432520418,
      -0.024929800786115047,
      0.01979891745464248,
      -0.05366036486225001,
      -0.036809759551652874,
      -0.05133244788092209,
      -0.06019174932921331,
      0.03667326234943849,
      -0.008047703866345948,
      0.032191554284358735
    ],
    [
      -0.00919226021401271,
      -0.011728498848304654,
      0.006814043772037317,
      -0.009916776855417305,
      -0.003067198447193483,
      0.019693047456784542,
      0.012626244646953784,
      0.0013731147050667601,
      0.008665099872699429,
      -0.00018884860602518954,
      -0.03946240450107667,
      0.01763746538232867,
      0.009423793599737008,
      -0.00393078052684254,
      -0.07835556515653808,
      -0.06843408901343603,
      -0.00010106305297657415,
      0.016087619990047184,
      0.0382338847951256,
      -0.05623627303693359,
      0.17228925932283798,
      -0.008101828871427085,
      0.007510680454105555,
      -0.012659432196115844,
      -0.006135790632991434,
      -0.002360928111782858,
      -0.00662158985030002,
      -0.09811601488287783,
      -0.1340764827561084,
      0.0306531668819444,
      -0.07061231004477354,
      0.07754817755432072,
      -0.04269750655253916,
      0.006629154860650272,
      0.03175267043171463,
      -0.0026822568255394164,
      0.0021623206881218856,
      -0.16567867733538066,
      -0.14509551718902147,
      0.17717475998131338,
      -0.046607987935646286,
      -0.020213003744837504,
      0.008433647937775764,
      0.01081727087953973,
      -0.011349289229854067,
      -0.013230245258560694,
      0.10258341626956959,
      -0.013158731537209813,
      -0.006730601228198619,
      0.014465450540912873,
      -0.00971805527452789,
      -0.0030611513205825846,
      -0.01643121142848001,
      0.013123672260286112,
      -0.006500087462965614,
      0.00664460948425963,
      -0.006098045466073976,
      0.007352274305437966,
      -0.0005759576303432196,
      0.030246682863796028,
      -0.012266237252996566,
      -0.0003922941547034655,
      0.0029110942163720743,
      -0.022678533540351882,
      -0.012981000747719518,
      0.18614498318241374,
      0.006106339779037609,
      0.11195784903209673,
      -0.031838064062903806,
      -0.005453510181201122,
      -0.004189046962522813,
      0.01146893678432657,
      0.0018069856666716208,
      0.18756302947193965,
      -0.014646409933167641,
      0.017197756002500893,
      -0.010863461907318345,
      -0.011664570461948272,
      -0.023769593228110855,
      -0.005454966452955878,
      0.0369143092417967,
      -0.009132657190444158,
      0.03806217827840579
    ],
    [
      -0.0031064293080628126,
      -0.006601722757826216,
      0.016833301931430983,
      -0.005605295978988544,
      -0.016462228472466256,
      0.009147774027023282,
      -0.004674183495149904,
      -0.0030967189830169765,
      0.011476245687626457,
      6.932459590710383e-05,
      -0.011449602698643011,
      0.018650079548043,
      0.022689244036446045,
      -0.004913624018363593,
      -0.057193432778902445,
      -0.026771078170746632,
      -0.0001340351883680517,
      0.03620565387217397,
      0.027696885108757723,
      -0.022937375146466172,
      0.11157713409672654,
      -0.008866768938893117,
      -0.00028427737874551313,
      0.0022348326298622812,
      0.0004666960636624174,
      -0.004612195471524131,
      0.0014293959582835063,
      -0.0894830438272846,
      -0.13380405324525305,
      0.04390346412914116,
      -0.05706997713774442,
      0.07976132061306518,
      -0.029730295273480967,
      0.00717567334677766,
      0.02939372420097948,
      -0.0060152156733254605,
      0.0017351554076693288,
      -0.10821349306676638,
      -0.11198402098104522,
      0.16864228145799082,
      -0.05917168938905925,
      -0.025010321142582427,
      0.0033810298201169585,
      0.0033087163001243873,
      -0.013677375152226218,
      -0.015106236310531452,
      0.10365356024909173,
      0.003973813660861454,
      -0.006048547888640652,
      0.014613825665891504,
      0.003980047532155649,
      -0.002259004298350696,
      -0.0116060590635401,
      -0.0010577882907326001,
      -0.007294615019629235,
      -0.007967237271673741,
      0.00574907691907395,
      0.008333630869682038,
      0.00874538454438284,
      0.01584570799108979,
      0.0008063838730479897,
      0.007348888827062977,
      -0.00805994671813103,
      -0.0012116347127173453,
      -0.013801894073410712,
      0.15657582485400837,
      0.023512580283984445,
      0.09899497919581386,
      -0.026861111878038003,
      -0.004583271640541826,
      0.0009713952194383276,
      0.0017696912036391913,
      0.004001682476849985,
      0.17257753415627894,
      -0.023246164647800834,
      0.01831607847580377,
      0.017014364316249787,
      0.012939802032615053,
      -0.02352962594969627,
      -0.023760064292393964,
      0.02757042384135312,
      -0.027484073563145257,
      0.03838325637960498
    ],
    [
      0.002810052476177827,
      -0.0019282416912922156,
      0.009042654753604079,
      -0.020049538108065645,
      -0.017031249777340614,
      0.01027217370092467,
      -0.00263988746420239,
      -0.009927925064466398,
      0.025515539311724286,
      1.771992938106196e-05,
      -0.003999195383162189,
      0.030169868152526914,
      0.021693488126326765,
      0.0026356094963887002,
      -0.01539642689734072,
      -0.012004776894937981,
      0.00019563060872651914,
      0.011788831671952342,
      0.044106961950541215,
      -0.0035100326491547605,
      0.04938030764495304,
      -0.008898402218374433,
      -0.001482842526660848,
      0.0010173621343666126,
      -0.0035950811359721276,
      0.004158357332861969,
      -0.0014868038656171967,
      -0.1000011637915639,
      -0.11839336482623973,
      0.049950314045015834,
      -0.06120471277477989,
      0.07480537524915414,
      -0.04482208837882054,
      0.0070436811171848395,
      0.028869638062866312,
      -0.00045807802271956744,
      0.0021308116108329396,
      -0.0665979197608907,
      -0.06770876997478202,
      0.16594496070161832,
      -0.05641148041122465,
      -0.04139382158872312,
      -0.01647192487300585,
      0.007900063977361886,
      -0.008129227997628096,
      -0.012126716203536307,
      0.10918974972346272,
      0.007303292402490691,
      -0.007213765625955875,
      0.018474803381945872,
      0.00497710152407893,
      0.006981620178340318,
      -0.01973068371420236,
      0.0006449322749449282,
      -0.020036347797231357,
      0.0021494222140545434,
      -0.012682599523915124,
      0.003759711793587195,
      0.009019919921258628,
      0.008369187482082985,
      0.002490547770680777,
      0.009402904100916392,
      -0.0040190296822216025,
      -0.008680800681736288,
      -0.019684456799889248,
      0.14686896661029916,
      0.01806129362947072,
      0.1009895283664437,
      -0.031788148982541745,
      0.0018545414233973202,
      0.0056423168951412845,
      -0.0015798481887766415,
      0.0013046231335254715,
      0.17219250497333555,
      -0.029807328825132803,
      0.029222607027570048,
      0.00169158870593983,
      0.014786866207850023,
      -0.0028526935553541515,
      -0.017686619613211066,
      0.033353428802973435,
      -0.007494658804237252,
      0.03227369545577947
    ],
    [
      -0.003887999812861624,
      -0.0013234250409959612,
      0.009565121663584841,
      -0.011751263645158177,
      -0.01445571855060907,
      0.013268638468165384,
      0.0013116640636585794,
      0.0007417270270559844,
      0.041215166063731094,
      -4.597421894695771e-05,
      -0.006670385397117853,
      0.01625046257690213,
      -0.006050138134919427,
      -0.0015697784136115072,
      -0.0044075769030134035,
      0.014049463963255132,
      -0.00010106367487140051,
      0.03720935832941049,
      0.019664736202049837,
      0.008310836939556263,
      0.020202399490541784,
      -0.0017541690993079415,
      0.0024119080856800017,
      0.001066934765846425,
      0.0066182463233948755,
      -0.006901596532578011,
      -0.0004047213747312592,
      -0.07879697665462955,
      -0.11232624976412751,
      0.0650994250152072,
      -0.0684046938738041,
      0.08480812543281654,
      -0.03798539047580932,
      0.003908004593017662,
      0.02509449126347486,
      -0.009326845828025307,
      -0.001435335280601127,
      -0.028103311447477755,
      -0.024168219691724547,
      0.16907043518523995,
      -0.055194242029456185,
      -0.02097659552942925,
      -0.0024581180642300154,
      0.007809450112672831,
      -0.008166964931832067,
      -0.01808083113285295,
      0.10085248042739646,
      0.004155177325414688,
      -0.006214743616294611,
      0.014524935573896105,
      -0.00489383724057651,
      0.009774159166708362,
      -0.012905903353172172,
      -0.009676604261465242,
      0.0040186764568890376,
      0.0059981758758039325,
      -0.009541083129888744,
      0.005401614397550375,
      0.01843004998105708,
      0.010228032182802006,
      0.009546203313358533,
      0.0056046617745956154,
      -0.00833420476548318,
      -0.00804422038591699,
      -0.022834532383186498,
      0.1347319331954172,
      0.006658456856502641,
      0.09875081794646819,
      -0.036099177792707424,
      0.0017860519266934378,
      0.0043441835305308785,
      -0.0015380690785948455,
      -0.008153841926144998,
      0.1752839650816329,
      -0.022878492466346524,
      0.0148856489846276,
      0.0021738884160999463,
      0.010362072409830694,
      -0.015534874277847555,
      -0.005838389243902323,
      0.04594497436921085,
      -0.004521943181487067,
      0.027273526416679884
    ],
    [
      0.003456098349034184,
      0.0013546980450622834,
      0.021658231321753804,
      -0.004099646556403613,
      -0.008099287570771059,
      0.015877598994207195,
      0.007825143154343973,
      0.0020040629342183923,
      0.049389880563987486,
      0.0002457117161603475,
      0.003687152397104595,
      0.030595965089988478,
      0.0015591041649987848,
      -0.013097660511667792,
      0.003322001586338236,
      0.00016068539135363785,
      -0.00013403519601273037,
      0.026427152971101767,
      0.013251524928837306,
      0.004576227488375486,
      0.005081415194068397,
      -0.008202531442085567,
      -0.0039127245477220025,
      0.006350568699019396,
      0.006322256384994892,
      0.01061412647666346,
      -0.011504189005246513,
      -0.08865205565095802,
      -0.09807774094573868,
      0.060160399736525524,
      -0.048601702437905146,
      0.0851098815086121,
      -0.03552188382899689,
      0.015572900516758935,
      0.036321914271620716,
      0.0031355120002565908,
      0.00688171760943298,
      0.0006359432174469907,
      -0.002654866110551694,
      0.16527048775209494,
      -0.049657293239583115,
      -0.0003610512801512189,
      0.014294553230908811,
      0.00849879875398283,
      -0.009024468035736108,
      -0.018235398770676068,
      0.10532019499748141,
      0.004191628432145517,
      -0.0072861588314539275,
      0.00972383482557992,
      0.005138982068516735,
      0.00032536177312055307,
      0.0011696463997691855,
      -0.012317289005091648,
      0.0001898776418538553,
      -0.0067633574507866565,
      -0.004887694090970941,
      0.0053200507282834516,
      0.012610702988586516,
      0.005979030620501527,
      0.005535527328339945,
      0.003106803955868361,
      0.0003533559286337556,
      0.0018183416221261852,
      -0.011777399068397662,
      0.12260572061301571,
      0.02584765017232925,
      0.11337591326318783,
      -0.017963913999117474,
      -0.011084258138073436,
      -0.009646217907654102,
      0.0010663427674172383,
      0.017799907998717602,
      0.17755611224041282,
      -0.026601870395736377,
      0.029156710394506975,
      0.02810478560109331,
      0.0018428461964249492,
      -0.005581169787256336,
      -0.03769273368942274,
      0.04791261678985347,
      -0.017294299971524416,
      0.03561865876614892
    ],
    [
      -0.0016768434574452181,
      -0.005480197290625647,
      0.009473375237598215,
      -0.007700182869595732,
      -0.015053330533636276,
      0.01030911214003071,
      0.002400768079414303,
      0.012483566244527844,
      0.06631461116529658,
      -9.792796544379213e-05,
      0.00926289469241286,
      0.01781153356967735,
      0.002250300079453733,
      -0.008644959524937393,
      0.0044254218996961706,
      0.004946705475571653,
      0.00019563060891920005,
      0.02019431217600575,
      0.015557278276600698,
      0.013577660188316527,
      0.011957045108495011,
      -0.007945615139996894,
      0.0017664356242585322,
      -0.003630697989006314,
      0.0016691823134188156,
      0.003644158816586012,
      -0.004190981666168493,
      -0.08515578611551929,
      -0.08391207328108045,
      0.05846193557645658,
      -0.036383238579011205,
      0.08597081912724806,
      -0.029244285137171182,
      0.0045307366867888225,
      0.029441185044829076,
      -0.0018807627842948207,
      0.0011969521467979885,
      0.0028714702999551043,
      -0.0028901943998361143,
      0.1734751662473866,
      -0.0566977471797418,
      -0.024981498524146974,
      0.004751084385776164,
      0.016313385462825875,
      -0.00046877996520069867,
      -0.0036562809908848772,
      0.09318312661951332,
      -0.004616707334324065,
      -0.014633083400034249,
      0.006439123357356386,
      -0.0028853237289679493,
      0.012905946264616826,
      -0.007664650906978416,
      0.0019684684008431826,
      -0.005032926120901201,
      0.0021702121697217227,
      -0.003037106593457519,
      -0.0009859424411904985,
      0.014844097624519664,
      0.001681199612490181,
      0.0034384583819955126,
      -0.002106830074367545,
      -0.0041177819601552245,
      -0.0008681963598052605,
      -0.013434431878658892,
      0.12041054407305819,
      0.0072978678848178895,
      0.1120889381634476,
      -0.03502159867880344,
      -0.00015489627901658557,
      0.001499369136323009,
      0.0029944947730820713,
      0.00278039757382328,
      0.17284909304540452,
      -0.01922975197671938,
      0.028052215377248974,
      0.01332138606352168,
      0.0033534355475870756,
      0.003123856479351092,
      -0.029736268390778108,
      0.025199268706987236,
      -0.02097632216809022,
      0.03526062950745507
    ],
    [
      -3.7688900470984435e-05,
      -0.0031309779923538745,
      0.007303969629653319,
      0.0014031061278307186,
      -0.008806888607875093,
      0.01870083204142584,
      -0.004726182886290092,
      0.003034268848503295,
      0.07213680626822015,
      -0.00018884878933544952,
      0.02190462228718761,
      0.0068857338947551985,
      0.004469943817817646,
      0.0060275915790990574,
      -0.01176452822782468,
      0.008396436010183564,
      -0.00010106367487343458,
      0.03560920761664571,
      0.008065013621175982,
      0.010402717937094326,
      0.008221527276545607,
      -0.004012375449106927,
      -0.0014358818535358405,
      -0.0004975150480147183,
      0.004810227842183075,
      0.009033965106051057,
      -0.006183004309642137,
      -0.09998409618513389,
      -0.08196644745231751,
      0.07741026579903255,
      -0.047442153415618395,
      0.07634285010731644,
      -0.04566281868363971,
      0.007204757926590079,
      0.02891083861485382,
      -0.0059440911685977255,
      -0.0020203110656904647,
      0.0025718128681080214,
      -0.0025701597604044393,
      0.17374637116524005,
      -0.0469310011221249,
      -0.021270692037577782,
      0.004820869491033429,
      0.011437503204471698,
      -0.004060656420213204,
      -0.010082546527031225,
      0.10003014926974176,
      0.006819139303245769,
      -0.0054269712559725574,
      0.0033295662121460763,
      -0.0006859392628414687,
      0.0014661711516398765,
      -0.012554848145999798,
      -0.0031826453971680662,
      0.0030185422822043536,
      -8.315753035699125e-05,
      0.0014528197571478537,
      0.002919821690035883,
      0.017515110972552945,
      0.006005774872444364,
      0.006500570883696813,
      0.007259751704442475,
      -0.0008368046521735357,
      0.010154502077402032,
      -0.0037278744092314165,
      0.10822506349214814,
      0.009575556437958368,
      0.11294055611542632,
      -0.02752814346748061,
      -0.009533097691083922,
      -0.0037892479765807667,
      -0.003946569889178925,
      0.005638368017390407,
      0.1820143613611139,
      -0.0176884252589433,
      0.020504460732294866,
      0.008789174776983858,
      0.0035272926154106057,
      -0.01570862461817651,
      -0.011890584691318587,
      0.04169406839333531,
      -0.009341269570948992,
      0.031694790347596674
    ],
    [
      -0.0036280208835343854,
      -0.0038409634753339104,
      -0.0014260463143988687,
      -0.0013417839001327206,
      -0.009127561963347236,
      0.01870445732337758,
      -0.002936757737602445,
      0.0030006199820675704,
      0.06775857845303421,
      6.932459675046147e-05,
      -0.006734782167885117,
      0.0083788336620519,
      0.020152386401377197,
      -0.0014339240591540268,
      -0.0009315137407202106,
      0.0006621085937711209,
      -0.000134035196012797,
      0.02372661937869156,
      0.026290508071148407,
      0.0003314760261964321,
      -0.0036414498290580294,
      0.005614796055472248,
      -0.01444455064215601,
      -0.0030231999985108624,
      0.005920030752225129,
      0.015669191981594013,
      0.003356425143111686,
      -0.10899130351294711,
      -0.06925427287984864,
      0.0771459356082727,
      -0.037524764668979915,
      0.07754725396840237,
      -0.03311382000966011,
      0.016097129743593976,
      0.023491419993012554,
      -0.013954360876450701,
      -0.005513451011110384,
      -0.002877294571702091,
      0.0028788837333672246,
      0.17251625055866515,
      -0.050221382231672926,
      -0.025364306164734833,
      0.00014387760860476277,
      0.001313060044564015,
      -0.016389764892436712,
      -0.01614105579964508,
      0.09691271450852058,
      0.003641176069604901,
      -0.001673325516429691,
      0.01849855537734131,
      -0.0007009940624004295,
      -0.001626303148209251,
      -0.01696161947456914,
      -0.004883123506331011,
      0.006152776223249108,
      0.00462065794241996,
      -0.0022624481339770294,
      0.002740645680648181,
      0.010065169386740512,
      0.004256859113591453,
      0.004031859950471391,
      0.0006777073104011201,
      -0.003222306912818598,
      -0.010698767829552319,
      -0.02306669113981125,
      0.08939386003576982,
      0.020326438826707663,
      0.10772416619466972,
      -0.02221526367619724,
      0.0004423477922600906,
      0.0024959557902540976,
      -0.010819483495139453,
      0.00953328759601882,
      0.1823257634853169,
      -0.011549302615398752,
      0.01949843666344577,
      0.01578977916108737,
      0.007013606469708952,
      -0.018424220681785834,
      -0.017812660254900012,
      0.032678344224382865,
      -0.015641374196757856,
      0.025040838423856633
    ],
    [
      -0.0040179886499378935,
      -0.0005883649855780635,
      0.01221007792116023,
      -0.010817654385578973,
      -0.012063946229446572,
      0.014562442477684382,
      0.011806247741125046,
      0.001636847181842285,
      0.08843854473738569,
      1.7719929385479733e-05,
      0.00649165943403705,
      0.019432359335437813,
      -0.00668002895376436,
      -0.0010026034860194622,
      -0.012047597691173476,
      0.008735266045739749,
      0.00019563060891918232,
      0.016597225988464456,
      0.024287073107879892,
      0.00272046522057567,
      -0.001245565803116061,
      4.7625995527948576e-05,
      -0.011329573092325523,
      -0.005665256308868339,
      0.007325572555243013,
      -0.00543514160719093,
      0.022299767580197492,
      -0.10279225761177219,
      -0.059586118396443004,
      0.08474990475884521,
      -0.04255780272917358,
      0.07378730967092621,
      -0.04602376596127886,
      0.009353445525055045,
      0.028286593364386936,
      -0.00013550252497509927,
      0.001995832529099716,
      -0.01015224442448573,
      0.01015377171758033,
      0.16254378097004854,
      -0.04801080800096176,
      -0.012987618205488143,
      0.012388349893212846,
      0.02197085815031497,
      0.0022532891488517516,
      -0.013669384548858639,
      0.10547846090598179,
      -0.0024234424508017285,
      -0.0026444287349906585,
      0.010621446858309307,
      -0.003232614913874396,
      -0.0005129469798556964,
      -0.0029454312510095782,
      0.006474081099466842,
      0.0026174035907153403,
      -0.0066012652731556615,
      0.0130313555958831,
      -0.0027421021110424788,
      0.0041132355154410594,
      -0.004069404390879224,
      -0.0018592923375625842,
      0.006632074837264593,
      0.0037703780909098873,
      0.0012803438044822477,
      -0.013289036326524319,
      0.10252162923465033,
      0.013008392460859632,
      0.10810288830575676,
      -0.03140266087655885,
      -0.00654980049205903,
      -0.0017198581213649822,
      0.0023203295292768345,
      0.005200200489087646,
      0.17588830527203073,
      -0.022044169421735444,
      0.025203039729502254,
      0.0037116955935143224,
      0.007989262620524268,
      -0.00511473310378623,
      -0.014868592687515189,
      0.03790607737212391,
      -0.010840724309422275,
      0.025298396543142736
    ],
    [
      -0.00442165286779561,
      -0.00537882997079168,
      -0.004100267566164626,
      -0.006324620943953,
      -0.008020839457217547,
      0.02282398238689089,
      0.003774311119906286,
      0.007935077216030817,
      0.08838263649593563,
      -4.5974218947247055e-05,
      0.009526975479663859,
      0.015724083499522385,
      -0.007917787579271883,
      -0.00667751778917184,
      -0.0014968489210023983,
      -0.003996507117104656,
      -0.00010106367487344976,
      0.024370853615545546,
      0.0286427354060485,
      0.004691861426685873,
      0.0022278633984722253,
      -0.006182949110511621,
      0.006025558577639818,
      0.005477897811174999,
      0.002069465547746776,
      -0.0036138398982668747,
      -0.008467022217250531,
      -0.09114798517874223,
      -0.059554622773574296,
      0.09652020649183189,
      -0.03716762385879441,
      0.08382104162761357,
      -0.03202771919242548,
      0.006198160801125254,
      0.028381825566084522,
      -0.003957891039093626,
      0.001765188066842371,
      -0.015331972411958656,
      0.015333287380314331,
      0.1667403949011926,
      -0.04269169704399063,
      -0.01625738731466936,
      0.01452480286683634,
      0.016174802321673346,
      -0.003462640524216793,
      -0.022867066711899763,
      0.0959732663014754,
      0.00277751578764014,
      -0.0028382748445420795,
      0.0065509387688697475,
      0.0010689764816397202,
      -0.003363466408266193,
      -0.012768159695782766,
      -0.0009882859675978506,
      -0.0190270032649471,
      0.0038267907026510893,
      -0.0013210530160017097,
      0.01212059212726474,
      0.0089149174316303,
      0.0004675694154076244,
      -0.0043418792125335835,
      0.0004023773179806698,
      -0.001174537158822761,
      0.004413334092619931,
      -0.010223155316674008,
      0.08991154880167629,
      0.021614988071386603,
      0.12722060610163038,
      -0.00511641249388818,
      0.00956625450321269,
      0.01232851060789027,
      0.0013079779647571096,
      0.022987377655456314,
      0.18574714926963137,
      -0.007866729771491372,
      0.021194505247679983,
      0.018926370811034324,
      0.009202640869498697,
      -0.013770460638891998,
      -0.022818329029116752,
      0.0335527881727048,
      -0.01907054269424744,
      0.033901718192945886
    ],
    [
      -0.015117937656252741,
      -0.015332081641134677,
      0.005336023259249433,
      -0.00573935823677651,
      -0.013216634904387403,
      0.011986443974428601,
      0.0037466195032196887,
      -0.007694958540243653,
      0.09040112967830141,
      0.00024571171616036237,
      0.00793468060611383,
      0.021695918042679688,
      0.007969893220045772,
      -0.003810475708862123,
      -0.013955027610729701,
      0.002035735952496527,
      -0.0001340351960128063,
      0.04169080974583646,
      0.007461383864692055,
      -0.004684672625487038,
      -0.00575541709440681,
      -0.00885464174010247,
      0.0031458997265277015,
      -2.4214653632597207e-05,
      0.0019174046972411857,
      -0.005146686730861223,
      0.0021776739817610897,
      -0.08988080561476,
      -0.05932318373004259,
      0.10579382018479667,
      -0.027743559953687325,
      0.07282129388928874,
      -0.04384195509608612,
      0.004080275703097686,
      0.025398446937936657,
      -0.004247731380742257,
      -0.0031275751859384388,
      -0.003295387446545536,
      0.0032966393064869683,
      0.15792175405724673,
      -0.05294522264761446,
      -0.009667204820178122,
      0.022514408797303872,
      0.020961436652360974,
      0.00211417474551999,
      -0.032557803662236914,
      0.09625400798218728,
      -0.0008315113067555034,
      -0.01782117121795323,
      0.01795769943895866,
      0.0039388104508360795,
      -0.007778148606499441,
      -0.006773740993993134,
      0.0085849396863777,
      0.0009643469164510478,
      0.014201549366231159,
      -0.01950861517952448,
      -0.01750048626174502,
      0.001774916643323147,
      -0.010463417887179307,
      -0.01091837281189594,
      0.005764161164236351,
      -0.012420375928696936,
      -0.015063224897699162,
      -0.027244912381694904,
      0.08864013688058058,
      0.02344584811601585,
      0.09194872016262538,
      -0.02775088625413248,
      -0.005893273057007455,
      -0.0018192632190501224,
      0.014621340688227779,
      -0.0015029677145875229,
      0.17354401100116304,
      -0.024024008201823724,
      0.022920016488700182,
      0.005552791740039546,
      0.0008881688654925741,
      -0.0035578579437198156,
      -0.012183672127094699,
      0.02693126537991247,
      -0.024746160862771035,
      0.04015808733381458
    ],
    [
      -0.0015926372835261939,
      5.57579264391535e-05,
      0.01613222784603794,
      -0.0070957086774225755,
      -0.008163615052141752,
      0.02371819807884689,
      0.008820789937980382,
      -0.0013069323089692302,
      0.10150957148231216,
      -9.79279654437934e-05,
      0.013075746924717484,
      0.00863492205032865,
      0.004112495719764734,
      -0.0012557023309907355,
      0.0026029696681232183,
      -0.002618722474808969,
      0.0001956306089191793,
      0.020651748682087724,
      0.027662640296087813,
      0.008341438747822102,
      0.006525463272214131,
      -0.009136736784109917,
      0.00017009289898562493,
      0.009363029902772685,
      -0.007992753431479233,
      -3.6773819103130194e-05,
      -0.004813590717319519,
      -0.1071470262090505,
      -0.04834637857387046,
      0.10829909093769129,
      -0.027133069606062408,
      0.07453822669224704,
      -0.04120342325196541,
      0.017618474353833943,
      0.023944146298772593,
      -0.007423483005775277,
      -0.006198950356602623,
      -0.013097332205126344,
      0.013098535177858686,
      0.16360830379445396,
      -0.0425046892132818,
      -0.02663390592183608,
      0.00043918320458035325,
      0.023772696864272184,
      0.0035410011190721465,
      -0.011237558268990965,
      0.09608181651007264,
      -0.012381022844694606,
      -0.018008425322696208,
      0.023759810928251385,
      -0.004240389238135097,
      -0.003116795856788144,
      -0.002138706619327538,
      -0.008131293488439481,
      0.005212545473334408,
      0.0055577240788619,
      -0.016945486920885947,
      0.0038558240041245764,
      0.011375285053014415,
      0.0012669072628357393,
      0.0007843815430301367,
      0.006521469096331839,
      -0.012000950273949566,
      -0.004125548188229732,
      -0.017736332024028093,
      0.08709229255537662,
      0.0015545548356721264,
      0.10907244157522449,
      -0.03661345114989787,
      0.006664113430410877,
      0.010847204313578296,
      0.009178673693360877,
      -0.0032381881768220673,
      0.18436812158103527,
      -0.00847660398427508,
      0.018843508846070094,
      0.02194311459564544,
      -0.004491582899453952,
      -0.01876755303357243,
      -0.015725203430533786,
      0.037348751828125706,
      -0.009998614876346052,
      0.02772058264709938
    ],
    [
      0.004881016742405431,
      0.0007449208423044591,
      0.010542207375862171,
      0.002019510997156891,
      -0.007190484633126199,
      0.017257334164589435,
      0.011163556012111601,
      -0.013681149467623353,
      0.09493131279324347,
      -0.00018884878933544955,
      0.0062497464055913865,
      0.015123506589876011,
      0.008158805835945018,
      -0.009616825036654706,
      -0.01451159170632512,
      0.0030105263739793036,
      -0.0001010636748734528,
      0.022799448868038568,
      0.028596320763112807,
      -0.0005462267083174018,
      -0.0038068675688400556,
      -0.004189110745337507,
      -0.001466165054021582,
      -0.003028518741588899,
      -0.010208197162873635,
      0.0030730801501076613,
      0.0035784232925182183,
      -0.10292746954979667,
      -0.0400557888897471,
      0.10732031286866506,
      -0.014729939683470365,
      0.07423609843966682,
      -0.0414351360308569,
      0.016449774426421523,
      0.029493912210614894,
      -0.008661854159956212,
      0.00047512001690518796,
      0.002300871514057111,
      -0.0022997163161066047,
      0.1521450335267661,
      -0.04350451570493015,
      -0.014628628114341197,
      0.013832539782687177,
      0.014000705530857475,
      -0.008311825236524139,
      -0.021586558205887625,
      0.10047037382787678,
      0.002716720261177164,
      -0.008142865722447854,
      0.005677225414210054,
      -0.01341255710225614,
      0.006130828919113227,
      -0.005776137102869764,
      0.01263056367785583,
      0.0054311185441108766,
      -0.0001212754312070725,
      -0.01823026512673542,
      0.015250688887553099,
      0.010360369709622941,
      0.0038026142240223087,
      0.006575868849435902,
      0.0077369929373973115,
      -0.0030728776074171213,
      0.0014966561868583188,
      -0.010542590613720496,
      0.07293968958922312,
      0.013483234136596037,
      0.11194494235341577,
      -0.01971470792549755,
      -0.0041562161659219506,
      0.001968484061733781,
      0.010921563009423511,
      0.008758427795770622,
      0.18597612304787794,
      -0.01711339168539384,
      0.023139258287844397,
      0.01389940779664767,
      -0.00585427166266071,
      -0.017560191690170496,
      -0.005017607359683973,
      0.043480546138019174,
      -0.008525201454598954,
      0.030236216454563584
    ],
    [
      0.010691279742752724,
      0.013997420988643752,
      0.0072767399123708386,
      -0.0029358199871390217,
      -0.005704762061316821,
      0.02077313902266551,
      0.0007777759519766494,
      -0.005383172242132324,
      0.09461913245432661,
      6.932459675046015e-05,
      0.014859729056152128,
      0.018112226731857313,
      0.019722527144205585,
      -0.010309976527720423,
      0.008987752077764111,
      -0.005425172428102134,
      -0.00013403519601280734,
      0.028422282304167556,
      0.011803725157776456,
      0.0076881444575551405,
      0.008589333622393792,
      0.0014815749842181935,
      -0.0012609538881766904,
      -0.013967779438314103,
      -0.0035771237155770306,
      0.0028660585736575745,
      0.007586331202416382,
      -0.09480697150533858,
      -0.05300486653643596,
      0.13259601821868333,
      -0.017020413729685678,
      0.08186036367567799,
      -0.038271362832653935,
      0.00941867215335837,
      0.02644817861583044,
      -0.011449950454200464,
      -0.0023346031304606178,
      -0.0055119297805381285,
      0.005513039580542859,
      0.16061269472655895,
      -0.0471185104141473,
      -0.02247064360920306,
      -0.001963316120320633,
      0.01425201504876332,
      -0.010794666294336813,
      -0.014140477687783384,
      0.10146323420559296,
      0.012634818632209544,
      -0.0017368433807839554,
      0.008973253173466736,
      -0.001984065264281207,
      -0.006685508160096909,
      -0.006448322544082998,
      -0.0007046720511563739,
      -0.005901059249768515,
      0.008227728218288953,
      -0.006150224483709506,
      0.004465142138765499,
      0.0075096108276044545,
      -0.0022349545029383246,
      -0.004407982006451787,
      -0.006987538254379,
      -0.0050593477902359215,
      0.0043610058540281835,
      -0.008896051148948283,
      0.06881449064264922,
      0.013876839877375364,
      0.0988196817026764,
      -0.03264138663506464,
      -0.0035088180396467897,
      0.0003676417763808457,
      -0.006867645378038923,
      -0.002743588389123977,
      0.177918555215174,
      -0.030836085262804607,
      0.01830543763390952,
      0.010845031810948712,
      0.0009242221169722737,
      -0.006372549932000175,
      -0.009031099191468564,
      0.04331738745753284,
      -0.009932618655385509,
      0.017899829871599833
    ],
    [
      -0.014627085529309292,
      -0.013045858748667625,
      0.004190651611751667,
      -0.01203506599880943,
      -0.018018457976222688,
      0.00542957572597859,
      0.006699051972662497,
      -0.0015501225931182005,
      0.10286049408320223,
      1.7719929385479733e-05,
      -0.004014687332412953,
      0.008570197971496545,
      0.021228579757134804,
      -0.0015188805747835545,
      0.0014285173859200863,
      0.004430028968822712,
      0.00019563060891918024,
      0.030350990845861153,
      0.012168896771351481,
      0.004605702956382491,
      0.00206747459852151,
      -0.009935379388372571,
      -0.006497945848058846,
      -0.0013378315671743813,
      -0.010737098900925323,
      0.0003932584958860774,
      0.0104153783099219,
      -0.09799854250840669,
      -0.03811381264002371,
      0.1292135631038765,
      -0.015526112702054914,
      0.07460018690086279,
      -0.04314667539738654,
      0.006356047887510193,
      0.03267366815766939,
      -0.0012988285691624098,
      0.0022148820503854723,
      -0.0015342257962595587,
      0.001535292118966955,
      0.16654775722932985,
      -0.05267849337830816,
      -0.008881578121067853,
      0.01221597357643416,
      0.01909674850924722,
      -0.004154022981122879,
      -0.009909835431222154,
      0.10122601008031834,
      0.01100197681633005,
      -0.01288920421480762,
      0.01588202915153433,
      0.0061530074677137985,
      -0.0075028265693487944,
      0.0011981852741507612,
      -0.014743541734271044,
      0.0031985431914042586,
      -0.0037977972454527327,
      0.0035160139481528177,
      0.006129349209446572,
      0.015435624906689979,
      0.004290803945816719,
      0.0025388693376223992,
      -0.0007821274315043521,
      0.0028190526248440344,
      0.002625806580866027,
      -0.01164054218781148,
      0.06966537240952725,
      -0.0013152183777153039,
      0.11031958139556103,
      -0.03498989402408047,
      -0.005319354525028987,
      -0.004010053211226398,
      -0.005290933365975311,
      -0.0021293777634012155,
      0.17295892047761527,
      -0.029521808319025768,
      0.017288618294986572,
      0.020714604619458357,
      0.00879786344301252,
      -0.011549427492179997,
      -0.031905680154524156,
      0.04420307972391702,
      -0.008601097040770838,
      0.040530246447119056
    ],
    [
      0.003584441445220526,
      0.0038242039076865682,
      0.011753472011260802,
      0.005336723210598804,
      -0.015819110202255213,
      0.013057603550624826,
      -0.005824221201359344,
      -0.001896887271092525,
      0.10242462099728548,
      -4.5974218947247055e-05,
      0.011109293464873885,
      0.005896773608400898,
      0.004669313166209759,
      0.0038147649327954676,
      -0.00021046696621885127,
      0.0037743013686205003,
      -0.00010106367487344983,
      0.027840812896922917,
      0.01725297925714256,
      0.012035640790041357,
      0.00917345009488482,
      0.00018292065960168945,
      -0.0038324494709377254,
      0.001649492414087775,
      0.012595257545722563,
      -0.001345610998097933,
      -0.00014107315930369873,
      -0.09712149493639599,
      -0.034015249912659896,
      0.13289751165804148,
      -0.00785950589744935,
      0.07827613498712901,
      -0.042982901513832925,
      0.0023339064885204005,
      0.02585545830915555,
      -0.010857039638716167,
      -0.0033590637218392145,
      -0.0016007003444343593,
      0.001601724696205686,
      0.16175891393569436,
      -0.047224569297511364,
      -0.014688729225369936,
      0.010773967001016849,
      0.01654901802050283,
      -0.007301795917192812,
      -0.010438053188015177,
      0.1001621722486413,
      -0.0011355149760101722,
      -0.003315795181797607,
      0.015453671291082606,
      0.0005151070272281872,
      -0.0017894047061097224,
      -0.011709549994537256,
      -0.0034338195204674645,
      -0.012864199886799623,
      0.0018062487262063935,
      -0.005710707325024398,
      0.015455979143377678,
      0.013942171783214505,
      0.004416177057923148,
      0.0003641424851841122,
      -0.0020468933455619663,
      -0.0006631850412643564,
      0.008062313690090328,
      -0.004156489270519537,
      0.06329084318692271,
      0.015095621511635533,
      0.11403703712320405,
      -0.02170371004961191,
      -0.0013762669087509635,
      0.003495203460304839,
      0.000715169542097404,
      0.010352803596701286,
      0.1783189758385615,
      -0.023259524470020713,
      0.011110694743518484,
      0.008199818289475157,
      0.0042148499605216185,
      -0.00855103473385006,
      -0.014334307821611885,
      0.03634287988561726,
      -0.012252913126051453,
      0.02941885133777354
    ],
    [
      -0.0033935602741451167,
      -0.00875356117205036,
      0.006232324846848472,
      0.002937595995644839,
      -0.009039418343198458,
      0.018364042981348593,
      -0.0035554268041575712,
      -0.010314109710786301,
      0.10511047174489764,
      0.00024571171616036237,
      0.015746394284029405,
      0.005665309536705746,
      0.004547599201755928,
      0.007173093421478416,
      0.002436011193850954,
      -0.0006552857672073536,
      -0.0001340351960128043,
      0.01926139358444775,
      0.022679122160734703,
      0.01291909137203168,
      0.010867929900476152,
      0.00670188675556328,
      0.008173829335276899,
      -0.007866850380645092,
      -0.0005544125023188152,
      0.005578319234084469,
      -0.00971365298828395,
      -0.08538406069027876,
      -0.015161837075093729,
      0.13190565639690352,
      -0.02434403982624014,
      0.08485014317262177,
      -0.03222660027972145,
      0.016345241030623323,
      0.03284397341966563,
      -0.0008437866190048855,
      0.0058708777066852165,
      0.007133244922713119,
      -0.007132261107173891,
      0.16929978529461157,
      -0.04305775802252901,
      -0.017695760324375146,
      0.0053494814947437725,
      0.01941200072657975,
      -0.008079378695840569,
      -0.002792906511367202,
      0.09421467620722829,
      0.003313530326864794,
      0.0017041057953252814,
      0.01818095906693228,
      -0.007814127412800916,
      0.0014724966029592847,
      -0.00483608718984019,
      -0.01262908868165678,
      -0.004202127312925364,
      0.0006146967821616044,
      -0.0022971940479408572,
      0.011755458468987841,
      0.014763606656397903,
      0.0025434887637256444,
      0.002294246956264508,
      -0.0007135880545972803,
      -0.016300778764994785,
      -0.012537764719319099,
      -0.0250504789500536,
      0.06239342074686594,
      0.013190594128680613,
      0.11889887644489776,
      -0.023939642571990452,
      -0.005510614156621859,
      -0.0009672127033990773,
      0.0021107298862918554,
      0.012035658011226533,
      0.1806792721281676,
      -0.027258197094382017,
      0.02069174647182577,
      0.00929225879931918,
      -0.0005228371769948998,
      -0.008596348191729657,
      -0.011212174535208015,
      0.04310713288869905,
      -0.006059719484200427,
      0.0414637883162935
    ],
    [
      0.004271737463068068,
      -0.004769268511429072,
      0.005287770448331671,
      0.006198127452684829,
      -0.004868662134838075,
      0.023406261909526646,
      -0.001747577104334927,
      -0.002002769975690045,
      0.11309921552812364,
      -9.79279654437934e-05,
      0.012415452332065724,
      0.020660251818697906,
      -0.005421120627243678,
      -0.0037084442272802835,
      -0.00972312416433531,
      0.01483115213719672,
      0.00019563060891918327,
      0.022178725252001208,
      0.013304641329750835,
      0.012390905799199181,
      0.009988366263212561,
      -0.008911969454299843,
      -0.006290426009279063,
      -0.0061590184780949825,
      0.007445468180674289,
      0.0008152059791611822,
      0.006888667406248067,
      -0.09201617284063383,
      -0.023762502839737232,
      0.1475842446674057,
      -0.02180457759923424,
      0.08486791642275342,
      -0.03678292157549109,
      0.013435414184814745,
      0.029846718583449863,
      -0.0013514455636891582,
      -0.00045977671889150824,
      0.0016820209574110964,
      -0.0016810756727070578,
      0.16566977889908663,
      -0.03747720772350627,
      -0.03825196822378898,
      -0.008462555143624581,
      0.03163449054161448,
      0.004259385885397709,
      -0.017485920356448748,
      0.1033678110625044,
      0.0015094233602491363,
      -0.016167351526851694,
      0.01714726368895266,
      0.016642687005678655,
      -0.019170109739202905,
      0.005190168798252617,
      -0.00630281391613797,
      0.0006302306670409312,
      -0.009885793348598276,
      -0.004389682408385493,
      -0.002374698661812495,
      0.011123940719160407,
      -0.001728771113491447,
      -0.005697127580371338,
      0.00404510009942803,
      -0.002293478883894317,
      0.0013996350864546175,
      -0.011533187544671471,
      0.07121307755791961,
      0.016879679631192912,
      0.1087215015029342,
      -0.022153555903891314,
      -0.0020316800249612454,
      -0.0003730143289920622,
      0.0019466294587550392,
      0.008739513351744409,
      0.18568324234141748,
      -0.012741278264316777,
      0.026077880034319427,
      0.016110612624848374,
      0.007727283675838434,
      -0.024697482626997516,
      -0.01464786786823789,
      0.03228477991402389,
      -0.009813765857213259,
      0.04124206301868539
    ],
    [
      -0.0018899187867171606,
      0.0016738652190401912,
      0.004213197660260991,
      -0.006679764134291521,
      -0.007263429080459605,
      0.020864632314425986,
      0.005384741375994092,
      -0.0032618192767544006,
      0.10411165365183621,
      -0.00018884878933544955,
      0.01239651066624372,
      0.012061502450525348,
      0.006107500767397161,
      0.0014530372238168556,
      0.0019434969438389673,
      0.00383479553901639,
      -0.00010106367487344679,
      0.018128608173778656,
      0.018178301366280916,
      0.011482041420716353,
      0.010623910080183227,
      -0.0008971664869598386,
      -0.0013991603723351913,
      -0.008095333796124697,
      -0.01403106601877034,
      0.016874368352325895,
      -0.0043495494320047665,
      -0.09389690903944144,
      -0.01970240151154542,
      0.1454180881011605,
      -0.0080444649751512,
      0.07363079699172642,
      -0.04763851476729866,
      0.004965787607427288,
      0.02964087964266454,
      -0.003555382376641471,
      0.0010795169448058087,
      -0.007520029122927657,
      0.00752093786562157,
      0.16126108065306552,
      -0.04549192859674769,
      -0.022493770522639095,
      -0.002244493884707103,
      0.02216400122544334,
      -0.008063063591219706,
      -0.0256958992582017,
      0.09625354436598511,
      -0.00547841748615893,
      -0.008676196088894642,
      0.010134774014219701,
      -0.003387253460376948,
      -0.011201923822556543,
      -0.007909342358722296,
      -0.007372064372781487,
      -0.0007528745233346925,
      0.009723591209993448,
      0.0009410978041416568,
      0.008400425914181726,
      0.009672096214461686,
      -0.002830547019772427,
      -0.004921655326994659,
      -0.005128721462971412,
      -0.012638226384881282,
      -0.003426884743474217,
      -0.017805489802632534,
      0.058420206934154756,
      0.017558480260506316,
      0.10423109340952146,
      -0.02741873865510537,
      0.0026103604330778877,
      0.005632246651019063,
      -0.003702916284920294,
      0.001985576011210799,
      0.18234083917212215,
      -0.02171281399031922,
      0.012223162052835506,
      0.004493192877677746,
      0.009331310583076702,
      -0.014746592441610263,
      -0.007407756361129281,
      0.04474625958703305,
      -6.651306198291254e-05,
      0.028843120114944783
    ],
    [
      -0.010208279848238511,
      -0.010376811553579966,
      0.006712777024433463,
      -0.007250929831314912,
      -0.014088952312921383,
      0.010022412211149218,
      0.013418374525999198,
      -0.005153469992942279,
      0.10419203427941205,
      6.932459675046015e-05,
      0.006061152061346733,
      0.01751774685772105,
      0.003957737911505253,
      -0.004713131944546031,
      0.004939000940019785,
      -0.007208410848203409,
      -0.00013403519601280127,
      0.01493964927066539,
      0.029633951341122716,
      0.0046295939616410025,
      0.003665203113844079,
      0.00019038161296988014,
      -0.00791421971049041,
      -0.011871928175361294,
      -0.006759402128726729,
      0.011387417353374361,
      0.007370746322126238,
      -0.09483373442681604,
      -0.006920604503295282,
      0.1414181888064276,
      -0.011723094134796273,
      0.08586450998401426,
      -0.02912056682835638,
      0.009838577968233389,
      0.03544263827052762,
      -0.003219899426103196,
      0.009343347397069622,
      -0.013696851514667138,
      0.013697724519123223,
      0.15885383926656269,
      -0.050913789348180125,
      -0.007854119181665163,
      0.028699097146539645,
      0.02409413294740568,
      -0.006843478093090139,
      -0.022778690851228814,
      0.08789353558697019,
      0.0024318541900108332,
      -0.0023896043477185684,
      0.011637054038981649,
      -0.002624806918997838,
      0.0016710838991340733,
      0.0004292782583215724,
      0.006170259433151241,
      -0.012052908979435966,
      -0.011228638040444277,
      0.0017724166326332713,
      0.008539171969807259,
      0.0053103742367496395,
      -0.0027187693817130694,
      -0.001623594678534531,
      -0.012601987435197873,
      -0.0098608720433394,
      0.002558974587390275,
      -0.013796382736996004,
      0.057082712403743595,
      0.026745963058752202,
      0.10959931811850139,
      -0.018662349252181878,
      -0.0021254459016919135,
      -0.0008563313136914076,
      -0.0006404964243966769,
      0.012305744952449758,
      0.17291345657362187,
      -0.0223448779540188,
      0.009115973548832354,
      0.016305736180886037,
      0.012470243384232716,
      -0.02876048889155267,
      -0.017874726723756403,
      0.0333675288692848,
      -0.019459569873961916,
      0.038733014813304746
    ],
    [
      -0.001835575846754795,
      -0.006390144152883475,
      0.014821450015260765,
      -0.006931068913725903,
      0.0005451885161668208,
      0.02307398251891058,
      0.0006247320649445984,
      -0.003519235829830296,
      0.11268984503130103,
      1.7719929385479733e-05,
      0.016880556789611697,
      0.020669394809157658,
      0.001816848943370382,
      -0.0020656241628263677,
      0.0033937042381817664,
      0.006744102167147923,
      0.0001956306089191863,
      0.024611061122176203,
      0.00626222079835718,
      0.013718381909685936,
      0.013403831478726575,
      0.003501395368602333,
      -0.00745873796874194,
      -0.012381238782229652,
      -0.0071739354338272105,
      0.022618316818886666,
      -0.0051733170563757706,
      -0.0984652279675778,
      0.0008842591773888762,
      0.14142391145213798,
      -0.016262367492496488,
      0.07507378695511838,
      -0.047179422407556855,
      0.0026185212386781284,
      0.026006793994431975,
      -0.009791617962936892,
      -0.002407200304096982,
      0.0031759943204109336,
      -0.0031751549021719694,
      0.16686768088675152,
      -0.05053153325822555,
      -0.010505659661843558,
      0.012345123043028264,
      0.029840324210518472,
      -0.0006365643491995666,
      -0.0077559982596395955,
      0.0985393225374995,
      -0.004901474172737377,
      0.0016825623837823068,
      0.015559593351322835,
      -0.0009100173873453307,
      0.01049775928322211,
      -0.012594574675359288,
      -0.0009914714092830955,
      -0.009655585350745878,
      -0.005329275429548034,
      0.010573284337737451,
      -0.0017530262837311252,
      0.021358115974745292,
      0.004538003284356376,
      0.005431194471032476,
      0.007701596149428697,
      -0.006283758061570167,
      0.0023358193281646272,
      -0.009736280441927678,
      0.059733659355662945,
      0.007407648018258852,
      0.12186890329519477,
      -0.025982137888198916,
      -0.01763734254452296,
      -0.015001866042034979,
      0.0018576975750886028,
      0.011836552412401552,
      0.17680320844856945,
      -0.024614839525432905,
      0.013642635687650416,
      0.00731414234985078,
      0.0024475607629322925,
      -0.021385398651039243,
      0.00030504242954844504,
      0.04042250883314696,
      -0.012402775726860632,
      0.03932046095691077
    ],
    [
      -0.0136457557907234,
      -0.011531851153912033,
      0.0191282747988052,
      -0.0003367034467627192,
      -0.01364789836825267,
      0.010933846429588995,
      0.00834554381100084,
      0.0008494844776428477,
      0.10088323496828774,
      -4.5974218947247055e-05,
      -0.002325478992800499,
      0.012682825696761659,
      0.01144282629258499,
      -0.0014847492496171785,
      -0.002530724285380283,
      -0.00015120108928953148,
      -0.00010106367487344375,
      0.03360769724750818,
      0.017555131085327077,
      -0.0012861190996853824,
      -0.0028368979431751345,
      -0.015776824347354633,
      0.00809314604592087,
      -0.008290984088165938,
      0.014414924719424646,
      -0.008386178178743877,
      -0.00032373759005995667,
      -0.09940191129782928,
      -0.024572969828559516,
      0.16409744837381698,
      -0.009055212938909771,
      0.07844372592968264,
      -0.03928759183026311,
      0.0004040394470965922,
      0.026661952864717994,
      -0.0047964786489563755,
      -0.0007748650271364102,
      0.014183130826936183,
      -0.014182323895881784,
      0.17432464243918325,
      -0.05371820046081475,
      -0.013496662894737985,
      0.010620226663342554,
      0.019809000525457497,
      -0.013297069657655643,
      -0.012573204002798159,
      0.1003874548487263,
      0.007333471978430236,
      -0.010499357958174802,
      0.012495308264675835,
      -0.006741869128663357,
      -0.001011411864894124,
      -0.015027632548767647,
      0.0005099216523762292,
      0.005680280285641854,
      0.010695605019388585,
      -0.0012804022944324974,
      0.005025008463930467,
      0.010732530293002664,
      0.0007139396107495667,
      0.00019038670607805265,
      0.006615723525769776,
      -0.005621126185517243,
      -0.0020849047713296935,
      -0.01590778076110149,
      0.046733738360307094,
      0.007300227206015716,
      0.10021977752761274,
      -0.034459228657514,
      -0.013797368755589078,
      -0.008033914287837396,
      -0.006571655338766349,
      -0.0053665664014586065,
      0.17228182135159015,
      -0.026055556971992008,
      0.019998555125774784,
      0.013747263440444073,
      0.004251175571944028,
      -0.014100485873269512,
      -0.014197512668465884,
      0.04367553280200224,
      -0.009246367780202035,
      0.0361440193794896
    ],
    [
      0.00878036382466474,
      0.004322461116957205,
      0.02173937011241289,
      -0.008241764789054896,
      -0.014571324997156396,
      0.01612613529727626,
      -0.0021657594435865574,
      -0.0016602398374108655,
      0.11039820851082129,
      0.00024571171616036237,
      0.0011281848984253185,
      0.019586422321353738,
      0.010259902840515067,
      3.520967790875308e-05,
      -0.010470951683131464,
      0.001959800316455708,
      -0.00013403519601279824,
      0.027901041706979397,
      0.022587792639121595,
      -0.0033033283629825346,
      -0.006262192125242869,
      -0.001581942211489022,
      -0.0034254809994808716,
      0.006100979732413199,
      0.0029204487965517234,
      0.011300136924205046,
      -0.013272796376657441,
      -0.0911807756012674,
      -0.02040530532454152,
      0.15854043498913242,
      -0.004304665789818573,
      0.07982498440493213,
      -0.034027637382865766,
      0.008051846361769643,
      0.038936061224404815,
      0.008956441666364404,
      0.01245733564559619,
      -0.004543214376636047,
      0.004543989646998075,
      0.16376971963753226,
      -0.0539293635315578,
      -0.013524309911521709,
      0.01112594168691457,
      0.03055217199837514,
      -0.0020460515218601026,
      -0.021084439563326524,
      0.093340470487091,
      -0.0074265287076610755,
      -0.009144889006842183,
      0.02003193334009646,
      0.0031473142785581167,
      0.003188921397692824,
      -0.009442841913594015,
      0.0008064717389568707,
      -0.0033518294106844268,
      -0.002361322492198879,
      -0.009040348190626223,
      0.005489181788467725,
      0.010899531580705111,
      0.006339705983452738,
      0.004995349361358223,
      -0.009601792938525517,
      -0.010169582564266623,
      0.0017910150106410548,
      -0.007759977889733851,
      0.054530363038604895,
      0.01827402142526918,
      0.1184561166403901,
      -0.013238794181205051,
      0.000571158220309119,
      0.006286087314499524,
      0.007236099557028846,
      0.016050822160283203,
      0.17129419741661472,
      -0.01993718323313218,
      0.014715529053977749,
      0.015414735727879346,
      0.024687391436378534,
      -0.03930526065243076,
      -0.02170163923192197,
      0.03664074549380085,
      -0.016593141273376473,
      0.03669617764534618
    ],
    [
      -0.0011908292968710332,
      -0.004622248019000323,
      0.011442742787823194,
      -0.0024409434163783854,
      -0.020149293756942674,
      0.014002528376573726,
      -0.008873855529549031,
      -0.004099720204070623,
      0.10930556099385108,
      -9.79279654437934e-05,
      0.005518151052583308,
      0.02218174627175428,
      0.0037363968152773048,
      0.009447612307060024,
      -0.00969978470566793,
      0.00913361318951403,
      0.00019563060891918934,
      0.024329214470685145,
      0.012177369848678286,
      0.004039249578191426,
      0.0024522654078777462,
      0.003785815777358565,
      0.012832416309662807,
      -0.008936207435782039,
      -0.003744328949630276,
      -0.0051154293648616265,
      -0.002831398567483538,
      -0.09649568799438123,
      -0.02102225184301911,
      0.15784291211111473,
      -0.003958063023312354,
      0.08529924143062985,
      -0.0343272753348058,
      -0.005348424597431115,
      0.024197289583112142,
      -0.004593427016912573,
      -0.0071252967618344945,
      0.013071822238179818,
      -0.013071077512308349,
      0.1691340519515246,
      -0.05728429630201885,
      -0.014778995159935185,
      0.01168060307330107,
      0.030508527154605482,
      -0.007163842561138639,
      -0.019944421640697773,
      0.10207069206354971,
      -0.0043888958478443514,
      0.00032308265532529867,
      0.021293323840428785,
      -0.002105913078639145,
      -0.005194241660104849,
      -0.01052440771539681,
      -0.00547971345536714,
      0.0027133926673805105,
      0.0012299440757906153,
      0.0009467736879323831,
      0.006990918091192257,
      0.011250509737152662,
      0.0012141351596461822,
      0.0005205285771180803,
      0.006966328189595935,
      -0.0037001405544109245,
      0.006477575370405693,
      -0.006296145513685399,
      0.05177703479382086,
      0.008696335089293765,
      0.111134221691719,
      -0.02571267702432509,
      -0.00041384331686452605,
      0.006516292714566714,
      -0.0011003217129729776,
      0.004096175716760698,
      0.16771666643053956,
      -0.02937463510357207,
      0.03029907837378805,
      0.00547152877568637,
      0.00805782557636247,
      -0.012125366221494509,
      -0.007420571514631758,
      0.037838404508319774,
      -0.013727414894080824,
      0.03772390045043445
    ],
    [
      0.00167274680734553,
      -0.005266631946245898,
      0.01411180820099265,
      -0.0015824901373242073,
      -0.004909343651270251,
      0.021928548936724655,
      0.004875029555575233,
      -0.003829278243950344,
      0.10782704502536988,
      -0.00018884878933544955,
      -0.00903637612068667,
      0.01953365985276078,
      0.00900438361036152,
      0.006485016027470115,
      -0.01723304083181591,
      0.00601311774992864,
      -0.00010106367487344072,
      0.02827204942017169,
      0.02347488104890314,
      -0.008318682860172455,
      -0.011688616905571741,
      0.00031324917849957226,
      -0.001178669127759627,
      -0.005689808450277716,
      -0.007586696269242117,
      -0.0048940738443961525,
      0.009021749629655003,
      -0.09415011138914008,
      -0.02376054986509204,
      0.16244208109350305,
      -0.004210010746547743,
      0.08098141093835885,
      -0.04186354458636084,
      0.01634883221288957,
      0.03488614655519731,
      -0.0010957062918930437,
      0.005616581886889657,
      -0.0008135046662174148,
      0.0008142204721227001,
      0.16180265284623355,
      -0.04228636144068398,
      -0.015437945598006021,
      0.01268085510978962,
      0.03236853109361863,
      -0.004807321415813014,
      -0.021923520646932832,
      0.09410868145660087,
      0.0008303301270555453,
      3.943362016020451e-05,
      0.018376694926947292,
      0.0015728566582742663,
      0.002159957507348733,
      -0.007906624917139993,
      0.004388267376950775,
      -0.0077020517524019816,
      -0.005724166743555084,
      0.0011740261890222563,
      0.0005477753521631041,
      0.005104985213868667,
      -0.0010184344204514806,
      -0.0013560960562260037,
      0.004615070386619191,
      -0.015078744526235064,
      -0.0056538668405011145,
      -0.01838353700966532,
      0.05100367841108904,
      0.009805641135707647,
      0.11958929881117158,
      -0.020075766088205715,
      -0.0007844835599271756,
      7.934453098163354e-05,
      0.005397632522671079,
      0.01332314161229535,
      0.1831220393417339,
      -0.019615920156687224,
      0.03277261019514619,
      0.021211438748046565,
      -0.00821770811190618,
      -0.006713723124239174,
      -0.018838972328088142,
      0.040563667740689084,
      -0.007155708631233076,
      0.03988144146021218
    ],
    [
      0.004340043358391786,
      0.0027730335277100972,
      0.003593417755453241,
      -0.007027371899680999,
      -0.008104085228011959,
      0.01832590978968126,
      -7.690975771702276e-05,
      -0.0029355744347786894,
      0.10457700159918182,
      6.932459675046015e-05,
      0.004590397382848354,
      0.013531158638656582,
      0.009623391102937499,
      -0.0046634061404578426,
      0.008326860167426757,
      -0.006082550217371421,
      -0.0001340351960127952,
      0.014235879001044463,
      0.027385268855613865,
      0.009406889829842432,
      0.007962316817240772,
      -0.007905748020621077,
      -0.003901111893651083,
      0.007411343519255819,
      -0.004823723204058213,
      -0.005365306126521836,
      0.00977920742939207,
      -0.10413197078027767,
      -0.001934795254994727,
      0.14570877199150736,
      -0.008840768084785023,
      0.07144625815012871,
      -0.04612424891471051,
      0.007197132613948669,
      0.025757262255673194,
      -0.0043288622378076045,
      -0.0015315797474492877,
      0.0017893318019557628,
      -0.001788637520472159,
      0.1646014864234487,
      -0.05378905979647042,
      -0.02064553143294048,
      0.0036349687318062685,
      0.03030587436939665,
      -0.008298149640548548,
      -0.017460382512311107,
      0.10770351866008022,
      -0.001264754345026917,
      -0.017298237037818496,
      0.006004216040671559,
      -0.0065006816744798855,
      -0.008672174451130875,
      -0.010079647464232561,
      0.010816029058277473,
      0.011318325388443368,
      0.004216076600129952,
      0.0061094663600515745,
      0.000509731681804372,
      0.0038629282817215014,
      -0.0056516539347597336,
      -0.004275276980189946,
      0.00795221439845861,
      0.010064518787316233,
      -0.00042738891352795175,
      -0.012916096921913625,
      0.04648226180607426,
      0.020476412923666767,
      0.10342224772665992,
      -0.02569750962370808,
      -0.006872457130432702,
      -0.0032501134720346594,
      -0.0021885554486531017,
      0.00700976854838114,
      0.17607702450366522,
      -0.016448715298707398,
      0.02735590094807796,
      0.019787244547452218,
      0.0020217548814685763,
      -0.013854074219959102,
      -0.022564722498252428,
      0.028195223815767438,
      -0.020895284165632248,
      0.02645864179933368
    ],
    [
      0.0023211439253597163,
      -0.0015756639634707966,
      0.011512230039759024,
      -0.005273750642407461,
      -0.016469379522122303,
      0.013004117735479362,
      0.009541984918906544,
      0.006658656147862539,
      0.10959777924877911,
      1.7719929385479733e-05,
      0.02309718453411246,
      0.021779174860031086,
      0.005976679738853888,
      -0.002570065492397464,
      0.000666679281121826,
      0.005957907635484812,
      0.00019563060891919238,
      0.013778937585484863,
      0.01160608515397714,
      0.013427488472555378,
      0.012666122615099022,
      -0.011736168194435409,
      -0.000633853932735979,
      0.002072749900367902,
      -0.0015650631008228087,
      0.0033189436786577233,
      -0.0032670594064045833,
      -0.0979166931126304,
      -0.005597995062099812,
      0.14890753275108096,
      -0.004911573393950377,
      0.08188359032546642,
      -0.03655439464165469,
      -0.003931373158250252,
      0.021796444633954373,
      -0.00931454985408414,
      -0.004663327645422447,
      -0.0011056931364332979,
      0.0011063591595004004,
      0.18038025547123906,
      -0.04489782592065955,
      -0.007027311850275584,
      0.019686234492941632,
      0.03395944703578134,
      -0.005442734599399204,
      -0.010874464201113897,
      0.09370699093189766,
      0.004019780525184813,
      -0.017302730026841143,
      0.028566113323736247,
      0.008010577983911683,
      -0.010127913999976344,
      -0.02015554892340172,
      -0.008431989633758161,
      -0.012407085914285736,
      0.008997381759922906,
      -0.002631122367555855,
      0.0005635107962615711,
      0.014876449708414934,
      -0.0004420044402352112,
      -0.006511590979272867,
      -0.0005427034381668984,
      -0.006516684659295863,
      -0.007040388350535373,
      -0.019413423351035967,
      0.04763047087241358,
      0.012939393295059082,
      0.11546419690722723,
      -0.02347029018853994,
      0.0038930686475077236,
      0.00877720968854634,
      -0.004084677601420378,
      0.012091180765294172,
      0.17658196933569087,
      -0.019568046982082494,
      0.02797182849576398,
      0.015714146686073946,
      0.009413405413468214,
      -0.012408054772957809,
      -0.02512662784591066,
      0.035863638793708186,
      -0.020953673967401495,
      0.033562492500093355
    ],
    [
      -0.005109113179393683,
      -0.010600274892080368,
      0.013639683216529735,
      -0.004490953091944175,
      -0.013129350704148892,
      0.016864844663986203,
      -0.0011835322080000355,
      0.008471380291969458,
      0.10343514612321678,
      -4.5974218947247055e-05,
      0.011058660077632045,
      0.0018722414642984742,
      0.026042792352502602,
      0.001956079732850171,
      -0.006676737807821171,
      0.004517522971568057,
      -0.00010106367487343768,
      0.01796205942951594,
      0.02623334168254579,
      0.009645631086185512,
      0.005479515769735724,
      -0.001923301599757096,
      -0.0117053088761126,
      -0.012729080345818038,
      -1.462771902849654e-05,
      0.013653623054258195,
      0.008191858717011367,
      -0.10016244880829377,
      -0.016525718114213342,
      0.15824612528079388,
      -0.0024878037452827455,
      0.08372956036592138,
      -0.03596263476126905,
      0.0023602988286243547,
      0.02685012881713847,
      -0.005605965257808827,
      -0.00139514749142901,
      -0.012129935552104521,
      0.012130575582283582,
      0.1716240151465753,
      -0.053350487242777175,
      -0.021008312954545475,
      0.009296784363537218,
      0.027392761067430715,
      -0.013273700166210196,
      -0.008211383971404662,
      0.09871393550020602,
      -0.0006288233175289127,
      -0.006320660726487282,
      0.0023044599636256194,
      0.0021994591343236624,
      -0.0035944407144105454,
      -0.010298627988691873,
      0.0036758120620396548,
      -0.009645474543218442,
      -0.0004759263651194436,
      0.0016461534486811452,
      0.009145761648281887,
      0.014716590051288888,
      0.0005986309450838702,
      -0.0017174091218353162,
      0.0042293268695377025,
      -0.007011571496918658,
      -0.009596105196512782,
      -0.02124676122311891,
      0.03868318200385597,
      0.011089062607132303,
      0.10792697486585738,
      -0.03144597363472403,
      -0.0037781359143008566,
      0.001440948036156467,
      0.0003999674125716807,
      0.0029273230949344456,
      0.17702417065450804,
      -0.018996574977750435,
      0.013984538406206573,
      0.010771289233761982,
      0.0156668441205161,
      -0.021422645983654374,
      -0.015046485081608057,
      0.032773282126807315,
      -0.0195936486032052,
      0.042164795437736956
    ],
    [
      0.008507708960117826,
      0.004453448241742854,
      0.010502951147074719,
      -0.011316062117071809,
      -0.020165344426009077,
      0.009326887089917269,
      -0.00372562962848092,
      0.011297709723611464,
      0.10722049781773044,
      0.00024571171616036237,
      0.014369653506471075,
      0.004843181354429864,
      0.02130729856903811,
      0.009219628505603162,
      -0.011892367489417736,
      0.027903959467176047,
      -0.00013403519601279217,
      0.01841107412074559,
      0.00484510365781226,
      0.020685462568359906,
      0.017874921337716183,
      -0.011095670248359838,
      0.005312579996815602,
      -0.005087040731613888,
      0.01031591215886648,
      -0.005810012315991953,
      -0.0014193315332126997,
      -0.09008594148881947,
      -0.010237252776441778,
      0.15797787008265132,
      -0.018144581838646062,
      0.07956241124335518,
      -0.036824335256899876,
      0.010226740223460878,
      0.02762902093857255,
      -0.0011469044134815602,
      0.0016222916180518598,
      0.0029313625431009846,
      -0.0029307476299665915,
      0.1836610958013623,
      -0.05438750261930854,
      -0.01807888739523949,
      0.002692047090415998,
      0.034032420891843725,
      -0.005562401211209601,
      -0.017291407058226776,
      0.09933340225131314,
      0.01188110250571961,
      -0.017324320937916023,
      0.01285044643709829,
      -0.015566563164599917,
      0.006000803083717985,
      -0.005455587026558677,
      -0.020289177396198857,
      -0.007552946162627031,
      0.02023090796929483,
      0.009617375150265289,
      0.003878012628697601,
      0.015283122470272706,
      -0.0020444206724978295,
      -0.0020923177608220965,
      0.0031612661301352626,
      -0.0053395674589327485,
      0.003130632430664259,
      -0.011221445580269484,
      0.04305120773510839,
      0.01627506143591287,
      0.10640048109095618,
      -0.02555712387076153,
      -0.004702984574230374,
      -0.0009197968924440599,
      -0.014448382108494442,
      0.004333970876221136,
      0.17396054663767388,
      -0.022042299431207488,
      0.024770335652971858,
      0.02006596669529645,
      0.008547548917730767,
      -0.020573754487551076,
      -0.023717352036226484,
      0.03795798020143304,
      -0.008821072750208287,
      0.028388950707198143
    ],
    [
      0.005050155046447596,
      0.0036563799736877792,
      0.006667198901420623,
      -0.009295482932567746,
      -0.010129070249204343,
      0.017879812671913218,
      0.005977369735828449,
      0.00037793104921734805,
      0.11469151512445777,
      -9.79279654437934e-05,
      -0.007485078802653537,
      0.015805969189455673,
      0.01329004137043822,
      -0.007546440689038235,
      -0.004535133574805355,
      0.004435479325601083,
      0.00019563060891919542,
      0.02243152142555666,
      0.025601468918870506,
      0.00027017501035281826,
      -0.0036271703579174434,
      -0.007600211010000478,
      0.001406029972188232,
      -0.0015816846172904252,
      0.0037588734038584487,
      0.004003201722935948,
      -0.006512420752008604,
      -0.0889738347131777,
      -0.01696451225988226,
      0.16319039220153483,
      -0.01744578856410463,
      0.09337099741181228,
      -0.026225937199320894,
      0.003509655867867347,
      0.026828731827069872,
      -0.006594259522954517,
      -0.0003391658321323488,
      0.0025179808654594293,
      -0.002517566941011176,
      0.16968689172860163,
      -0.04679421666293866,
      -0.019744180003629472,
      0.004374290067346322,
      0.043599933196024884,
      0.001439381196887421,
      -0.02945556357741752,
      0.0997036829485447,
      -0.0006070919650788926,
      -0.013247869040789841,
      0.0213635291980518,
      -0.007187374184227236,
      0.008573918338820985,
      -0.003916407180084082,
      0.009570802410292163,
      -0.005445251963272943,
      -0.002065219275019071,
      -0.011733957652059162,
      -0.0025062122065675875,
      0.005911952769542129,
      -0.0024109501108911958,
      -1.4337977413638817e-05,
      0.0010226878198734243,
      -0.007835566517580942,
      -0.00552303589943939,
      -0.02087027620396235,
      0.05043570405810105,
      0.021926033702202738,
      0.09733266069451031,
      -0.027916018300165133,
      0.0013558386471008573,
      0.004866778614083196,
      0.01037633090379082,
      0.0027229925336359,
      0.18033440075461846,
      -0.013197833021235457,
      0.01431089285526703,
      0.027485454631959953,
      0.0016510991809819049,
      -0.015974327758647443,
      -0.030220125533783643,
      0.03151334110709188,
      -0.020803216847109833,
      0.022793041232647058
    ],
    [
      0.00024490303513131293,
      -0.001336517459915299,
      -0.00082245933564647,
      -0.013764409253590976,
      -0.0035421494052316873,
      0.020594092487912347,
      0.013442141085000255,
      -0.0035029597336222423,
      0.10326803505072031,
      -0.00018884878933544955,
      0.0025787056650465913,
      0.024910438167324852,
      -0.0011750140246334835,
      -0.005894690006520177,
      -0.011831674852419349,
      0.008335341545921813,
      -0.00010106367487343465,
      0.02510533187935347,
      0.016651232456336457,
      0.0008190216317890161,
      -0.0011446703832699882,
      0.004954240823986444,
      0.0013628733223577407,
      -0.008955912478517972,
      0.006953870237464525,
      0.0015735527565283525,
      0.0008692276804559115,
      -0.09631085978594331,
      -0.011029817119159287,
      0.1575175147713884,
      -0.018024591575994887,
      0.07682565459971819,
      -0.043556679513372755,
      0.0009768274840823885,
      0.024922864200781977,
      -0.004063545304152378,
      -0.008673927785945926,
      0.0027340904166394675,
      -0.0027336936713648276,
      0.16776793140017693,
      -0.04924506304981106,
      -0.028470248859064726,
      -0.006054657944137347,
      0.03430685953260767,
      -0.010033690447559558,
      -0.011035033167555025,
      0.09360460879964262,
      -0.0021410272179160305,
      -0.0002748393066553989,
      0.01789800763183016,
      -0.00536465794311917,
      -0.006435576272436729,
      0.0050470087328542525,
      -0.002431909820668455,
      -0.001994131989741769,
      0.000631414468771406,
      -0.004293311780923031,
      0.0016242933943604486,
      0.004676023904974995,
      -0.00525778472344898,
      -0.0053990464704687146,
      0.00019652194930013954,
      -0.009347062636078006,
      0.005062011492105048,
      -0.009809680694915238,
      0.039098880734523715,
      0.01737741648177708,
      0.11877815427565701,
      -0.019341154011888722,
      -0.012168851344735065,
      -0.007490430161891324,
      0.006989069136055727,
      0.016281276643236024,
      0.18057558231336077,
      -0.016827546299282303,
      0.016969281931464728,
      0.01316181675584976,
      0.01400249399192634,
      -0.01139171485498895,
      -0.021425932683274466,
      0.04027934797248958,
      -0.004325925172298607,
      0.03282196230948364
    ],
    [
      -0.005412250227030777,
      -0.012529986256097603,
      0.019040591267901075,
      -0.009601648769287595,
      -0.002615789450826338,
      0.018545129103223857,
      0.0063427720930564055,
      0.007131915975393979,
      0.10970402150816805,
      6.932459675046015e-05,
      0.01651049950290247,
      0.007224397336389428,
      0.009503177051424214,
      -2.084655190492581e-05,
      -0.005440464023282278,
      0.008461491224161078,
      -0.00013403519601278913,
      0.023587349778788735,
      0.017670490728093888,
      0.012416579305910978,
      0.009858533938485426,
      0.008088206416372276,
      -0.011171069302580973,
      -0.0053062773582820905,
      0.0017670160836049708,
      0.0011635979436756642,
      0.0156759243853759,
      -0.09239424273929019,
      -0.006520454212064527,
      0.1536827697672326,
      -0.01240836859633759,
      0.07941805450975546,
      -0.0468556809785671,
      0.0027686893829804234,
      0.03447514176829776,
      -0.003804745080935954,
      0.007703929666841794,
      0.006119497951994874,
      -0.006118780124074306,
      0.16761306987466976,
      -0.04695745846800876,
      -0.0009410777267031827,
      0.011734742478045708,
      0.037010956996234044,
      -0.0066232070439577306,
      -0.011015730640838795,
      0.10875955915315787,
      0.00288385899456555,
      0.005964265302542487,
      0.011744262121711204,
      -0.009211239709165217,
      -0.004287809906119649,
      -0.009520864822984901,
      -0.011735813543740528,
      -0.007274833789917154,
      0.013344344187688519,
      0.002139877261387659,
      0.012664928329227035,
      0.016447010390804366,
      0.0010180118283972341,
      -0.002667518059012476,
      0.008158650884099995,
      0.002064452470737689,
      -0.01792602438006111,
      -0.0313097220442253,
      0.03971353125228524,
      0.01583345996432622,
      0.10163870429611825,
      -0.035057735264646346,
      -0.009831950835087436,
      -0.009483453812659257,
      0.006220387720327242,
      0.00013923809754707043,
      0.17765949925162772,
      -0.022462376692423975,
      0.011401194695783242,
      0.007264272464836972,
      0.006780570135810111,
      -0.007295194266903478,
      -0.012887202146957488,
      0.05138203745037715,
      -0.011570709677156711,
      0.04550552100653232
    ],
    [
      -0.0018123264973852191,
      -0.0027244735526908742,
      0.02308974578036265,
      -0.002606919155567741,
      -0.01601563925604452,
      0.01048655519422083,
      -0.0013478988471866582,
      0.012111857346053695,
      0.10698052764471533,
      1.7719929385479733e-05,
      0.009427467518856432,
      0.002714449456474714,
      0.007318076169594731,
      0.007294546982147813,
      -0.011328403502017874,
      0.007753452795641522,
      0.00019563060891919845,
      0.019898992492676758,
      0.02873341564729311,
      0.006430401975360751,
      0.0024091399223800576,
      -0.004600765384719386,
      0.0013824220502438819,
      -0.008873641070599155,
      0.0014116048884807151,
      -0.006121959525016508,
      0.010437081697658756,
      -0.09663060010044146,
      -0.01604206976669294,
      0.15422804451557978,
      -3.1845700296638405e-05,
      0.08090858884887961,
      -0.03289121693923468,
      0.0032036367517657444,
      0.026481665648211285,
      -0.004378187604740173,
      -0.0013800369313896315,
      0.0005727651201649385,
      -0.0005709563041619667,
      0.18278679107948864,
      -0.048426144968156386,
      -0.01083131669904744,
      0.014469387903270426,
      0.03573673063594364,
      -0.009204467735699435,
      -0.014729290138954933,
      0.08603181576701663,
      0.005129586141164361,
      -0.010990520216561439,
      0.008988089735449515,
      -0.001275957729109911,
      0.009837324824621636,
      -6.167709481951715e-07,
      -0.005080959939400858,
      -0.004794473027578087,
      0.001966993777206127,
      -0.00555240943325653,
      -0.001967219573064327,
      0.014729485205000791,
      0.0047295862467755835,
      0.0057759355158611015,
      -0.015823265789826298,
      -0.02003597327053141,
      0.0036806262993371716,
      -0.009644727577967605,
      0.03651190614563401,
      0.021534344381845476,
      0.09565188479209837,
      -0.03345202645140654,
      -0.011176893798936757,
      -0.003014285728693595,
      0.0021276298244636512,
      -0.0006660104014587949,
      0.1779449140568168,
      -0.025903285749179602,
      0.013307088427237495,
      0.01952515881001764,
      -0.007741421330347904,
      -0.008918426388853944,
      -0.01906881741810119,
      0.047247549760764694,
      -0.003332086101722537,
      0.03230619419001495
    ],
    [
      9.687326691638681e-05,
      -0.006590200478282437,
      -0.008603007023023766,
      -0.0011156491622174934,
      -0.014396812143376287,
      0.014255964601083424,
      0.0009306887624999147,
      -0.007805331460781011,
      0.10202187487905823,
      -4.5974218947247055e-05,
      0.005672964538917072,
      0.02429351476301078,
      -0.0023652926174379967,
      -0.008378393898618313,
      -0.006993329903984188,
      -0.0042836504116077895,
      -0.00010106367487343161,
      0.04073805278721101,
      0.016214467285849028,
      -0.005210733491025382,
      -0.005867046292471638,
      -0.014342815657849829,
      -0.0013179524139937178,
      0.0077672057737317645,
      0.008369183212627782,
      -0.010283851996475695,
      0.005776072270173858,
      -0.09400211472161822,
      -0.0009135519393706721,
      0.14575732045610362,
      -0.012671388154161965,
      0.08639781429671163,
      -0.035250335389301175,
