{
  "weights": [
    -0.004493319802510058,
    -0.015375757394426154,
    -0.00461190448447107,
    -0.0032627067427350538,
    -0.0038322300246262124,
    0.015059298238623786,
    0.0046334134618635035,
    0.005154737114049298,
    0.09576220527174677,
    2.0830255501531752e-05,
    0.018746098584892533,
    0.010256378598570712,
    0.003746846336886408,
    0.0008808634776425737,
    0.008929725119431796,
    -0.01297026899845256,
    2.089263289816791e-05,
    0.011138743450106148,
    0.01496312670417533,
    0.006468014739713463,
    0.007346212839765651,
    -0.00858487464665563,
    -0.010013018893178658,
    -0.003773853138161385,
    -0.021525002611430536,
    0.01858722371956173,
    0.0036398014789988053,
    -0.0911616647642574,
    -0.013768794222516423,
    0.13959908820146502,
    -0.021082179396013877,
    0.06768039306977267,
    -0.03906833682620728,
    0.011386409210230033,
    0.012897158393387407,
    0.010483017071904348,
    -0.002429633210512897,
    0.007750832361940915,
    -0.0078026181676891584,
    0.16396056430828967,
    -0.020924110697100002,
    -0.017274988513648944,
    0.00954159448572282,
    0.052581083692263914,
    -0.002666563257301721,
    -0.01773170534752663,
    0.09934944246026065,
    -0.019332995895811864,
    -0.005535513120558899,
    0.009253276891315058,
    0.013382738130549039,
    0.0001270404787208888,
    -0.0006154187020824206,
    -0.010453789930337078,
    -0.013277447342943711,
    -0.011214275387053198,
    0.007446947857250891,
    0.001474219644073529,
    0.001747758590197903,
    0.005775014395639148,
    0.0024715177316587374,
    0.006917790258128043,
    -0.006807754435754981,
    -0.012476830708255135,
    -0.01943999070092302,
    0.03429438078515005,
    0.020806533030489918,
    0.09619706835535674,
    -0.006204020737664325,
    0.0038085465681313947,
    0.010288770919155449,
    0.0017238841041705936,
    0.019939629733215895,
    0.14894258818491787,
    -0.020149116656676586,
    0.011488248883942481,
    0.02148324640627753,
    0.0006772774085508824,
    -0.0020446896592989034,
    -0.02654135282712945,
    0.015185854953989423,
    -0.00947315033597066,
    0.04131030643098046
  ],
  "bias": -0.060433509026740925,
  "learning_rate": 0.07,
  "n_iterations": 3000,
  "optimizer": "mini-batch",
  "batch_size": 256,
  "regularization": 0.0012,
  "l1_ratio": 0.5,
  "momentum": 0.0,
  "lr_schedule": "constant",
  "use_focal_loss": false,
  "focal_gamma": 2.0,
  "loss_history": [
    0.6796062573287215,
    0.6779392979685595,
    0.6781019514826587,
    0.6789404037739012,
    0.6774586506303624,
    0.6768722024818665,
    0.677241038409941,
    0.6770791348833057,
    0.677468554890362,
    0.6773720092002219,
    0.6765390363805812,
    0.6763119661837985,
    0.6769947415357858,
    0.6778060684867583,
    0.6781002787815981,
    0.6771739419357479,
    0.6772985646178941,
    0.6770729833082932,
    0.6776996947766957,
    0.6758982934537575,
    0.6773234100883098,
    0.6772147668829013,
    0.6772438172019601,
    0.6769335016549223,
    0.6770601346251934,
    0.6771743516076454,
    0.6768512780810405,
    0.6774680232324599,
    0.6764208153302221,
    0.6772641308391221,
    0.6775073483294074,
    0.6764946734024503,
    0.6780460473010708,
    0.6768806656056374,
    0.6783882119716586,
    0.6778680253747033,
    0.6770608929741877,
    0.676734305912252,
    0.6776870557145027,
    0.6769313927945845,
    0.6779388225502284,
    0.6770388753347609,
    0.677016136430155,
    0.6769499263031667,
    0.677072036088195,
    0.6768383115027319,
    0.6766746575906037,
    0.6767511408242983,
    0.6759528186169733,
    0.6765761855659302,
    0.6769119895514116,
    0.6765143483242623,
    0.6771231904097996,
    0.677308063371651,
    0.6768881095035115,
    0.6770257575755578,
    0.6773475514357293,
    0.6771662430059319,
    0.677401391091206,
    0.677197851190204,
    0.6778690023937594,
    0.6775242235085644,
    0.676914261514388,
    0.6768834659311874,
    0.6764926200855979,
    0.6771742583536102,
    0.6781238155134213,
    0.6783288327828729,
    0.6762905182252906,
    0.677096850876077,
    0.6769803651386299,
    0.6771185623228781,
    0.6766041834061252,
    0.6770559972029044,
    0.6774507545573858,
    0.6763625326408804,
    0.6766861262716919,
    0.676480170895022,
    0.6769663710307192,
    0.67720795424559,
    0.6760444029131457,
    0.6776415045501213,
    0.6781901876858902,
    0.6764162138569537,
    0.676960356728245,
    0.6779364739319305,
    0.6767708088970829,
    0.6764247382893855,
    0.6777974776110808,
    0.6767931875550208,
    0.6783103156680789,
    0.6768342673614631,
    0.6764481162351629,
    0.6778824691452919,
    0.677262971567982,
    0.6768547619694668,
    0.6770006906085418,
    0.6770299482653999,
    0.6762601282852566,
    0.6780966116146859,
    0.6768832957935316,
    0.6768155692283498,
    0.6770484114648914,
    0.6763552443585502,
    0.6781218776270042,
    0.6784679158779067,
    0.677015124760257,
    0.6771727121505131,
    0.6763186885764513,
    0.6766513392025116,
    0.677516343736128,
    0.6768587229722662,
    0.676723569882682,
    0.677434048112069,
    0.6770436240570868,
    0.6766778156730533,
    0.6769237881218596,
    0.6764042333480811,
    0.6777096186019331,
    0.676974650014589,
    0.6765272589755706,
    0.6780374195774926,
    0.6771912375256399,
    0.6777863807435409,
    0.6767357069424571,
    0.6772066148155398,
    0.6770246263242807,
    0.6775114707856358,
    0.6764320531505245,
    0.677726692754336,
    0.6771491977732734,
    0.6789641557886135,
    0.6772702684781017,
    0.6764178613222801,
    0.6778644841213424,
    0.6771956549221225,
    0.6775441177845075,
    0.6768887398759259,
    0.6767645469987108,
    0.6768344589857958,
    0.6770391229667999,
    0.6769819575096447,
    0.6765700224629339,
    0.6764315915540184,
    0.6763748774303748,
    0.6772193682942119,
    0.6768727067173343,
    0.6771839286579032,
    0.6769288462603649,
    0.6761504969594356,
    0.6763915664146892,
    0.6766249852325684,
    0.6769585541940236,
    0.67600813652361,
    0.6767871529550262,
    0.6771942362791641,
    0.6775388492311267,
    0.6786652762538089,
    0.6772704844446534,
    0.6780433255834297,
    0.6763124430120354,
    0.6770624218601429,
    0.6765870136135265,
    0.6766371909342085,
    0.6777691430253742,
    0.6770739926218589,
    0.6772175359124836,
    0.6773503772214646,
    0.6769020721870829,
    0.6780813060394895,
    0.6760491172494753,
    0.6763395548388296,
    0.6771777058539107,
    0.6766835585101415,
    0.6772735920068295,
    0.6770677240110055,
    0.6767297499091955,
    0.6786591965466449,
    0.6771331312937807,
    0.676946744338325,
    0.6771431133546081,
    0.6774759520751213,
    0.6769502544087355,
    0.6774820415282559,
    0.6774389640602962,
    0.6784631828608353,
    0.6770761487219819,
    0.6761603886871832,
    0.6766085733108254,
    0.6776762332502484,
    0.6773825631384301,
    0.6769572736133842,
    0.6772022302891199,
    0.6776253928283276,
    0.6792806443865101,
    0.6763903781806433,
    0.6773175103954261,
    0.677174770784462,
    0.676371157605509,
    0.67662052836851,
    0.6767574930908308,
    0.6772853501562814,
    0.6778200870950774,
    0.6771811052856852,
    0.6770893204549581,
    0.6770856106987635,
    0.6765230561719141,
    0.6767715373721505,
    0.6784132292258478,
    0.6763061299609661,
    0.6774412451177919,
    0.6777729894200251,
    0.6779796469282555,
    0.677982268409988,
    0.6772341591199487,
    0.6781103702898904,
    0.677188637409193,
    0.6769583126721426,
    0.6763839027759515,
    0.676769631870831,
    0.6771765869526155,
    0.6777242956285406,
    0.6770965149613977,
    0.6773180392314131,
    0.6770339576420484,
    0.6779692722735631,
    0.6767590552186458,
    0.6780910447313635,
    0.6771653667129971,
    0.6767195420783733,
    0.6765396565049144,
    0.677311664706405,
    0.6769689615292943,
    0.6768705690031213,
    0.6773154452202758,
    0.6765313761993125,
    0.6770653208956988,
    0.6771911987840739,
    0.6765994592587256,
    0.6775291166601641,
    0.6768255573045614,
    0.6764700721314177,
    0.6770108372346761,
    0.6777424871947654,
    0.67853749200933,
    0.6769037050309714,
    0.6768270472281549,
    0.6792293927127193,
    0.6765260092731942,
    0.6766866622783357,
    0.6765625743186026,
    0.6767540302095727,
    0.6764824444187996,
    0.6769470209793361,
    0.6756133888973526,
    0.6764635791752738,
    0.6784622940288156,
    0.6770092467662456,
    0.6767269373620489,
    0.6774431631867681,
    0.6767597061101048,
    0.6761610324402861,
    0.6769461658852756,
    0.6766170909930073,
    0.6785170481608771,
    0.6771866020095709,
    0.6775807586732346,
    0.6781137993121187,
    0.6776375948156576,
    0.6767002902483263,
    0.6769537756254198,
    0.677578350926938,
    0.6767175369903233,
    0.6772512774746096,
    0.6763774499922791,
    0.6763399157471015,
    0.6770643234030678,
    0.6766084091027705,
    0.6782481227790378,
    0.6781965998442354,
    0.676905583395694,
    0.6764054797962907,
    0.6778011754286368,
    0.6767707086456757,
    0.6776542105063174,
    0.6771258692933557,
    0.6778188934575032,
    0.6770492579028791,
    0.6766222590431961,
    0.6777665961548957,
    0.6768706515841949,
    0.6778654412299717,
    0.6773683485987388,
    0.6777560937471765,
    0.677970889547423,
    0.6768404640959746,
    0.6767630140112794,
    0.6770916565234073,
    0.6769708933324196,
    0.6763022606685446,
    0.6779672455100885,
    0.6774368302220751,
    0.6780338992681547,
    0.6777663603764417,
    0.6762014541923818,
    0.6765826769059907,
    0.677550068924017,
    0.676942751072692,
    0.6765034002392372,
    0.6769382261598642,
    0.677242484198701,
    0.6770110406895656,
    0.6767183427712724,
    0.6771997168635439,
    0.6771869576234534,
    0.6774810857389836,
    0.6767980081278306,
    0.6770173835747194,
    0.6769981147753317,
    0.6766342133095812,
    0.6769508492675939,
    0.6764289069161366,
    0.6771823817444307,
    0.676739393418321,
    0.6767759788053589,
    0.6759353614970309,
    0.6768865263495957,
    0.6769153236586776,
    0.6776313467856793,
    0.6774615933249042,
    0.6770487147413626,
    0.6769358167771411,
    0.6768504721130476,
    0.6775302334363649,
    0.6767762872409812,
    0.6768065913893095,
    0.6772546969995095,
    0.6766277871742742,
    0.67739047288915,
    0.6766913661967346,
    0.67716520352951,
    0.6762950824613725,
    0.6776538775977852,
    0.6770828377689863,
    0.6772702242002303,
    0.677368721781342,
    0.6763988701095298,
    0.6767207089041755,
    0.6765372129301424,
    0.6773098450807036,
    0.677692649760737,
    0.6774440395540919,
    0.6761757559794229,
    0.6770959856295312,
    0.677044204927492,
    0.6778185845506867,
    0.6777446716922376,
    0.6776742975996929,
    0.6769588454292389,
    0.6769466052998208,
    0.678151257847042,
    0.676397861916967,
    0.6762637680003138,
    0.6775166683531616,
    0.6770559984196229,
    0.6763474131157785,
    0.6779393628595849,
    0.6781893414307076,
    0.6763035172832508,
    0.677753177472696,
    0.6778779379020082,
    0.6763690054802637,
    0.6762285053379652,
    0.6768864758130579,
    0.6772885605668045,
    0.6769050715968559,
    0.6779014024924435,
    0.6767698193342143,
    0.6767502565957441,
    0.6780412064545044,
    0.6779598781187977,
    0.6769214983702923,
    0.676974222693143,
    0.6768823598014759,
    0.6768859671288417,
    0.6774864390619276,
    0.6770679222749448,
    0.6771823468410945,
    0.6779507558067687,
    0.6781000058351567,
    0.6762503825106894,
    0.676964886778816,
    0.6765838795277574,
    0.6775593582542055,
    0.6786660363231082,
    0.67643599009071,
    0.6786159263326074,
    0.6769710469700391,
    0.676242284990528,
    0.6768547352839167,
    0.6763648899805251,
    0.6778799108975989,
    0.6767538029335025,
    0.6764313324073286,
    0.6769026764274749,
    0.676658606263848,
    0.6761330834044591,
    0.6783114391103483,
    0.6765496496620615,
    0.6767392615713718,
    0.6767306408623252,
    0.6768887946629458,
    0.6762707834961416,
    0.6764918438803827,
    0.6779738761151384,
    0.6774117703433885,
    0.6778387738618039,
    0.6764572662745791,
    0.6772726723014787,
    0.6767401148316509,
    0.6768395257931549,
    0.677355155619432,
    0.6777220761759585,
    0.677870112845667,
    0.6773313810330922,
    0.6763496908249876,
    0.6769336769469361,
    0.6763490772577436,
    0.6777336829988935,
    0.6785335458286186,
    0.6767051437203732,
    0.6768901450529414,
    0.677054168133599,
    0.6768680573935286,
    0.6770719920286726,
    0.6768817591245692,
    0.6773811614495102,
    0.6764582808534194,
    0.6773782410092338,
    0.6772627244344348,
    0.677374081599853,
    0.676110494069388,
    0.6772721612508759,
    0.6774551019421206,
    0.6783580419943085,
    0.6766309535939498,
    0.6766774799772599,
    0.6769422334696797,
    0.6776309471979145,
    0.6767661549758336,
    0.6766223493058081,
    0.6785540662466805,
    0.6775505712874597,
    0.6776621699422183,
    0.6765363626456098,
    0.6786021564133095,
    0.6768179693764159,
    0.676766602269632,
    0.679003543798867,
    0.6764723091448013,
    0.6767722421651446,
    0.6772714682201688,
    0.6775008612953031,
    0.6778635689148438,
    0.6765066341577952,
    0.6783485405341229,
    0.6774101375411384,
    0.6761927304610762,
    0.6773103986633487,
    0.6768857557139195,
    0.6770699990104992,
    0.677322827538346,
    0.6774807835190452,
    0.6761219587495042,
    0.6772956381040436,
    0.6767051089119447,
    0.6769337129626872,
    0.6769628031333637,
    0.6766039051118055,
    0.676340057780461,
    0.676464366935949,
    0.6774769187786042,
    0.6768743730044046,
    0.6769731404381254,
    0.6777025750593044,
    0.6767871898101971,
    0.6770024666985096,
    0.6765453462525143,
    0.6758756833329171,
    0.6768783135664999,
    0.6771888119493534,
    0.6772626488636163,
    0.6782504751688283,
    0.6765354799098293,
    0.677117746301769,
    0.6772149047510855,
    0.6782336372107943,
    0.6767186562913299,
    0.6776877495423435,
    0.6763139977858044,
    0.6768097238636875,
    0.6769493841087955,
    0.6776382674208365,
    0.6767497493790083,
    0.6762893204364141,
    0.6772375519774191,
    0.6768807887834138,
    0.6764421268152516,
    0.6773948947601579,
    0.6775965417936634,
    0.6775261664968668,
    0.6775563528842734,
    0.6771606052954143,
    0.6772267235113492,
    0.6758624990498202
  ],
  "weight_history": [
    [
      0.07710499019708883,
      -0.021462782008086743,
      0.10054075986816374,
      0.23642008474350593,
      -0.036347652977485836,
      -0.036345104444677506,
      0.24514137139164802,
      0.11912897369546548,
      -0.07287655828981418,
      0.08422165261129948,
      -0.0719363771796017,
      -0.07229527861412716,
      0.03755982885541517,
      -0.29699869354293823,
      -0.26775917650104375,
      -0.0872839522836992,
      -0.15722188129985945,
      0.048780646479126936,
      -0.14095267271395895,
      -0.21923205204967727,
      0.22751281249986077,
      -0.03504727886293113,
      0.01048241031370739,
      -0.22116381074574376,
      -0.08450458756513327,
      0.01721852526320409,
      -0.17866885404018662,
      0.058319642889164164,
      -0.09323720698800872,
      -0.04527965144946067,
      -0.09340298068056462,
      0.2875293373321968,
      -0.002095175615184787,
      -0.16418857871089118,
      0.1276837331891919,
      -0.18951168814604943,
      0.0324219178127711,
      -0.3041997993720565,
      -0.20617446001766682,
      0.030558790342203726,
      0.11463224485599911,
      0.026601516306997256,
      -0.017952095034533468,
      -0.04674035832474923,
      -0.2295111240184105,
      -0.11174149215444244,
      -0.07150500484823163,
      0.16409719432313208,
      0.05333990321817445,
      -0.2736769086852322,
      0.05030758864375305,
      -0.05977636287706352,
      -0.10507867327993047,
      0.09495057462918767,
      0.16004216427764212,
      0.14456271080637878,
      -0.13027182436624352,
      -0.047999069614364884,
      0.05142205728623198,
      0.1514339726532541,
      -0.07438226732171065,
      -0.028819862467944293,
      -0.1717364943364162,
      -0.18568728002672208,
      0.12612846884024545,
      0.21052928223184325,
      -0.011178138744150613,
      0.15577851725249886,
      0.05613679819101396,
      -0.10014200733606154,
      0.0560994778406628,
      0.23874957792362506,
      -0.005561279817832906,
      0.2428797992006239,
      -0.4066633079511694,
      0.12758401217003632,
      0.013512325554850326,
      -0.04641494245082815,
      0.01424403498945029,
      -0.3085305315890097,
      -0.034099690245597496,
      0.05543462202303648,
      0.2294136479528773
    ],
    [
      -0.0022177211266996384,
      -0.00792477738752572,
      0.038257802805672675,
      0.018610770726201632,
      -0.010869882576377226,
      0.013848427687930528,
      0.029290464490916355,
      0.03808102085564535,
      -0.009688288593962402,
      0.06656159737185761,
      -0.044964541523042946,
      -0.03919174201717232,
      -0.004842107318783984,
      -0.044672480510281054,
      -0.15504427888906855,
      -0.13153085316990223,
      -0.138372781303723,
      -0.02182089565666221,
      -0.08336622750792787,
      -0.16276978306750345,
      0.24679270102475565,
      -0.01410466330925114,
      -0.06702917999255402,
      0.0014310636243811759,
      -0.01671782067080576,
      -0.08957456188538625,
      -0.06270022201261294,
      -0.08902131739928357,
      -0.13130893703408475,
      0.00612423109925956,
      -0.0846425249062162,
      0.09913067361169163,
      -0.064396329457186,
      0.010304364260816178,
      0.08456600308272517,
      -0.058125005559534725,
      -0.0043660984056956426,
      -0.23687844807601505,
      -0.23260624967682236,
      0.17284385875414382,
      -0.017683085357203827,
      0.012864210961599003,
      -0.0025513458315560168,
      0.007141630824109596,
      -0.11090376427700462,
      -0.007059905828181306,
      0.06482219508515705,
      0.004342171293256967,
      0.00014917757546571622,
      0.03552325392780159,
      -0.026983738217429186,
      0.0421186344957404,
      -0.03230812830240734,
      0.002587452978038347,
      0.0306941666726196,
      0.010853324563862093,
      -0.022004438509183055,
      -0.022020304042760674,
      0.02049728914153882,
      0.10367468962763965,
      -0.07134247384050552,
      0.015456166545519873,
      -0.013813960162097,
      -0.1538063079522045,
      0.10043869086063197,
      0.25850015757817707,
      0.018151495762303724,
      0.10073816529596409,
      -0.020987312972844806,
      -0.02897204920026945,
      0.05192754123939264,
      -0.013946644214141343,
      -0.009153699671828738,
      0.17279960438905834,
      -0.05706852500455402,
      0.04172733112053715,
      -0.07707328402404151,
      -0.044003855340711544,
      -0.051925393720441436,
      -0.06794810992551432,
      -0.004307584020188977,
      0.007860287680225796,
      0.053824361815263906
    ],
    [
      -0.013713536159654063,
      -0.005918108156038741,
      0.016214857297962886,
      -0.0070397485198652665,
      0.0003832150055873071,
      0.01220739074886015,
      0.027605594883423918,
      -0.009121331286629217,
      0.016934453727397245,
      1.1642868273654223e-05,
      0.008685440144130694,
      -0.0010285097566683182,
      -0.004696085883615633,
      0.019155737048388796,
      -0.014525021448140198,
      0.01403988630210023,
      1.507266105603134e-05,
      0.018894597408195102,
      0.0017303517360180085,
      0.01114784333866523,
      0.03734276537347847,
      -0.01030680573399163,
      -0.00866277687710328,
      0.0016215678530384584,
      0.010166506945388343,
      0.002784696697245785,
      0.005735596909807373,
      -0.0872258081546078,
      -0.09665070314142361,
      0.041876806487356276,
      -0.0449282698946472,
      0.0817396267823553,
      -0.028344887030463648,
      0.009536056985927346,
      0.008494893517853912,
      -0.005091861889199244,
      -0.008297526343768137,
      -0.052583698676959924,
      -0.04290345046493121,
      0.16393988251832295,
      -0.017665327837836847,
      -0.018097854408416426,
      -0.005888448915722078,
      0.004922850245120087,
      -0.0024554579232613483,
      0.0010663140657316645,
      0.10544826312762161,
      0.009180307027113099,
      -0.006424429711345476,
      0.014986414271149766,
      -0.005405720413182558,
      0.00023754541045362327,
      -0.013021738579740566,
      0.00798860569335096,
      -0.0065761838770931474,
      -0.0029961064976200265,
      -0.020068788294834126,
      0.026924942863195078,
      0.012337279955219405,
      0.007036141855017735,
      0.004349068179118087,
      0.019806064367592878,
      0.003622815243887804,
      0.012618061534534623,
      0.007756419039931094,
      0.12792132112911614,
      0.021124527476343493,
      0.10665235205819668,
      0.00033180112361309654,
      0.002087867885804445,
      0.009322498538599254,
      -0.01107085139736166,
      0.029862886272558908,
      0.15359060859771723,
      -0.020088103018720396,
      0.010731555413312817,
      0.011083079715538076,
      0.01413278197945483,
      -0.017307352455693654,
      -0.018336772644713582,
      0.03401174924393674,
      -0.005561555882658705,
      0.019143127247483648
    ],
    [
      -0.007247421502316113,
      -0.018066248616514884,
      0.0087061426411188,
      -0.0086998447826333,
      -0.008397235801935195,
      0.00510290931193853,
      0.012245423153979555,
      -0.010566291517892252,
      0.04571971636822422,
      1.3060050274114048e-05,
      0.002216262205263618,
      -0.00035203544832456595,
      0.024502836511043527,
      -0.013607696084983684,
      0.016035499029833686,
      -0.005566857791409644,
      1.5970409146242437e-05,
      -0.01591454136062456,
      0.03331741581761663,
      0.014336833610343542,
      0.011980785380817998,
      -2.6940761838763986e-05,
      0.00840469529763601,
      -0.010569338632733585,
      -0.013900871779217908,
      0.0022202052160320484,
      -0.0010796832963607698,
      -0.08808870219536333,
      -0.06620830785841286,
      0.09083615816252355,
      -0.06614603339527363,
      0.07257952876579361,
      -0.043774087827830814,
      0.0071335228189002755,
      0.029911974497413448,
      0.008171512769895332,
      0.02233960023338142,
      -0.022737030031218134,
      0.022704148090604257,
      0.18163036026872867,
      -0.022650426388063877,
      -0.02733948035549702,
      0.003422397234143032,
      0.012704948603172318,
      -0.007739037823930172,
      -0.005946603788128137,
      0.10221906176815303,
      -0.023133677174186296,
      0.0020141507670520457,
      0.014497704784539727,
      -0.016626612282909698,
      0.007726348667596128,
      -0.02992729355613158,
      0.01620365260454553,
      -0.007211647792501298,
      0.002790901138743758,
      -0.005027814510262642,
      0.02369093127160828,
      0.011790001010703504,
      0.002782755278053473,
      0.003145445596524257,
      -0.0007197907090404406,
      0.012758692481248645,
      -0.012694698559495723,
      -0.021217270235720374,
      0.09905644010885417,
      -0.018240696312343575,
      0.09848285949585253,
      -0.028507711773023425,
      0.0029610566793223827,
      0.0046865134210038115,
      0.01589405817112859,
      -0.003722580699327958,
      0.1505490301274007,
      -0.012476969737389394,
      0.008168336026553612,
      -0.002269789261086181,
      0.012555994702372971,
      -0.02021889347307626,
      0.0034118174069702953,
      0.017367812219078266,
      -0.01028853782622822,
      0.04936313945981921
    ],
    [
      -0.02087258442104766,
      -0.02320482571332909,
      0.015697237774296113,
      0.004689035554770293,
      -0.009982864842935613,
      0.01004595694045843,
      -0.004767379514413425,
      -0.012123407222131954,
      0.061818971798853296,
      1.4262603451568324e-05,
      0.01343638969751934,
      -0.0060746626507643935,
      0.014102769323860143,
      -0.0293882539355864,
      -0.0016829746610928437,
      0.010100984700534074,
      1.673219543627956e-05,
      0.022826826768176316,
      0.00939645394136157,
      0.014291654508840287,
      0.012328967710453335,
      0.0031814353493827777,
      0.01220170423135168,
      -0.001080361772864082,
      -0.0051529246506995235,
      0.002503718052769584,
      -0.013896339157281454,
      -0.09203025417118371,
      -0.07196045205180647,
      0.135583821387815,
      -0.03206187279572349,
      0.07133069850451948,
      -0.019289883528327344,
      0.018544566818573797,
      0.026495333733598168,
      0.003437441149930151,
      0.01542702822863996,
      0.02451031826914523,
      -0.024458713212276318,
      0.14774787416261922,
      -0.026528398345406518,
      -0.017535993672025664,
      -0.0015673130138557406,
      0.010377729040236934,
      -0.01592703113932426,
      -0.003222628824279968,
      0.11231944216290908,
      -0.0025144772073546623,
      0.005948838879212482,
      0.005073437245971403,
      0.008915257817158071,
      -0.0012932415116228557,
      -0.010313329163212204,
      -0.01489756531550554,
      -0.016496667546513976,
      -0.005497078039471532,
      0.010357718857706276,
      0.017402671900028338,
      0.021286986230781263,
      0.008904931048671511,
      0.0044257989351471645,
      0.021472386981877103,
      0.0007365134822148339,
      -0.011406102927664107,
      -0.01742814873060278,
      0.07287922529833174,
      0.020394397206904502,
      0.07941800876244362,
      -0.027740573945964145,
      0.007530261795209913,
      0.015249330019264472,
      0.015460232555057858,
      0.0044624341142224366,
      0.13921571754709405,
      -0.017203391060906396,
      0.0017743689098840818,
      0.020217383902692947,
      0.016617854969635578,
      -0.01220103894580554,
      -0.03227063121788702,
      0.02579409212538358,
      -0.018315660624936437,
      0.04712647766663289
    ],
    [
      0.0018631270232266383,
      -0.011645748214272887,
      0.011216788888787755,
      -0.03749004457090228,
      -0.014202830207208738,
      0.00531135544861455,
      -0.007358333310269359,
      -0.013840921084262815,
      0.09172325827376124,
      1.5283032827708897e-05,
      0.00342382117686441,
      0.009630690751735338,
      0.026471406856286683,
      0.00380684690645994,
      -0.005501112998089383,
      -0.0018094804211016937,
      1.737861101545621e-05,
      -0.005396747002941388,
      0.023840039340868077,
      0.0005398093457028531,
      -0.0011949124204945001,
      -0.021918873466124082,
      -0.01571518703117862,
      0.0012876327001394424,
      -0.012750676084201672,
      0.009506721394638198,
      0.019878581841882653,
      -0.09007406974358759,
      -0.04636926666467862,
      0.14713854686696953,
      -0.012780984123497804,
      0.06400684324143813,
      -0.03576726941069446,
      -0.006777802933036191,
      0.006137775316022093,
      -0.008097159021291352,
      -0.002618444662232949,
      -0.0024812099414133295,
      0.002446130168181141,
      0.16123120930334678,
      -0.01862118107137873,
      -0.039437463311740126,
      -0.01690384157281341,
      0.03846505515465843,
      0.010839704176953565,
      -0.010904570630021258,
      0.10425343966703111,
      0.011965972705791871,
      -0.011872562225598682,
      0.023149419974289608,
      -0.0044409938109493214,
      0.0028204705325213424,
      -0.0242472981149805,
      0.010107586918010664,
      -0.038355534856427884,
      0.003588288309774733,
      -0.02068309338291072,
      0.03176697604092375,
      0.004282599712560359,
      0.005382284199234643,
      -0.000807131687235508,
      0.006172142981925319,
      -0.011237371245406495,
      -0.0122492816206086,
      -0.019598101671049906,
      0.08641986111281899,
      0.01803694143897224,
      0.08637009849760835,
      -0.02573507330177133,
      0.012470992700814382,
      0.014833683457548659,
      -0.004029804306433876,
      0.010333243953677766,
      0.13696085038430025,
      -0.03894078894894312,
      0.04066053269569693,
      0.0022332703441778254,
      0.025615492172724443,
      0.005763349359283014,
      -0.035196878030119255,
      0.02283052136128079,
      -0.004228599042455388,
      0.03999705171615358
    ],
    [
      -0.00248254218812356,
      -0.0026685151839039275,
      0.018925223139797435,
      -0.01115857579493782,
      -0.00748938944225107,
      0.014151543383289392,
      0.00461195020273713,
      -0.001910742285869873,
      0.08982825819816954,
      1.6148920616467183e-05,
      -0.000350898237968739,
      0.00790494452281017,
      -0.006914804657275113,
      -0.016573588123756745,
      0.006488258264426426,
      -0.00030100623838115546,
      1.7927128501877805e-05,
      0.02195453181412957,
      0.014069983898261343,
      0.006897252513245731,
      0.005345063231034029,
      -0.006514994925539948,
      -0.0017313468621750594,
      0.020507118733648275,
      0.012935006880009866,
      -0.016262302247195427,
      -0.00044926386136101863,
      -0.050596384079863894,
      -0.020922558195425305,
      0.14940799535623933,
      -0.03206947132139115,
      0.08751920665927582,
      -0.021490582866976565,
      0.0068379902040160605,
      0.019136627765848534,
      -0.005437111750061422,
      0.007058147797364906,
      0.0047898907658234955,
      -0.004743176344007719,
      0.16338855986584114,
      -0.016303345195809053,
      -0.01212301480085453,
      -0.002495212243008124,
      0.029880640588022665,
      0.008464736892672686,
      -0.036748594569073936,
      0.09333012527087041,
      -0.0014204950902253536,
      -0.010347166615760123,
      0.011496975647945436,
      -0.010965251017464666,
      0.012554579172701651,
      -0.011865430962063286,
      -0.013144670463764203,
      -0.005468888154357212,
      0.0242935182974005,
      0.0027950229675992202,
      -0.00048722594326453244,
      0.016631684820737444,
      0.00245073627244278,
      0.0014909455318158438,
      0.019612754586643088,
      -0.015244689285464543,
      -0.007732253071206179,
      -0.01920357209990112,
      0.06663017656365924,
      -0.002278910802599404,
      0.07497720136066618,
      -0.040721208258639806,
      -0.002519733365143056,
      0.008158003383884397,
      -0.0002834059659633642,
      -0.010743051951340966,
      0.14828176734649684,
      0.0016901297022495331,
      0.006386922517253845,
      -0.0025148694090700863,
      0.009623760173456064,
      -0.011680287422008112,
      0.004904648415472923,
      0.05065564220257118,
      0.004034232408095562,
      0.023975176849975487
    ],
    [
      0.020656789988853105,
      0.009812639846914639,
      0.033425597009811056,
      0.0006373878972759696,
      0.0018936037726154113,
      0.012696865138297906,
      0.018008285166216623,
      0.002922678630544714,
      0.09280143795328955,
      1.6883671771472035e-05,
      -0.009184899238436083,
      0.023876092976478646,
      -0.0006955012011699655,
      -0.03098725920967609,
      0.0015654908613653208,
      0.0003209954183335603,
      1.8392574327447297e-05,
      0.01358626082035786,
      0.016366923020411667,
      0.0010277825999218393,
      -0.00041867827534528,
      -0.02338121761183752,
      -0.0004424947909451699,
      0.038996324942245655,
      0.006911527282690364,
      0.00318325111094017,
      -0.02828583602481951,
      -0.08429436867713068,
      -0.01249021179082892,
      0.13460925037486918,
      -0.003692576565664506,
      0.07275348889804079,
      -0.03570945617893741,
      0.02542983300746544,
      0.03482400449116141,
      0.02258963882230714,
      0.014865839412517737,
      0.0035890755985769868,
      -0.003547521326189273,
      0.17482042414970472,
      -0.017307127424950563,
      0.006311602217298919,
      0.013031864771597877,
      0.031653883971600814,
      0.00616256406568397,
      -0.022282851021314325,
      0.09662975277878375,
      0.0233523355189184,
      -0.019410757010622864,
      0.01452772181679375,
      0.011315492366767899,
      -0.011856498633962041,
      -0.005517712047083854,
      -0.019965034412597858,
      -0.008794998498237679,
      0.0019819099563989874,
      -0.007005000027370955,
      0.01246443741313569,
      0.009589682064316042,
      0.005459345606736417,
      -0.0009070923540280282,
      -0.007009322806138711,
      -0.010699276585978091,
      0.005499136503106314,
      -0.001839200040845851,
      0.05926504858546678,
      0.042056548699636855,
      0.09150326849028215,
      -0.009917258752477497,
      -0.008937010363621677,
      -0.007675980580679561,
      -0.01399613608515808,
      0.027864890596788705,
      0.14579118219416798,
      -0.027437794261413493,
      0.03820449927531634,
      0.03402858735047372,
      -0.0017864286127866873,
      0.011060568060559304,
      -0.05707780267029313,
      0.03551931720495962,
      -0.022369522497865633,
      0.038861383395052185
    ],
    [
      0.006525346571167649,
      -0.005607644516438061,
      0.005621975280663727,
      -0.004195341197340693,
      -0.01004627110709345,
      0.003796993934283348,
      0.0034921547314100488,
      0.02847052201601832,
      0.08416381124556366,
      1.7507146622128874e-05,
      -0.004431772397737005,
      0.0021355693266324562,
      -0.00031330160858461357,
      -0.02056121504014221,
      0.015744916217026044,
      0.005284774613861496,
      1.8787529496430576e-05,
      0.010559463400881885,
      0.009220788756719176,
      0.016881251659441557,
      0.014628245625282187,
      -0.010626408725289251,
      0.008469523304407601,
      -0.0030085573847947683,
      0.00914027539754,
      -0.00940083966732077,
      -0.0019039834490645145,
      -0.07516770560822762,
      -0.020380561972975726,
      0.14232945119005724,
      -0.005799861596015655,
      0.0796313142852135,
      -0.01641989244997129,
      0.0007420755699185603,
      0.01659363565708305,
      -0.0032486443556477285,
      -0.0021401488397806093,
      0.01209780836159051,
      -0.012054207399270234,
      0.17819638342715705,
      -0.0333529885055354,
      -0.027234519537143294,
      -0.0011539893509893324,
      0.028871276753775904,
      0.003094885992144445,
      -0.007224256824909073,
      0.08195775895759036,
      -0.01880269923809051,
      -0.020646600210083937,
      0.015026662495372538,
      -0.013426874920040558,
      0.01179324099301689,
      0.000556053447674355,
      0.01569570845572385,
      -0.008872730175975684,
      0.0008571419045354921,
      -0.006360235786937696,
      -0.0062848566679124295,
      0.0034802728926135304,
      -0.011959531760549782,
      -0.00795586113666651,
      -0.0031359442441795987,
      0.0006365739901091095,
      0.0008407536569116736,
      -0.006597058936842608,
      0.04877555452741029,
      0.0004692952687272208,
      0.1087670627983481,
      -0.012624027596164728,
      -0.005602853782824914,
      0.0005170747279017078,
      0.004355946809226775,
      0.014932559305544532,
      0.13588815025041412,
      -0.015119050594335336,
      0.040182323479767294,
      0.008114351545200028,
      0.010458410736995691,
      -0.0003422620514200725,
      -0.031076086688902167,
      0.004727109555544099,
      -0.029465912799819652,
      0.03504798126185875
    ],
    [
      0.0010234395206843347,
      -0.0013030019948295536,
      0.013610699335747087,
      0.0033461483822297814,
      -0.006763518630858606,
      0.014176086678468525,
      -0.008690443325279233,
      0.015742462143888688,
      0.08899517581495375,
      1.8036197698473967e-05,
      0.014848805942767992,
      -0.002150492400438162,
      -1.9077271359640643e-05,
      0.013695533824594786,
      -0.009917819504291185,
      0.010938786032868365,
      1.9122669650101088e-05,
      0.03693401578044743,
      -0.010999732876237935,
      0.006858567799665144,
      0.00559797161458367,
      -0.008225234694922066,
      -0.006411737859708442,
      0.007252896686867914,
      0.002760708629640107,
      0.013361766001665493,
      -0.007828338452951073,
      -0.11372449772123028,
      -0.014345636437373218,
      0.140524924475919,
      -0.010338707279509706,
      0.06909721026842831,
      -0.0402570271833757,
      0.013521180445948227,
      0.015920790685445572,
      -0.0013075183764049668,
      0.0025777413928139968,
      0.0009348274935819482,
      -0.0008967233381389642,
      0.18399284857473275,
      -0.02472567586676846,
      -0.01701031856417103,
      -0.003575283346452601,
      0.025675020265046748,
      -0.0020667203283852055,
      -0.009678668946332474,
      0.08783657087088348,
      -0.0015419745264349332,
      -0.005991143630818388,
      -0.0026777460939565478,
      -0.000197346932075963,
      -0.008453645331955717,
      -0.007048794277632686,
      -0.00813638167506618,
      -0.0009039857807355768,
      0.0017754701649666943,
      -0.009150082791140459,
      0.017667416086549155,
      0.01560047343635716,
      0.011229645100820912,
      0.008076207172632363,
      0.010084293100769068,
      -0.0009519691875948223,
      0.016398355522592358,
      0.008049166458874334,
      0.039592640265862976,
      -0.01134073202254229,
      0.11807039263524327,
      -0.0069667088098166125,
      -0.007658868947952366,
      -0.004301341163447777,
      0.0026416102658852057,
      0.016011791108394787,
      0.14799943869962817,
      -0.007218172290947857,
      0.016879441674096593,
      0.021762501708062595,
      -0.0009533651613331145,
      -0.01946911479964008,
      -0.01892602981823798,
      0.028719511437654863,
      -0.014529423700947858,
      0.030201347633264587
    ],
    [
      -0.0049870072216138105,
      -0.004575383239237642,
      -0.01614000295247904,
      -0.0009646439692773878,
      -0.0029896073513005885,
      0.014823028228260069,
      -0.01695304446582943,
      0.0077330506439610746,
      0.06793697077687484,
      1.8485125255194288e-05,
      -0.015436111841553607,
      0.008286011498125134,
      0.018971388268228778,
      0.0023339167623541786,
      0.004711895830099724,
      -0.0038082242032511275,
      1.9407053629405366e-05,
      0.024562591557901737,
      0.012534664029762638,
      -0.0038397592865686532,
      -0.006197933980601327,
      0.001793918769076229,
      -0.034161376304260124,
      0.017763805321762995,
      0.014895024912363984,
      0.02094914835994871,
      0.00578745201133955,
      -0.11328736612332883,
      -0.013621094577132661,
      0.13812376054128442,
      -0.010058720048518224,
      0.060544984133787054,
      -0.03539104724529933,
      0.01825313961537276,
      0.008742525008742133,
      -0.014443902897830513,
      -0.0034939928748046944,
      -0.00936720276046041,
      0.009322316787359935,
      0.17768728096656844,
      -0.02784915801341314,
      -0.03240541845488457,
      -0.017522929876061286,
      0.013784569762282034,
      -0.022158973039800935,
      -0.0013223383412736692,
      0.09820409676631912,
      0.0015774007231630516,
      0.00773012954401768,
      0.022638746409405053,
      -0.00749608022511988,
      -0.009435746761544466,
      0.002299685778121353,
      -0.008884631858255897,
      0.015641027241511063,
      0.005902586829293887,
      -0.005019426555298905,
      -0.005844013364694136,
      -0.004441265801690274,
      -0.007788078291471916,
      -0.006364597350481051,
      0.01430807277851804,
      0.006351808502228079,
      -0.023531235211074895,
      -0.028827735036142145,
      0.022543383476037078,
      0.00964964735130559,
      0.12006968424320824,
      -0.004551706438629082,
      -0.009945983674867693,
      -0.005319476325490962,
      -0.015007576677951606,
      0.03292470003138616,
      0.14255358677974223,
      -0.01438506980446391,
      0.02149816224203663,
      0.012715823959560477,
      0.009181889835620698,
      -0.008233206122703776,
      -0.022390056566208776,
      0.01860357177674381,
      -0.002050228142828078,
      0.004808981162805456
    ],
    [
      0.004434128756166087,
      -0.001085570974457607,
      0.01771727608641096,
      -0.004858676125269541,
      -0.004057967844413068,
      0.006334330671267155,
      0.01007307116678418,
      0.011362164935456769,
      0.10175782132736913,
      1.8866063807621254e-05,
      -0.004288214716345311,
      0.006505239273452049,
      -0.016550808591360124,
      0.006812751952937488,
      -0.010908165224095158,
      0.009285210557136488,
      1.9648368335504152e-05,
      0.009844912546938173,
      0.01753498006271579,
      0.00045541349754213314,
      -0.0036928093331409896,
      -0.0036303729629296893,
      -0.014255567762100959,
      -0.01795572924412063,
      0.014532935435931541,
      -0.007421402505782538,
      0.03363991803939919,
      -0.11361604652022438,
      -0.003916475147325439,
      0.1303418660217277,
      -0.006344994124457375,
      0.0675578512961982,
      -0.03787056654748298,
      0.011747762237199802,
      0.021710156785979994,
      0.003372765622505422,
      0.014188645546900434,
      -0.005901768689243351,
      0.005939776195531259,
      0.16059230611699563,
      -0.016665984723999785,
      0.013158496579235266,
      0.025643654752139148,
      0.05299159259064168,
      0.007798716731720067,
      -0.013784699035552675,
      0.10342031433413969,
      0.0023003235997161105,
      -0.007522375496378514,
      0.01251046406141751,
      -0.005164019190946476,
      -0.0020852557820280745,
      -0.0004885220386080238,
      0.005184420565841905,
      0.0010305423164127896,
      -0.0029319839494724702,
      0.011988336632323984,
      0.0018408448460309594,
      0.00544635990037845,
      -0.006096493681263739,
      -0.004034785207715594,
      0.010326743046850408,
      0.0006753447945676014,
      -0.002125207663656199,
      -0.010933144626373304,
      0.0574135052595603,
      -0.012959135980849974,
      0.09653778282694767,
      -0.028639513941198767,
      -0.02455564924503404,
      -0.017507412439884348,
      0.010766438423277087,
      -0.0006511061934840953,
      0.14491416980556118,
      -0.014520887459453109,
      0.03778907092939215,
      -0.00809490129208482,
      0.009286862617600047,
      0.017330627705841418,
      -0.014530454961593286,
      0.02984955108511049,
      -0.0038173953493313376,
      0.023606552006921633
    ],
    [
      -0.004823044658714184,
      0.00238186624130088,
      -0.0004009271849391108,
      -0.009817198595761144,
      -0.010220643126887172,
      0.0180260824330422,
      0.004784080046735599,
      0.0047122291916246945,
      0.09907908133439361,
      1.918931012777472e-05,
      0.008018257686769637,
      0.0073459556006748,
      -0.03029858729630517,
      0.002894621776612035,
      0.0034620755023090644,
      -0.012028528259841027,
      1.9853136506770488e-05,
      0.02648335856014338,
      0.020854901472793938,
      -0.001582410540748468,
      -0.002269029236091324,
      -0.024467912403233264,
      0.019728246616581593,
      0.003835681388080172,
      0.007028371225729108,
      0.003133402190421244,
      -0.031024595323633126,
      -0.09380804860184384,
      -0.008683683689811351,
      0.1449228557873516,
      -0.026075792999742445,
      0.08033210443925586,
      -0.011916732308017148,
      0.0014370514308857532,
      0.011028888994491212,
      -0.005083553637739341,
      0.0004837186221542406,
      -0.006516301225060972,
      0.006471673205427381,
      0.1584334929126905,
      -0.012648221911074266,
      -0.02176314905522274,
      0.014268587106211745,
      0.046370142520084714,
      0.0030885224478615866,
      -0.015243259628651596,
      0.0940647774242979,
      -0.0023338180105556454,
      -0.011152894011825619,
      0.008702429729732982,
      0.011467116836557826,
      0.003702248831118792,
      -0.01638293021639206,
      -5.805824404735149e-05,
      -0.03788091289263559,
      -0.009979120824202057,
      -0.00018581498992330074,
      0.017952734486946433,
      0.022110802844815303,
      0.009096190163784518,
      0.0024699462948357086,
      0.009373121376851647,
      0.011726602053690685,
      -0.00010373008099685138,
      -0.008151160714593738,
      0.046875017574359266,
      0.0309326470326655,
      0.11528169946901567,
      0.01710923678476892,
      0.002038298380264293,
      0.014391268543379052,
      -0.0008103428606590453,
      0.03878255284326466,
      0.15443500972847296,
      0.01579544238300018,
      0.02394800444688472,
      0.025107093864973853,
      0.007743420247417784,
      -0.01851262365859112,
      -0.022199166756950457,
      0.013653370843335084,
      -0.027762643107454972,
      0.006492185972110432
    ],
    [
      -0.010232368532562172,
      -0.012584706722076205,
      -0.0038442670984222007,
      0.012953746324150446,
      0.009442808645517543,
      0.014691157921401878,
      0.015377061651552032,
      -0.0012655537425499434,
      0.08805581767718082,
      1.9463601566189318e-05,
      0.010279199225012796,
      0.02235152063303071,
      0.00474196067559338,
      -0.02099408269418436,
      -0.0064113396975426975,
      -0.0039036495412339547,
      2.002689302845821e-05,
      0.03701134674987069,
      0.0022474434053825426,
      -0.0014368242733539243,
      -0.0012727722735711103,
      -0.020362234690524842,
      -0.0015510186007647697,
      0.01594723595423129,
      0.005944839220969464,
      -0.013795591000198852,
      0.006042660769680393,
      -0.08187693438052869,
      -0.027677396484645445,
      0.14620368547160487,
      0.00472541212801213,
      0.07496043636777376,
      -0.028085254471899704,
      0.008895623308837005,
      0.011616149639808063,
      -0.006221831038270415,
      -0.002065765643125032,
      -0.019027577799536403,
      0.01906223430799108,
      0.15687475397556935,
      -0.013431830341829638,
      -4.219835860559337e-06,
      0.02461698517718789,
      0.04118300613624399,
      -0.0028251827526631574,
      -0.01924240948845136,
      0.08415688435814207,
      0.005397673703459823,
      -0.032116662781888204,
      0.002508430609785694,
      0.013094532787779199,
      0.005104178680038528,
      -0.006907960445805915,
      0.013760941627502514,
      0.00450741851096555,
      0.009732720611860177,
      -0.019003830869463455,
      -0.03194362159642439,
      0.01060095351345741,
      -0.002733157395792548,
      -0.001567277920794528,
      0.00943887441964502,
      -0.016724444547737367,
      -0.009247324625552084,
      -0.018769514996858527,
      0.03844124445650088,
      0.030520586451887443,
      0.08554835580878023,
      -0.007422284833096947,
      -0.011375211259508697,
      -0.009560217736388273,
      0.02079095910689789,
      0.01587841974287727,
      0.15505857506296475,
      -0.023157440095726994,
      0.029228782655145086,
      0.002734850250670245,
      0.01427867720694779,
      -0.0012509258191354365,
      -0.020513220907494543,
      0.015662639771145383,
      -0.021177391358073408,
      0.03194329653372144
    ],
    [
      -0.019523741066628082,
      -0.014187902785648708,
      0.00047926849443842784,
      -0.015961839855578377,
      0.004553143338312594,
      0.021894384212344405,
      0.017692056548221723,
      0.0028531042522892775,
      0.10392658178803521,
      1.9696352222567162e-05,
      0.019851069581582666,
      -0.010497132119110257,
      0.010410748292071483,
      0.001391610337800239,
      0.0068208201465860645,
      -0.011953646234664373,
      2.0174334540692376e-05,
      0.021510793141768667,
      0.02334617052216442,
      0.008961261094877594,
      0.007962630364801652,
      -0.01500884400040336,
      -0.0055369355619879785,
      0.020390060585899646,
      -0.02607892601549272,
      -0.007783006692863265,
      0.009623777239500076,
      -0.11450416273391792,
      -0.025511897362489936,
      0.14537931970069234,
      0.005885127354617997,
      0.07209834511620798,
      -0.02739239527989524,
      0.029921276193902446,
      0.012470575088375475,
      0.0024761659676142992,
      -0.0036681801804626197,
      -0.03530365378015976,
      0.035338775679899,
      0.15305300326662524,
      -0.010952960197666608,
      -0.016925053108445973,
      0.0017081144040719757,
      0.05725504771114865,
      0.012736735954043754,
      -0.007879479112317093,
      0.09161201933989038,
      -0.013016949585168101,
      -0.020785096861567987,
      0.02111937245473773,
      -0.007425951135650903,
      -0.017803572311467227,
      0.0005064194139275855,
      -0.016708074646554442,
      0.0015250540357750696,
      0.01001892930004953,
      -0.016417354891898172,
      0.020299760912293834,
      0.012356488140854063,
      -0.002275140394090237,
      -0.0055666681701211414,
      0.007158795334648574,
      -0.0059426226322760916,
      0.004860723471923584,
      -0.001413637733962104,
      0.05192659715032443,
      -0.006275055073011851,
      0.09744370572223203,
      -0.01844712800935187,
      -0.0035198744989361416,
      0.00020088009411635757,
      0.01004284524209401,
      0.003624172384920755,
      0.15118908424366415,
      -0.00741752693317442,
      0.02632191913029832,
      0.027488378243884278,
      -0.0033881409683050004,
      -0.014025553259725156,
      -0.020192162576828855,
      0.02954702637946841,
      -0.010846577999836144,
      0.025951324707195397
    ],
    [
      0.02150576442369151,
      0.005261036297214742,
      0.022987942223031962,
      0.004635636487692483,
      0.0019403183117104443,
      0.009647277556724934,
      0.013526751430963104,
      -0.011241341770755461,
      0.10410941961032683,
      1.9893853348951378e-05,
      0.003997761044901398,
      -0.003427855481046356,
      0.0009794416562595113,
      -0.011246326664490401,
      -0.019587102632456305,
      0.0020690932619040203,
      2.0299446388689626e-05,
      -0.00041925145937217294,
      0.043047532871788856,
      -0.000742339488005809,
      -0.004935532691818744,
      -0.0021802107821085456,
      -0.012980481366674734,
      -0.0004555160770092431,
      -0.02272159143114384,
      -0.0013119615437708863,
      0.02443814859586428,
      -0.11541221574068003,
      -0.0033300924477762937,
      0.12891657327723108,
      -0.012052710531797534,
      0.06251831927631799,
      -0.04301022155376093,
      0.020041890947829932,
      0.011632458284543918,
      -0.012446113702170917,
      -0.001878194829137412,
      0.014125136464216603,
      -0.0141710333020333,
      0.1530482410315458,
      -0.013505329896119838,
      -0.001821725009300142,
      0.020303831510437964,
      0.05893682355782556,
      0.009851449865435385,
      -0.028902840452386943,
      0.10018065301017434,
      -0.0005542256997348154,
      -0.008548379650109635,
      -0.0018628549160126474,
      -0.014525544498402867,
      0.005618040948245894,
      -0.016341945801855395,
      0.02651802840257278,
      0.012016715164408427,
      0.007551785964407711,
      -0.020649645274837595,
      0.0015414608042408216,
      0.014271653673334689,
      -0.0003284331244430478,
      0.003334449880049097,
      0.014769475217051638,
      0.00243360212325432,
      -0.005918062425049859,
      -0.011337850137694384,
      0.05118558317504175,
      0.007259963863972736,
      0.0965998864360346,
      -0.00844125011143565,
      -0.022291206823158632,
      -0.013286749992299169,
      0.016296404284877188,
      0.01363335574115773,
      0.15037225260700474,
      -0.014813035347429676,
      0.024817411834163014,
      0.013672468214630971,
      -0.007200488581343228,
      -0.014901098232416823,
      -0.00295118722610578,
      0.03162773769453989,
      -0.009286219562566055,
      0.027313468593708555
    ],
    [
      0.011888061819221602,
      0.012370030574588069,
      0.02240729677283252,
      0.009294920549206297,
      -0.001151261223101911,
      0.019353418329870364,
      0.0022369846614682643,
      -0.006917851134318902,
      0.07995980620213897,
      2.0061443402316047e-05,
      0.02319082587318725,
      0.016347508228302023,
      0.023798944182863498,
      -0.026315154842984696,
      0.003483639898874549,
      -0.008948810201841061,
      2.0405610346669458e-05,
      0.02277724313736413,
      0.0005308420473573083,
      0.006835289063989903,
      0.0073761060419127306,
      -0.0050209372206889875,
      -0.0026738168873514864,
      -0.012892556940534238,
      -0.008799107775505697,
      0.005884380137658422,
      0.0058299381550949835,
      -0.08142682855846058,
      -0.027714742774724507,
      0.14956955465142913,
      -0.015178991843024505,
      0.07335988525959002,
      -0.03050312768638871,
      0.023059250411170962,
      0.017676125610369454,
      -0.01644951789225632,
      0.003020588894161634,
      -0.007318647106645577,
      0.007276280996244387,
      0.15761776593478863,
      -0.016273971689941814,
      -0.01790464211121976,
      -0.005401137601572891,
      0.03400815343058284,
      -0.014987833450609913,
      -0.009097071347882747,
      0.08794824107356698,
      0.021708416464753154,
      0.003977104358719859,
      0.008628078691106352,
      -0.019068906532512774,
      0.001008310618599446,
      -0.009181006981289,
      0.013255167320561973,
      0.006575551870115642,
      0.006694311811017216,
      -0.007113961134964306,
      0.010868008480815029,
      0.0031206124367850604,
      -0.003515565618693175,
      -0.00019388609868009507,
      -0.02015382835905346,
      -0.006269126372656938,
      -0.0013935273527248592,
      -0.008827654356325657,
      0.024151803875685895,
      0.013164579111471751,
      0.08678983795165511,
      -0.014244050451252583,
      -0.004358469631575804,
      0.007474918684191558,
      -0.03223357786639301,
      0.008521565103037013,
      0.14997128544449517,
      -0.03725888525902563,
      0.027204238115902137,
      0.01781078218750025,
      -0.00849651849534874,
      -0.0007256756834209933,
      -0.011740986691897909,
      0.03191310806702442,
      -0.0034494121087188198,
      0.018393479342261022
    ],
    [
      -0.027242131580659815,
      -0.01791547666494166,
      -0.0005712777534721191,
      0.008600693583847041,
      -0.00297752064506741,
      0.009584355744085492,
      -0.0061806219658198545,
      0.012532329029743335,
      0.09344166622758068,
      2.0203652343099823e-05,
      -0.0030387896583203497,
      0.007221437442154659,
      0.02644304292474674,
      0.025819690687113254,
      0.006469908350331757,
      0.0058172951131127875,
      2.0495696027237025e-05,
      0.029212475698419376,
      -0.016413810459645285,
      0.006119505724789341,
      0.005500971294566101,
      -0.0011315241296559345,
      -0.009618629636160036,
      -0.00406910988324488,
      -0.0035764246530498893,
      0.00747002691208658,
      0.007483165912816008,
      -0.09505167757616842,
      -0.01326886088141063,
      0.13669511904618628,
      -0.005505112146421844,
      0.0783282381059536,
      -0.028844583401387198,
      0.0028517192336705026,
      0.01950821723219846,
      -0.008039391737653567,
      0.003703692283442298,
      -0.007077803192509274,
      0.007117633599028044,
      0.16922922383180142,
      -0.010461640153813533,
      0.011424817107315462,
      0.013568419291907597,
      0.043900250459053027,
      -0.004699701674479417,
      -0.007636954440499872,
      0.08772323863979589,
      0.004361138120749408,
      -0.00781854481087863,
      0.012527694828736967,
      0.0076741079417828005,
      0.002481164622188758,
      -0.0014056379813437176,
      -0.02805679976196437,
      -0.001036475421748043,
      0.005057719143670619,
      0.00022297616480145,
      0.0020394724963794233,
      0.018503725884361794,
      0.008412533913164485,
      0.0056286896632504625,
      0.0025689065500911126,
      -0.0009267416283242785,
      0.007216033724998074,
      0.0016451602148817664,
      0.03246988560338672,
      0.0004029436314047412,
      0.10031391666577678,
      -0.019969923131279786,
      -0.01056693486790909,
      -0.008205316891293469,
      0.0019194897636453474,
      0.010354687038269667,
      0.14888043099871545,
      -0.026988819121917296,
      0.0067192782429330924,
      0.019402270771258393,
      0.005290367154858881,
      -0.012332667919136947,
      -0.023394152036055167,
      0.04155707535551721,
      -0.0005049176093826467,
      0.030010121499907994
    ],
    [
      -0.009225496126850958,
      -0.011751948928714931,
      0.013680942904742357,
      0.01379495959603816,
      -0.02852548062777408,
      -0.0030637885366266446,
      -0.004347783003080955,
      0.012653911986225338,
      0.09583505213232517,
      2.0324324080072386e-05,
      0.002185265381525848,
      -0.0018021123018148065,
      0.005479060461749202,
      -0.002508003717760418,
      0.0014363686609348033,
      -0.0038207929864872486,
      2.0572138447035675e-05,
      0.023172477938121865,
      0.012183726739465732,
      0.0022864213647062603,
      0.00020013280001718358,
      0.007335086316665286,
      -0.001766651484579182,
      -0.0007566761591815381,
      0.005653113448912918,
      0.0021835717790183455,
      0.0009428842254352683,
      -0.10363678656483306,
      -0.02043903061694717,
      0.13587668707620057,
      0.009120467126769557,
      0.0701699574435358,
      -0.0280761346715626,
      0.016862652055743894,
      0.01897970541889709,
      -0.015255228312593901,
      0.006122174775486889,
      -0.007169031047504535,
      0.007124620349632617,
      0.1712506142616955,
      -0.01780303233990746,
      -0.0014013527274239557,
      0.012122414543016543,
      0.04725054288244493,
      0.006115995368778333,
      0.0025617146183802616,
      0.09538459983025273,
      0.014833635838562884,
      0.0011260738355060814,
      0.02641712374062975,
      0.007920144620190726,
      0.00012386024803661636,
      -0.02392896450995821,
      -0.0016599865359365653,
      -0.030828478577767028,
      -0.004180830240966582,
      0.0018873528775427903,
      0.021037845002890507,
      0.014622893415368085,
      0.006265468420850883,
      -0.0008563396030475627,
      -0.003513569916886856,
      0.008882169219475378,
      0.00752573057030139,
      0.0005611486817360166,
      0.03450602478901877,
      -0.004238696458266637,
      0.09224541131167817,
      -0.01884949031411922,
      0.006540518792501635,
      0.01722120491089622,
      -0.004083541689443064,
      0.0026501897850996063,
      0.13739085700834577,
      -0.020063798935641784,
      0.009000371271974832,
      -0.008619092814328714,
      0.0153222071504693,
      -0.0034620070956863525,
      -0.0011449004937202564,
      0.029174006217685147,
      -0.0037335316771120236,
      0.03610960790441199
    ],
    [
      -0.008695179619146964,
      -0.01129146339390554,
      0.007692510180960243,
      0.004729093019382012,
      -0.009905279947213508,
      0.004754548436836282,
      -0.024024839881951903,
      -0.0005430410003350464,
      0.08218205232678723,
      2.0426720371218396e-05,
      0.01585087882324518,
      -0.01112344976972389,
      0.01036546483362109,
      0.009000825328635166,
      -0.01280390134909552,
      -0.004810588161354559,
      2.0637003845263198e-05,
      0.007692416254895546,
      0.04083821823865697,
      0.002929882317011568,
      -0.0012945213387046458,
      0.00963208882001167,
      0.011764248209612884,
      -0.015712033637533623,
      0.0034111873285941844,
      -0.00469621386221091,
      -0.001149503732371152,
      -0.07103548772119958,
      -0.00957299443393581,
      0.14458439862251812,
      -0.03187781593999883,
      0.07509730996935715,
      -0.037309429856827156,
      0.012650574598252102,
      0.02503969233658026,
      0.0044794767840754535,
      0.013507288870988853,
      -0.0023070611101274428,
      0.0023429538124644525,
      0.18676304813356087,
      -0.021483294489323367,
      -0.009993030253549157,
      0.009025819967279747,
      0.03717950842235354,
      -0.009432805549852756,
      0.016881186513318394,
      0.1031849211545775,
      0.0085184992043823,
      0.012385459147877127,
      0.0283521236546082,
      -0.01961179874874897,
      -0.005454004430156645,
      0.020510597731572072,
      -0.028898886787413102,
      0.0011292817402353238,
      -0.013690130265747716,
      -0.001633140694583644,
      0.032176243697504436,
      0.005019583351610231,
      -0.001981939594385645,
      -0.000214439680622986,
      0.01922268053995082,
      -0.011877300291175584,
      -0.021263745880524702,
      -0.027138621799455045,
      0.02298000050292547,
      -0.008042060644803298,
      0.11445165785305078,
      -0.02470351649018102,
      -0.009842467089912876,
      -0.0064253258244613976,
      -0.005283419489888645,
      0.015736778974847255,
      0.13928169219846914,
      -0.04275905011303496,
      0.027964127496426176,
      0.02266918578711473,
      -0.004371515882539467,
      -0.015150133544418031,
      -0.015458157959678556,
      0.040480030192226894,
      0.0008239397459442049,
      0.041567760619935945
    ],
    [
      0.020451019163613433,
      0.007360571425029208,
      0.017452362587803298,
      0.011631708388081884,
      0.0011615253362870599,
      0.015552434695877922,
      -0.016896130755769685,
      0.009448018625483078,
      0.10674311368134685,
      2.0513608989079073e-05,
      0.034764438997456404,
      0.020110788559423342,
      -0.02010936704291836,
      0.013097551623500365,
      -0.029075557697646227,
      0.006500427891518919,
      2.0692045534135867e-05,
      0.022634192471461506,
      0.011483687581619498,
      -0.0008482179766224826,
      -0.0034724423856713317,
      -0.011566590777093568,
      0.009746133746607875,
      -0.02780574364321833,
      0.004684399642027314,
      0.0006948820584540289,
      0.0014056808597160335,
      -0.09078525583042127,
      -0.020751316447093326,
      0.14822347905340608,
      -0.015670923730463065,
      0.09674998165857564,
      -0.027608450048599065,
      0.010812474731823203,
      0.01868491600101034,
      0.006676748019874473,
      0.006929225343132863,
      0.0034627662324719435,
      -0.003425763553274124,
      0.1684975442824416,
      -0.010575230615649682,
      -0.03501466895484486,
      -0.0019035564296623012,
      0.06621872933939135,
      0.01790540452158393,
      -0.011402819553678337,
      0.108130248256427,
      -0.014666404260960603,
      -0.01593326071990136,
      0.01975786339515161,
      0.019365666603697634,
      -0.01900740759566868,
      0.01340910643743945,
      -0.024419634566059816,
      0.0002100592534064682,
      -0.00402957167399022,
      -0.014082583965674588,
      -0.002060395093017489,
      0.003120755859699313,
      0.0010409228046404059,
      -0.004434872486220469,
      0.0017330995610968579,
      -0.008744364158424278,
      -0.014521967102692422,
      -0.021176067557292618,
      0.05119889661017792,
      0.010789932558766131,
      0.09230312807468037,
      -0.02394008544371149,
      -0.004672199106878042,
      -0.0023218645547366857,
      0.0023677035362798947,
      0.014732950799018017,
      0.14915554148290747,
      -0.00723775062651454,
      0.04150726180513704,
      0.003420476276745149,
      0.011927070830172345,
      -0.01129989640446582,
      -0.013091185822905861,
      0.017224459883828903,
      -0.0074788599947319505,
      0.025278529520757483
    ],
    [
      -0.01948211222593962,
      -0.009982789436275707,
      -0.0017339335703919195,
      -0.007240933759499682,
      0.0054762706072121,
      0.01852622779511698,
      0.005568958461956734,
      0.01918319498577137,
      0.07905964733432722,
      2.0587338533667094e-05,
      0.02617702760772551,
      -0.002281299601882962,
      0.007788668220337546,
      0.015209092057626938,
      0.007307172396462859,
      -0.00999565254355069,
      2.0738751290929876e-05,
      0.015342591180380144,
      0.00788906227868876,
      0.011862049067148564,
      0.012581733980196953,
      -0.0011711583758051512,
      0.016249161049339305,
      -0.01989164262160965,
      -0.025763696770046283,
      0.018503094229588166,
      -0.01340402525021878,
      -0.09236987385360777,
      -0.017759374908156905,
      0.14172369256001022,
      -0.018109695459220976,
      0.056185215474465165,
      -0.05290300774349193,
      -0.0008720918712615917,
      0.020907285358965598,
      -0.00018485604718663845,
      0.005310327302258204,
      0.00033408529796802875,
      -0.00038299600131255253,
      0.168611145905083,
      -0.026022564322412692,
      -0.01242314273721752,
      -0.01503756598725755,
      0.0371976314274502,
      -0.016086972735969807,
      -0.020902785276134442,
      0.0871875091872815,
      -0.0005810967658910304,
      -0.011325036474520257,
      -0.012170744318912036,
      -0.0016480613153747174,
      -0.018544080366649632,
      -0.004945068268578569,
      -0.0018729582232421497,
      0.00477229806575789,
      0.01638994733488256,
      0.0003058973197815496,
      0.0042531134752912736,
      0.011583657859364573,
      -0.008086524999322095,
      -0.009519402369618976,
      -0.00958539641545893,
      -0.019969811552229617,
      -0.003383564147253258,
      -0.009600989083403889,
      0.021270217851000174,
      0.0035040819694569067,
      0.10253778260861329,
      -0.017475626366746447,
      -0.009252464751455724,
      -0.010536106293353175,
      -0.013277092818517333,
      0.013719699926586061,
      0.13652998126140872,
      -0.03148073678665219,
      0.014877653822974634,
      -0.009414863326309057,
      0.021134229905085403,
      -0.008531679058151814,
      -0.002826208859113651,
      0.04625967616273695,
      0.0017817649915736367,
      0.02394437627361808
    ],
    [
      -0.01884003444676708,
      -0.010947933887716295,
      -0.005384780497304101,
      -0.009817265406763125,
      -0.016374636801148493,
      -0.003448440723650497,
      0.008384325492408987,
      -0.010563725505890293,
      0.08886177409127745,
      2.0649901915144482e-05,
      0.01336511529502876,
      -0.004243065332700615,
      0.020295398372624274,
      -0.01519076217467146,
      0.017523771016909787,
      -0.02802209121340529,
      2.077838357261281e-05,
      0.016881203379196522,
      0.02783721465010116,
      0.003518068468378532,
      0.003452167364610906,
      -0.0026908689861567144,
      -0.009426417966823369,
      -0.011246309474313447,
      -0.00026431687142470443,
      0.0019685557639783605,
      0.015848515242556326,
      -0.09002320043858916,
      -0.014796532224414814,
      0.1383440558296031,
      -0.003911592528930221,
      0.07894203946789047,
      -0.02482102561539715,
      0.014033478594227154,
      0.033885017119870166,
      0.004311561826465057,
      0.023235193151700972,
      -0.023009789860081224,
      0.023044530716708308,
      0.14644656029315378,
      -0.02716951489362888,
      -0.008467172970228896,
      0.03382324350384139,
      0.049849985504144975,
      4.880442088745027e-06,
      -0.014534104368588775,
      0.08238041757757623,
      -0.0010154709969501735,
      -0.01097800897681031,
      0.017542361672780532,
      -0.01960717722561789,
      0.012330309087800601,
      0.005503496048220512,
      0.0066919081472635615,
      -0.014345758300510313,
      -0.019298187196649826,
      0.01728134209309131,
      0.013202236323485893,
      -0.004124133543261677,
      -0.00701613398478099,
      -0.0022280418390184286,
      -0.021016972953339853,
      -0.002519690487307229,
      -0.001746162332915972,
      -0.009958671995769152,
      0.033170731060510016,
      0.021185767421947256,
      0.09702285284228596,
      -0.006667154547061011,
      -0.004048118381468388,
      -0.006798068755221535,
      0.0006475951450685387,
      0.021959748686109323,
      0.1347061229671747,
      -0.02074197941341222,
      0.004804207320710496,
      0.011899831956853506,
      0.01685592330505079,
      -0.022829592691826786,
      -0.02006669093460715,
      0.00939703189344974,
      -0.017669579254306615,
      0.028359612302621236
    ],
    [
      0.006215300732021179,
      -0.003804745728576488,
      0.010549639435565257,
      -0.0010896693635931683,
      0.00820121433772767,
      0.020013716675374382,
      0.008715233541282123,
      -0.012192211406932026,
      0.10403367223468542,
      2.0702990222195588e-05,
      0.016922550057360024,
      0.026496330020899145,
      -0.006006021861970827,
      -0.00827083784101288,
      0.008520198416836834,
      0.00012328595781498,
      2.081201364006521e-05,
      0.021453225542112354,
      -0.01612548551385145,
      0.00894164401909298,
      0.012754199519303256,
      0.007852029583012168,
      -0.00548885582384161,
      -0.022763500421549655,
      -0.0020067493972128177,
      0.02142483488391961,
      -0.002032125590518066,
      -0.09102383707890503,
      -0.00726319833766545,
      0.12923319226272698,
      -0.005670675967890741,
      0.054603535568629624,
      -0.04457114971555923,
      -0.0012477316932367685,
      0.009836743925325967,
      -0.013062755478393674,
      -0.001524903585556017,
      0.007331425404830549,
      -0.007298989842228477,
      0.15721732935922322,
      -0.012542145018602461,
      -0.008699419584917729,
      0.009006348891902036,
      0.06171588670327402,
      0.008053314551753187,
      0.003001698691830798,
      0.09249732435789997,
      -0.013490318581973675,
      -0.0014302254190471154,
      0.018156755575647696,
      -0.007238450974500973,
      0.0168047084963788,
      -0.01788076926855942,
      -0.006323504125259585,
      0.0010652948027112044,
      0.0035765260358703453,
      0.012964934500596588,
      -0.0058715299868052845,
      0.021041455411017713,
      0.00513298963040966,
      0.008692065886581814,
      0.01448257604307101,
      -0.009218233875574487,
      -0.012680696437636571,
      -0.01584163055305672,
      0.04436878025523354,
      0.001487370372590704,
      0.1191330105604638,
      -0.014968300430808958,
      -0.026289319402683274,
      -0.02375139058001691,
      0.00012039398892288924,
      0.024607549361761245,
      0.14646734373276804,
      -0.03318613850626087,
      0.00403013254491876,
      0.00027760140168129905,
      -0.0026882079170492254,
      -0.016547389896659766,
      0.011964555535877271,
      0.0320881921744328,
      0.0006482763908065873,
      0.036228291301235144
    ],
    [
      -0.01329109259987596,
      -0.010041199209081074,
      0.016230788659394754,
      0.011501770378281925,
      -0.0022782962579482565,
      0.009290956195995789,
      0.013685341033600253,
      0.008697083497213107,
      0.07845526589144469,
      2.0748038432170774e-05,
      -0.009620905238189736,
      0.012302021850976449,
      0.0029876882807265,
      -0.019353582567814692,
      0.00219874885618759,
      0.0010211040926672494,
      2.08405505142701e-05,
      0.0316225499658379,
      0.007283079540252672,
      0.0009654759348869185,
      -0.0002451295777017308,
      -0.027730094123251094,
      0.016922729553305836,
      -0.016270694662853212,
      0.018627529656964775,
      -0.007960732990969228,
      -0.00969723108604989,
      -0.09910183631608468,
      -0.03850493073157841,
      0.1659066248620712,
      -0.02043285426648424,
      0.058957106385826,
      -0.045427350471419436,
      0.004486090279023064,
      0.01062708275812201,
      0.004751444376890207,
      -0.0018105264356933562,
      0.01947954162978123,
      -0.019529650497305723,
      0.1761412449086366,
      -0.018719549934881535,
      -0.025541845279574434,
      -0.012974901053214014,
      0.03646731989216058,
      -0.015612385313644249,
      -0.012156388817678245,
      0.09450280951112416,
      0.0042947782741424535,
      -0.0019533245453673,
      -0.008359885391414195,
      -0.003483129027984186,
      0.0009122004906028073,
      -0.01031472118221379,
      0.007694347360058921,
      0.00560736633636769,
      -0.0006707833546540547,
      0.008410712110468236,
      0.0049976966933814,
      0.018654409317645605,
      0.0025499468646131684,
      0.003557893731999061,
      0.019029393001396052,
      -0.009566464218401256,
      -0.004763722260288676,
      -0.010931044454234809,
      0.018668443350643067,
      0.015391588206439905,
      0.08571777234496987,
      -0.02013518347966803,
      -0.02250640480817691,
      -0.01654975302267267,
      0.0042417279073989934,
      0.010519604995490596,
      0.15035886776406374,
      -0.020729195724158066,
      0.01254666917345339,
      0.01687630522447501,
      0.0013899562114945928,
      -0.01734660053195832,
      -0.01063756231524509,
      0.03444384322931982,
      -0.0009073693158685083,
      0.024191356460733546
    ],
    [
      0.010696389163597907,
      0.008045450411761261,
      0.04029316788388412,
      0.004073503098372778,
      -0.0073520008396992225,
      0.010949904680631312,
      -0.01759333562989343,
      0.0112692012692849,
      0.09733466980819347,
      2.0786264198534483e-05,
      0.007384586512858227,
      0.011402293573729298,
      0.0012987788790558442,
      -0.008972075451479954,
      -0.0020782894367635373,
      0.004518707796544941,
      2.0864765547158613e-05,
      0.02289030771156354,
      0.006659231885119503,
      0.006829478128698415,
      0.006062041000142869,
      -0.0055845971595945305,
      0.0044738155991586055,
      0.00592786159225461,
      0.004876310147628184,
      0.015147388022915851,
      -0.0286107563451602,
      -0.08795993114531912,
      -0.0349115275546767,
      0.15627047242213282,
      -0.005346017100904123,
      0.0639347069760953,
      -0.01999269903393419,
      0.005470391001808116,
      0.03636167823044991,
      0.01931001730039891,
      0.023935826868960414,
      -0.005797518876810698,
      0.005830635041532243,
      0.16265582285207525,
      -0.0226296711240671,
      0.005629112002400656,
      0.005196631632362793,
      0.05505553289275432,
      0.007468925379933039,
      -0.024905187339784363,
      0.10061379007642227,
      -0.007228904695819511,
      -0.005827189568957807,
      0.007505383820461149,
      0.008406157244993204,
      -0.014258495005103957,
      -0.009148133629652938,
      0.0029544578071465056,
      0.0025160402471829475,
      0.0024166656797542023,
      -0.012488553473986603,
      0.009164717794312318,
      0.01897050013797746,
      0.0042074531691508625,
      7.115802799524998e-05,
      -0.0007698929086817352,
      0.004561349359118684,
      0.007820821933233574,
      0.0024846446142023403,
      0.03672015506735983,
      0.010778239177980169,
      0.10727572552280504,
      0.002311353495141886,
      0.005564293418175025,
      0.009582961947800417,
      -0.005382559909520938,
      0.022187871266035095,
      0.14048245174639631,
      -0.026391353958896094,
      0.011346352073627754,
      -0.0037819765921936936,
      0.03163259978579908,
      -0.04337740637567592,
      0.004723938799718663,
      0.03795840546403423,
      -0.00762626567739249,
      0.03410953079873504
    ],
    [
      -0.000168115307775146,
      -0.008809513275957553,
      0.011645562649841987,
      0.00818760457689545,
      -0.014544221434117013,
      0.009568541555096774,
      -0.0010294103617802027,
      -0.015510589998003577,
      0.09587760769607259,
      2.0818700764047155e-05,
      0.023549277272175564,
      0.032715349581372524,
      0.0032034699165531108,
      0.019472603938099877,
      -0.01584081462458546,
      0.001297940679266794,
      2.0885313271255847e-05,
      0.013718698181845533,
      -0.008658582743778639,
      -0.0030604443559634127,
      -0.001589464863333895,
      0.01430789331243715,
      0.021673970439212605,
      -0.0008843342138765867,
      -0.005383230429783838,
      -0.003870676215940532,
      -0.01664716734543066,
      -0.09139422097484144,
      -0.03469686993120663,
      0.14750067210694912,
      0.002622023435901602,
      0.08138685703825245,
      -0.024108529931877752,
      -0.01561200989058412,
      0.005142425997631822,
      0.00016849473231276993,
      -0.005288955946001298,
      0.016163485307921208,
      -0.016131241120060452,
      0.16406577352769286,
      -0.017509311459911827,
      -0.011712360191718606,
      0.017435592089628492,
      0.05410478827281136,
      0.004158540380514475,
      -0.019835566184161213,
      0.10807231141668588,
      -0.015156272733549315,
      -0.004936199386863755,
      0.031284283434362084,
      0.00785335031277597,
      0.0007425381138036627,
      -0.018456347946845135,
      -0.007786402293494641,
      -0.005333869963181678,
      0.0001812276383058131,
      0.006980369773523153,
      -0.005569689988466352,
      0.005644574144523168,
      0.00025197598149654743,
      -0.002008531109909428,
      0.016979125991348983,
      0.007413166383769088,
      -0.0005010391064279973,
      -0.010273246316434632,
      0.036014509756860304,
      -0.00768418868726955,
      0.09043084405187543,
      -0.019099984535749424,
      0.008164620126731074,
      0.020552445080281336,
      0.0030227540600098043,
      -0.0008299782735511731,
      0.14425825395734648,
      -0.023647049242424348,
      0.02578372094125224,
      0.014815245392971766,
      0.006593933285839569,
      -0.025090432570232097,
      -0.006008598819597513,
      0.03342407610775806,
      0.0013274487620524391,
      0.03827667404225857
    ],
    [
      0.009008509945669547,
      -0.006330958090288278,
      0.030544293441373337,
      -0.008803749631681748,
      -0.006439255020867952,
      0.009976585665880024,
      0.0002942983943569886,
      0.012326945550878841,
      0.08938790033215695,
      2.084622488932529e-05,
      -0.011144030206697273,
      0.007236481000833639,
      -0.002853659583202683,
      0.0024104970805209802,
      -0.00017345920597370938,
      0.0030653825271445777,
      2.0902749091704828e-05,
      0.025149158251951593,
      0.009606132614282687,
      -1.3787813569764206e-05,
      -0.0034791691505144124,
      0.011459056481623516,
      0.009496761656318185,
      -0.006953371954276606,
      -0.011943373728221502,
      -0.010388036809237163,
      0.0025739589041994418,
      -0.1017202716566308,
      -0.04068067371744009,
      0.1624089769202033,
      -0.002539261678303698,
      0.06944975680767053,
      -0.04611168808656094,
      0.022345309421222596,
      0.018656006338394055,
      -0.0017561005792259936,
      0.010913860985060444,
      -0.01063860477718475,
      0.010669294111490105,
      0.1636307407673448,
      -0.02409251599961836,
      -0.004774689206551015,
      0.029752599342140442,
      0.047714530349284245,
      -0.003074195329987991,
      -0.03241218745956071,
      0.08238324909677845,
      -0.002463035130746023,
      0.004838658971589528,
      0.011151167015198091,
      -0.0013053433474142205,
      0.015172843053753972,
      0.005131659322018469,
      0.008056689753384885,
      -0.011091866537873066,
      -0.018535927146974614,
      0.00411962424850686,
      -0.003112733093058028,
      0.013657602041588937,
      -0.0012775188002845507,
      0.002461152487884667,
      0.008984685815049041,
      -0.029436533035374524,
      -0.022516682059635224,
      -0.024219710323528862,
      0.02922130787181291,
      0.0002240112104046222,
      0.12758475418798293,
      0.005640256880160526,
      -0.0005473526585648572,
      0.005433376489451816,
      0.016920696098736046,
      0.030649933961755544,
      0.14566039698993674,
      -0.005549029278770623,
      0.03983850146266476,
      0.02324582262696788,
      -0.0033470053716970253,
      -0.008599692381982625,
      -0.01966514103848841,
      0.02582339254079259,
      -0.004304405263143339,
      0.041713639229975986
    ],
    [
      0.022054932477437124,
      0.012085628723649273,
      -0.0018331029585413555,
      -0.014023680731863828,
      -0.007045169145646284,
      0.005182169668681378,
      -0.0012656439015809853,
      0.002457336329327108,
      0.08858869481060333,
      2.086958055168916e-05,
      0.009605582249829582,
      0.016869351157775388,
      0.00920697410513273,
      -0.010953613801772368,
      0.006991813460467393,
      -0.02281076395456444,
      2.0917544298866222e-05,
      0.004541430970699003,
      0.029068117216080748,
      -0.003966818229890099,
      -0.004259246861700585,
      0.00799951472170949,
      -0.0007988814565944705,
      0.014201005343488293,
      0.01455659695134479,
      -0.021502617073415744,
      0.012066417323132876,
      -0.10255497287122169,
      -0.009580608087558125,
      0.12845781200440737,
      0.009172573488650668,
      0.061125952219025885,
      -0.03913313107519147,
      0.014368192715295252,
      0.023652354372188444,
      0.01240439968486728,
      0.00652456267958476,
      0.0025332458171211983,
      -0.0025055596080918946,
      0.15604017655234934,
      -0.036807333095963846,
      -0.00366694363099721,
      -0.0004780386331455413,
      0.05061397716868299,
      -0.000922199655980007,
      -0.012553488811464938,
      0.10823809157229473,
      -0.002249793114346423,
      -0.020800534104470973,
      -0.003252679939113206,
      -0.004465068225202564,
      -0.011831979020637057,
      -0.029983342577761727,
      0.022558499502249522,
      0.0163973667972229,
      0.019637411598911816,
      0.003566947227241669,
      -0.005574305802921785,
      0.001834496524970895,
      -0.005573630071719051,
      -0.005683784480866054,
      0.00959381424372607,
      0.015973322643971687,
      -0.011324515273598599,
      -0.015617579263870479,
      0.03185069782831019,
      0.01318810243440142,
      0.08429673477772621,
      -0.011238417017999007,
      -0.009679798680696391,
      -0.0069935545192982475,
      -0.02113478343449273,
      0.006978095853195702,
      0.13182890969348054,
      -0.0028527747346757427,
      0.04056797272069845,
      0.023222348614059463,
      0.0017684053787899202,
      0.007641932205728324,
      -0.04023495913067854,
      0.03229539905856133,
      -0.007887767557221927,
      0.023021778252456018
    ],
    [
      0.009678624839305313,
      0.0035742714134960026,
      0.0038208051425814684,
      0.026586517641924608,
      0.0014631632559684304,
      0.02023547475352049,
      0.0034981228017478914,
      0.0036289134330185204,
      0.09219097867658002,
      2.0889399054872225e-05,
      0.030079817728671052,
      0.023166279931626402,
      0.01221579210459733,
      -0.0009825899424045312,
      0.011734834449170057,
      -0.004346574198679069,
      2.0930098807304194e-05,
      -0.0019198555610478057,
      -0.000130910189723033,
      0.01633513953431853,
      0.018231680619578486,
      -0.008515955014708438,
      0.011811043747491768,
      0.00345337104517194,
      -0.007461701618943575,
      -0.006499141835628318,
      -0.005650370920201011,
      -0.10555216735480469,
      -0.010436910511240675,
      0.140281811602877,
      -0.011961439898873952,
      0.06880824138074547,
      -0.038671049169472185,
      -0.01668328379267693,
      0.016044512015657278,
      -0.006811807138973966,
      0.00516974240470271,
      -0.0035055229501988854,
      0.0035324737168877904,
      0.1836396644881442,
      -0.009745167987287136,
      0.00886539154438301,
      0.024180753598752096,
      0.05047991653580898,
      -0.0027662282089178495,
      0.005202885219440184,
      0.08728143507873252,
      -0.00854802542264766,
      -0.013591526569934665,
      0.03734670699689368,
      -0.006058519063595191,
      -0.00037004116427708563,
      -0.03227732214335269,
      -0.008286350217419537,
      -0.024409745890346512,
      0.02373941449861406,
      4.542284514902142e-05,
      0.005574833934056052,
      0.010608271084732581,
      -0.003054424334631012,
      -0.00937391133740961,
      0.012568230178943905,
      0.006715920528637603,
      -0.0009734222699289106,
      -0.008605703145153753,
      0.03143739334902633,
      -0.008824086417157978,
      0.11172422854898205,
      -0.0150658064774754,
      0.00601803793858872,
      0.010716240779034762,
      -0.008923979422299892,
      0.016141735703223102,
      0.15413330942190148,
      -0.004452438574511696,
      0.02559784593981215,
      0.010014433706562405,
      0.010808103339056213,
      -0.02089258712065774,
      -0.012271361896690688,
      0.03554674642942021,
      -0.006434898228524467,
      0.024832580796202694
    ],
    [
      0.008792565419149079,
      0.004105774345449249,
      0.021452936532069165,
      0.006883672693092851,
      0.00047808261167439853,
      0.01588697307888448,
      -0.0034780225552828487,
      0.02298090921863277,
      0.08264907886102923,
      2.090621609316831e-05,
      0.0188169642632212,
      -0.024938454992971686,
      0.03667722102221342,
      0.012476706520153234,
      -0.0017463304844887277,
      -0.01236041653113445,
      2.0940751965479365e-05,
      0.01297771753644712,
      0.032851856568065954,
      0.001905109206027232,
      -0.0014481728102903664,
      -0.0023152530552177746,
      -0.010172201290971648,
      -0.03388075855386211,
      -0.004719043815494544,
      0.018018974603057885,
      0.014543776897561,
      -0.08706675455207677,
      -0.03526389348387503,
      0.15171711468816576,
      0.008408938670113447,
      0.08468745779432012,
      -0.03734954353493927,
      0.009607108150921797,
      0.012281744764217398,
      -0.006695482849220078,
      0.00034990736009291815,
      -0.015355956577271438,
      0.015380674790783606,
      0.1674994613642766,
      -0.021057161500034387,
      -0.003322080598345168,
      0.024437918064545767,
      0.03980754850717314,
      -0.0022166241104695306,
      -0.002633098682771894,
      0.09406292051000364,
      -0.00798287313352425,
      -0.013091053264351303,
      0.006700925513807545,
      0.00281555393522457,
      -0.006843984217984603,
      -0.007153001912934733,
      0.007908226717336504,
      -0.012518172066230604,
      -0.006344197385137696,
      -0.003076243332717338,
      0.01567493939525104,
      0.015946562410327325,
      0.00047245780516518585,
      -0.0018672774954240328,
      0.010044702512615897,
      -0.0011894869984372396,
      -0.024072720485870794,
      -0.03211550434957529,
      0.020741829009811787,
      -0.004475640147150243,
      0.09074232910189002,
      -0.01888247140188891,
      -0.014055463459142112,
      -0.00824532779216999,
      -0.0037878765679048862,
      -0.0012572142038540317,
      0.15042798715126485,
      -0.006713796273456495,
      0.017421044746333967,
      0.007967706337189052,
      0.03565933994090055,
      -0.015603367250253677,
      -0.02915667441405455,
      0.03218307377642559,
      -0.01801360758453854,
      0.03296057886371542
    ],
    [
      0.016729815331579717,
      0.015973152479978735,
      0.022434342922890965,
      0.0046922148786299,
      -0.016717672608641945,
      -0.0012767650515677583,
      -0.018722730641622255,
      0.010275273201692602,
      0.0889576190102769,
      2.092048623125377e-05,
      0.019168163330482737,
      -0.012046638552431604,
      0.03729398907880476,
      0.013535055146659362,
      -0.01764983352720613,
      0.02231851614723308,
      2.0949791728339056e-05,
      0.00759803711791186,
      0.0030564592198868428,
      0.016380775612602975,
      0.013115587709195247,
      -0.010079137472028496,
      0.004261679578221721,
      -0.00290425552989572,
      0.018054463489953144,
      0.001078359653373136,
      -0.007540258110290958,
      -0.1046206456875722,
      -0.004783847666710481,
      0.14156567678376572,
      -0.0385218761310214,
      0.07033235780011865,
      -0.03762842799699286,
      0.025479451093719123,
      0.032109514724145444,
      0.00820731639938638,
      0.023749934672702526,
      0.011715252656636404,
      -0.011692754539059153,
      0.19711903764286087,
      -0.02421093745419901,
      -0.011907430405743404,
      0.00444598818987611,
      0.047330100777297865,
      0.0010810745541604636,
      -0.017224653870667503,
      0.0975277364898993,
      0.02111973106331866,
      -0.02098950406092323,
      0.0072372324059169525,
      -0.030226129743065294,
      0.021578497515625444,
      -0.005084265699606584,
      -0.026681573859275352,
      -0.004888037255603351,
      0.026138745059793165,
      0.020533555690735287,
      0.008575080890312475,
      0.009487774730705695,
      0.002180181737911061,
      0.004409775491971154,
      0.01188245106703319,
      -0.0019513822549951754,
      0.00642640828937133,
      -0.003096134742457529,
      0.02828479312896885,
      0.016716033560671854,
      0.08648945567144184,
      -0.014289899014148393,
      -0.0007529010574406085,
      0.001553358584197998,
      -0.020858433277006337,
      0.01123798672206721,
      0.1403901408855472,
      -0.0066983261286294275,
      0.031627374261894464,
      0.042702396201653114,
      -0.0041279728614323965,
      -0.01928208657071217,
      -0.036336403486785775,
      0.02582335780099175,
      -0.00724902890422603,
      0.015177210589446738
    ],
    [
      -0.0003355239406540268,
      -0.007696812838950002,
      0.017611372570060246,
      -0.022769943826344383,
      -0.006434301313464176,
      0.005542052297203698,
      0.021082941429165385,
      -0.008147589984798106,
      0.10510718947391288,
      2.093259519107121e-05,
      -0.0050306527015203766,
      0.00033917492889412116,
      0.023330638745324067,
      -0.025643365498607486,
      -0.009491943865004026,
      0.003784731294555712,
      2.0957462440743613e-05,
      0.004305632558716214,
      0.021282161703838398,
      -0.0013539332157325949,
      -0.0038379628526799886,
      -0.036012176965196825,
      0.0037430984809063038,
      -0.015084846367166782,
      -0.002037084041194755,
      0.010333933797271207,
      -0.007430673361944028,
      -0.07274097347442539,
      -0.03476863037404299,
      0.15432876316550534,
      -0.006488441306436707,
      0.08744258415854367,
      -0.03181563588618369,
      -0.005958813271503263,
      0.012369013992969028,
      -0.015968217519560714,
      5.650226924373315e-05,
      0.00035744758645957697,
      -0.0004179568804353654,
      0.16035164384903464,
      -0.016551104640751806,
      -0.01847070325989916,
      -0.008794335172810768,
      0.06397223267312376,
      0.01548250235206669,
      -0.022079103508886012,
      0.09508717817164665,
      0.007286586500823077,
      -0.0397691960011981,
      0.019838553154722095,
      -0.01250714549875831,
      0.015422106429459709,
      -0.004163967188236341,
      0.013023430413548951,
      0.0025367877378932235,
      -0.0023176502239598182,
      -0.01003214183508119,
      -0.00280388224289882,
      0.010700009564931563,
      -0.0022470384470695934,
      0.0025316436824819304,
      0.0021448359624234767,
      -0.003594004645120867,
      -0.0045222987021461825,
      -0.013559854931284457,
      0.04449913075471871,
      -0.0011891208163086636,
      0.09334859049609935,
      -0.02095150999541138,
      0.006293355848505158,
      0.010919271807602169,
      0.011849518237729777,
      0.005352518695962107,
      0.146012865579819,
      -0.00989709962149905,
      0.012979584000498251,
      0.04312496441481779,
      0.015404242736253248,
      -0.017449455335594947,
      -0.059917446801960636,
      0.02558137630416802,
      -0.011200897356037161,
      0.030429944138023503
    ],
    [
      -0.0016776517380775635,
      0.00018159339091166986,
      0.0004673522907412596,
      -0.01917347253201241,
      0.0027149176647628037,
      0.016804869592592454,
      0.022024315909933388,
      -0.0011585230778480742,
      0.09011666503057052,
      2.0942870277898286e-05,
      0.008216041864955422,
      0.027263321037479013,
      -0.012767342566988058,
      -0.013600901600495275,
      -0.010638614875825462,
      0.006429001232647997,
      2.096397144210877e-05,
      0.017777052277424515,
      0.0028313607179116553,
      0.003029176638121132,
      0.0019406502465927592,
      0.011914903358738679,
      -0.007088810358874823,
      0.00012197211551235893,
      0.004553165566592947,
      0.004504029487185564,
      0.001583431070280335,
      -0.09804680614440248,
      -0.020773794439010968,
      0.15754777802893893,
      -0.03645951102856229,
      0.07950730090878629,
      -0.03473607487983744,
      -0.010288173244004009,
      0.006339933221485506,
      0.00495547765144615,
      -0.012109402120359356,
      0.0036958473458211325,
      -0.0036729050437388604,
      0.1592756609113191,
      -0.014552869003983374,
      -0.0064438295545495815,
      0.00036138185786114435,
      0.04906780199667125,
      -0.0016504262286443578,
      -0.006867223011381962,
      0.07603117328723465,
      0.006566328254235682,
      -0.007345935060180427,
      0.009118801336132918,
      -0.015046154979306788,
      0.010437161414310595,
      0.018796516562316505,
      -0.008291602129422346,
      -0.004498532701903537,
      -0.0033630703447123825,
      -0.006688200006648973,
      0.010664886920268447,
      -0.002170839342687229,
      0.0007728664364585812,
      0.005272745049271915,
      -0.012316205271815133,
      -0.025743723525528155,
      0.006435373459316395,
      -0.002524653810121951,
      0.02953580393967835,
      0.021550861125357604,
      0.11180802812297967,
      0.0013612338610588396,
      -0.0011679654939041094,
      0.0046552740232185495,
      0.014430184188597263,
      0.03568275836062745,
      0.1491259857240924,
      0.0003121258725742055,
      0.016119428290154295,
      0.023246583683566382,
      0.02370389172407647,
      -0.021638264311565254,
      -0.031608136163900534,
      0.05696732476572473,
      0.011826222806474232,
      0.028640412759747616
    ],
    [
      -0.003461352260107106,
      -0.012640619066690027,
      0.011342252618178481,
      -0.01274813319871725,
      0.006661275917540019,
      0.015021398239825023,
      0.0011836745412422216,
      0.03129574164065508,
      0.09398114341281552,
      2.0951589227410736e-05,
      0.026513204700324988,
      -0.00037503797996558605,
      0.002866772106752291,
      0.003167128811868443,
      -0.010906606280786865,
      0.007732683918211322,
      2.096949467079131e-05,
      0.0049113093070744995,
      0.018122252649297607,
      0.012256622489171068,
      0.01003114650408087,
      0.0026857040223830083,
      -0.016007852007655466,
      -0.014067630502502782,
      0.015726509491213514,
      0.012833489438562763,
      0.01085783420401158,
      -0.0849159066275188,
      -0.021534463281208244,
      0.15310931468310116,
      -0.015691461761042757,
      0.06709592653420646,
      -0.0452481496671361,
      -0.0029988281191497975,
      0.026798675579828967,
      -0.004065132979554577,
      0.013911893700528042,
      0.011703729354092928,
      -0.011678547702285512,
      0.1780074047549996,
      -0.021544842720535962,
      0.02156072821111557,
      0.012464261267372694,
      0.056335707286242674,
      0.008434248164517204,
      -0.005125055917613268,
      0.10543336222665861,
      0.005361280214465539,
      0.007406303494120764,
      0.023477599200448646,
      -0.0035454215515016646,
      -0.01143622113321964,
      -0.005733231121886889,
      -0.02812152675390585,
      -0.027633113141179673,
      0.02191969638981417,
      0.0041514370234922975,
      0.0049761591914416065,
      0.00871419672069068,
      -0.010591247245273423,
      -0.018688798076888582,
      0.006152178123823306,
      0.010929774171039918,
      -0.02073176750662416,
      -0.02997747571244909,
      0.03655088594751865,
      0.016051146620533273,
      0.08547569623691263,
      -0.028259752779149227,
      -0.0141669709535362,
      -0.01336722910830284,
      0.006475030019633556,
      0.006685665802875965,
      0.14007875016000523,
      -0.01998395612202889,
      -0.007162414707881482,
      0.000977802671757071,
      0.004923789895741744,
      -0.0028548643087693464,
      -0.005963802218038478,
      0.04695193969002139,
      -0.003962372236742156,
      0.050995609673165306
    ],
    [
      -0.024972080925154766,
      -0.021220566733971102,
      0.021413968420303135,
      0.009279618824990957,
      -0.022349891420027246,
      -0.0024364493613735815,
      0.0051258999624439845,
      0.010060482883833004,
      0.0822095805356555,
      2.0958987712881765e-05,
      0.007959465006292053,
      -0.01280511491650973,
      0.014224844656350594,
      0.005537397046666422,
      -0.009213743597052588,
      0.00457718631042562,
      2.0974181419705545e-05,
      0.015785581450461113,
      0.023065351473405937,
      0.006866128241106575,
      0.0036666366839824627,
      -0.007506115263023276,
      -0.004186831695143746,
      -0.024038586123654098,
      -0.019613058552817694,
      0.013419666353330553,
      0.01357567128283339,
      -0.09685292371272589,
      -0.018868877173017995,
      0.1356015714605417,
      0.0087963666740167,
      0.07588704620275646,
      -0.02553470581264931,
      6.012549367462707e-05,
      0.007922506266397414,
      -0.01182603329312443,
      -0.0066534223068278235,
      0.003731024004833928,
      -0.0037915734882976023,
      0.18367223452749376,
      -0.020495497083257187,
      -0.006547010973833707,
      -0.004909806882685712,
      0.03828619018518925,
      -0.009051092651034551,
      -0.021514862093990027,
      0.0773266384724384,
      -0.0008061160719357347,
      -0.01246737390928785,
      0.01509172392846787,
      0.006985348624326572,
      0.01623023069133935,
      0.00439476348073147,
      -0.0050717240058569795,
      0.0055540029875123355,
      -0.011683680746352447,
      -0.003770316223178409,
      -0.013793718207273098,
      0.01720666629780767,
      0.007047576855433905,
      0.011009767306644602,
      -0.02585983109283653,
      -0.013089771010167488,
      0.00459268142409342,
      -0.00016543202872329292,
      0.018652269639244663,
      0.02841648731507579,
      0.07462546425882775,
      -0.023882493316631326,
      0.0012058910424792206,
      0.01597005131553582,
      0.01567445591824039,
      0.006123529611234667,
      0.14421363246605162,
      -0.02799024603400944,
      0.025464511944791483,
      0.019573263052270928,
      -0.010853897158104588,
      -0.002376258361490896,
      -0.018023348902358623,
      0.040899903377853604,
      0.005008770768382092,
      0.034678954253510245
    ],
    [
      -0.007337574772915952,
      -0.023866389818827514,
      -0.008010245308012693,
      2.879921524379038e-05,
      -0.006544950907935785,
      0.0075482532560428315,
      0.007048356984515928,
      -0.006609566432379076,
